<?xml version="1.0"?>
<MethodSetup Method="BDT::BDTG">
  <GeneralInfo>
    <Info name="TMVA Release" value="4.2.0 [262656]"/>
    <Info name="ROOT Release" value="6.02/05 [393733]"/>
    <Info name="Creator" value="shtan"/>
    <Info name="Date" value="Sat Apr 14 21:45:47 2018"/>
    <Info name="Host" value="Linux cmsbuild12.cern.ch 2.6.32-573.7.1.el6.x86_64 #1 SMP Wed Sep 23 10:12:03 CEST 2015 x86_64 x86_64 x86_64 GNU/Linux"/>
    <Info name="Dir" value="/eos/user/s/shtan/bdttrain/CMSSW_7_4_15/src/TTH_BDT_Training/2training"/>
    <Info name="Training events" value="84067"/>
    <Info name="TrainingTime" value="1.25058414e+02"/>
    <Info name="AnalysisType" value="Classification"/>
  </GeneralInfo>
  <Options>
    <Option name="V" modified="Yes">False</Option>
    <Option name="VerbosityLevel" modified="No">Default</Option>
    <Option name="VarTransform" modified="No">None</Option>
    <Option name="H" modified="Yes">False</Option>
    <Option name="CreateMVAPdfs" modified="No">False</Option>
    <Option name="IgnoreNegWeightsInTraining" modified="No">False</Option>
    <Option name="NTrees" modified="Yes">533</Option>
    <Option name="MaxDepth" modified="Yes">2</Option>
    <Option name="MinNodeSize" modified="No">5%</Option>
    <Option name="nCuts" modified="Yes">58</Option>
    <Option name="BoostType" modified="Yes">Grad</Option>
    <Option name="AdaBoostR2Loss" modified="No">quadratic</Option>
    <Option name="UseBaggedBoost" modified="Yes">True</Option>
    <Option name="Shrinkage" modified="Yes">4.000000e-02</Option>
    <Option name="AdaBoostBeta" modified="No">5.000000e-01</Option>
    <Option name="UseRandomisedTrees" modified="No">False</Option>
    <Option name="UseNvars" modified="No">3</Option>
    <Option name="UsePoissonNvars" modified="No">True</Option>
    <Option name="BaggedSampleFraction" modified="No">3.690000e-01</Option>
    <Option name="UseYesNoLeaf" modified="No">True</Option>
    <Option name="NegWeightTreatment" modified="Yes">ignorenegweightsintraining</Option>
    <Option name="Css" modified="No">1.000000e+00</Option>
    <Option name="Cts_sb" modified="No">1.000000e+00</Option>
    <Option name="Ctb_ss" modified="No">1.000000e+00</Option>
    <Option name="Cbb" modified="No">1.000000e+00</Option>
    <Option name="NodePurityLimit" modified="No">5.000000e-01</Option>
    <Option name="SeparationType" modified="No">giniindex</Option>
    <Option name="DoBoostMonitor" modified="No">False</Option>
    <Option name="UseFisherCuts" modified="No">False</Option>
    <Option name="MinLinCorrForFisher" modified="No">8.000000e-01</Option>
    <Option name="UseExclusiveVars" modified="No">False</Option>
    <Option name="DoPreselection" modified="No">False</Option>
    <Option name="SigToBkgFraction" modified="No">1.000000e+00</Option>
    <Option name="PruneMethod" modified="No">nopruning</Option>
    <Option name="PruneStrength" modified="No">0.000000e+00</Option>
    <Option name="PruningValFraction" modified="No">5.000000e-01</Option>
    <Option name="nEventsMin" modified="No">0</Option>
    <Option name="UseBaggedGrad" modified="No">False</Option>
    <Option name="GradBaggingFraction" modified="Yes">3.690000e-01</Option>
    <Option name="UseNTrainEvents" modified="No">0</Option>
    <Option name="NNodesMax" modified="No">0</Option>
  </Options>
  <Variables NVar="9">
    <Variable VarIndex="0" Expression="BDT_common5_input_HT" Label="BDT_common5_input_HT" Title="BDT_common5_input_HT" Unit="" Internal="BDT_common5_input_HT" Type="F" Min="1.57355499e+02" Max="3.72197119e+03"/>
    <Variable VarIndex="1" Expression="BDT_common5_input_h0" Label="BDT_common5_input_h0" Title="BDT_common5_input_h0" Unit="" Internal="BDT_common5_input_h0" Type="F" Min="1.13619037e-01" Max="4.48987335e-01"/>
    <Variable VarIndex="2" Expression="BDT_common5_input_Mlb" Label="BDT_common5_input_Mlb" Title="BDT_common5_input_Mlb" Unit="" Internal="BDT_common5_input_Mlb" Type="F" Min="1.60894883e+00" Max="1.41489722e+03"/>
    <Variable VarIndex="3" Expression="BDT_common5_input_pt_all_jets_over_E_all_jets" Label="BDT_common5_input_pt_all_jets_over_E_all_jets" Title="BDT_common5_input_pt_all_jets_over_E_all_jets" Unit="" Internal="BDT_common5_input_pt_all_jets_over_E_all_jets" Type="F" Min="2.04447195e-01" Max="9.89420533e-01"/>
    <Variable VarIndex="4" Expression="BDT_common5_input_h1" Label="BDT_common5_input_h1" Title="BDT_common5_input_h1" Unit="" Internal="BDT_common5_input_h1" Type="F" Min="-2.04900473e-01" Max="3.84888232e-01"/>
    <Variable VarIndex="5" Expression="Evt_Deta_TaggedJetsAverage" Label="Evt_Deta_TaggedJetsAverage" Title="Evt_Deta_TaggedJetsAverage" Unit="" Internal="Evt_Deta_TaggedJetsAverage" Type="F" Min="7.13968324e-03" Max="4.20271587e+00"/>
    <Variable VarIndex="6" Expression="BDT_common5_input_tagged_dijet_mass_closest_to_125" Label="BDT_common5_input_tagged_dijet_mass_closest_to_125" Title="BDT_common5_input_tagged_dijet_mass_closest_to_125" Unit="" Internal="BDT_common5_input_tagged_dijet_mass_closest_to_125" Type="F" Min="1.96503372e+01" Max="3.48948120e+02"/>
    <Variable VarIndex="7" Expression="BDT_common5_input_closest_tagged_dijet_mass" Label="BDT_common5_input_closest_tagged_dijet_mass" Title="BDT_common5_input_closest_tagged_dijet_mass" Unit="" Internal="BDT_common5_input_closest_tagged_dijet_mass" Type="F" Min="1.44972458e+01" Max="1.54156799e+03"/>
    <Variable VarIndex="8" Expression="BDT_common5_input_avg_btag_disc_btags" Label="BDT_common5_input_avg_btag_disc_btags" Title="BDT_common5_input_avg_btag_disc_btags" Unit="" Internal="BDT_common5_input_avg_btag_disc_btags" Type="F" Min="8.53669226e-01" Max="9.99250352e-01"/>
  </Variables>
  <Spectators NSpec="0"/>
  <Classes NClass="2">
    <Class Name="Signal" Index="0"/>
    <Class Name="Background" Index="1"/>
  </Classes>
  <Transformations NTransformations="0"/>
  <MVAPdfs/>
  <Weights NTrees="533" AnalysisType="1">
    <BinaryTree type="DecisionTree" boostWeight="1.0000000000000000e+00" itree="0">
      <Node pos="s" depth="0" NCoef="0" IVar="5" Cut="1.3614708185195923e+00" cType="1" res="9.0855633607134223e-04" rms="4.9999916553497314e-01" purity="5.0090855360031128e-01" nType="0">
        <Node pos="l" depth="1" NCoef="0" IVar="8" Cut="9.6223819255828857e-01" cType="1" res="5.6332569569349289e-02" rms="4.9681651592254639e-01" purity="5.5633258819580078e-01" nType="0">
          <Node pos="l" depth="2" NCoef="0" IVar="-1" Cut="0.0000000000000000e+00" cType="1" res="-3.0767696443945169e-04" rms="4.9994719028472900e-01" purity="4.9273252487182617e-01" nType="-99"/>
          <Node pos="r" depth="2" NCoef="0" IVar="-1" Cut="0.0000000000000000e+00" cType="1" res="7.6506473124027252e-03" rms="4.7207447886466980e-01" purity="6.6475945711135864e-01" nType="-99"/>
        </Node>
        <Node pos="r" depth="1" NCoef="0" IVar="8" Cut="9.6303683519363403e-01" cType="1" res="-1.7420513927936554e-01" rms="4.6867105364799500e-01" purity="3.2579487562179565e-01" nType="0">
          <Node pos="l" depth="2" NCoef="0" IVar="-1" Cut="0.0000000000000000e+00" cType="1" res="-8.1582274287939072e-03" rms="4.5030227303504944e-01" purity="2.8268024325370789e-01" nType="-99"/>
          <Node pos="r" depth="2" NCoef="0" IVar="-1" Cut="0.0000000000000000e+00" cType="1" res="-3.2685659825801849e-03" rms="4.9381816387176514e-01" purity="4.2161878943443298e-01" nType="-99"/>
        </Node>
      </Node>
    </BinaryTree>
    <BinaryTree type="DecisionTree" boostWeight="1.0000000000000000e+00" itree="1">
      <Node pos="s" depth="0" NCoef="0" IVar="5" Cut="1.3752074241638184e+00" cType="1" res="-2.3128194734454155e-03" rms="4.9934020638465881e-01" purity="4.9785998463630676e-01" nType="0">
        <Node pos="l" depth="1" NCoef="0" IVar="8" Cut="9.6957582235336304e-01" cType="1" res="4.8652082681655884e-02" rms="4.9716812372207642e-01" purity="5.4990857839584351e-01" nType="0">
          <Node pos="l" depth="2" NCoef="0" IVar="-1" Cut="0.0000000000000000e+00" cType="1" res="-1.7756006855051965e-04" rms="4.9990335106849670e-01" purity="4.9611032009124756e-01" nType="-99"/>
          <Node pos="r" depth="2" NCoef="0" IVar="-1" Cut="0.0000000000000000e+00" cType="1" res="9.0372906997799873e-03" rms="4.6028530597686768e-01" purity="6.9523531198501587e-01" nType="-99"/>
        </Node>
        <Node pos="r" depth="1" NCoef="0" IVar="8" Cut="9.5991325378417969e-01" cType="1" res="-1.6762492060661316e-01" rms="4.6968960762023926e-01" purity="3.2903268933296204e-01" nType="0">
          <Node pos="l" depth="2" NCoef="0" IVar="-1" Cut="0.0000000000000000e+00" cType="1" res="-8.2971379160881042e-03" rms="4.4564896821975708e-01" purity="2.7329090237617493e-01" nType="-99"/>
          <Node pos="r" depth="2" NCoef="0" IVar="-1" Cut="0.0000000000000000e+00" cType="1" res="-2.6408305857330561e-03" rms="4.9582237005233765e-01" purity="4.3563297390937805e-01" nType="-99"/>
        </Node>
      </Node>
    </BinaryTree>
    <BinaryTree type="DecisionTree" boostWeight="1.0000000000000000e+00" itree="2">
      <Node pos="s" depth="0" NCoef="0" IVar="5" Cut="1.3488595485687256e+00" cType="1" res="-8.4378616884350777e-03" rms="4.9859434366226196e-01" purity="4.9194177985191345e-01" nType="0">
        <Node pos="l" depth="1" NCoef="0" IVar="8" Cut="9.6197640895843506e-01" cType="1" res="4.6227924525737762e-02" rms="4.9694994091987610e-01" purity="5.4874360561370850e-01" nType="0">
          <Node pos="l" depth="2" NCoef="0" IVar="-1" Cut="0.0000000000000000e+00" cType="1" res="-7.6712784357368946e-04" rms="4.9965453147888184e-01" purity="4.8141658306121826e-01" nType="-99"/>
          <Node pos="r" depth="2" NCoef="0" IVar="-1" Cut="0.0000000000000000e+00" cType="1" res="7.1572992019355297e-03" rms="4.7330871224403381e-01" purity="6.6068392992019653e-01" nType="-99"/>
        </Node>
        <Node pos="r" depth="1" NCoef="0" IVar="8" Cut="9.5492774248123169e-01" cType="1" res="-1.7803749442100525e-01" rms="4.6437057852745056e-01" purity="3.1571507453918457e-01" nType="0">
          <Node pos="l" depth="2" NCoef="0" IVar="-1" Cut="0.0000000000000000e+00" cType="1" res="-8.7164314463734627e-03" rms="4.3799948692321777e-01" purity="2.5898343324661255e-01" nType="-99"/>
          <Node pos="r" depth="2" NCoef="0" IVar="-1" Cut="0.0000000000000000e+00" cType="1" res="-3.8867311086505651e-03" rms="4.8994180560112000e-01" purity="4.0119725465774536e-01" nType="-99"/>
        </Node>
      </Node>
    </BinaryTree>
    <BinaryTree type="DecisionTree" boostWeight="1.0000000000000000e+00" itree="3">
      <Node pos="s" depth="0" NCoef="0" IVar="5" Cut="1.3499225378036499e+00" cType="1" res="-3.3539829310029745e-03" rms="4.9812030792236328e-01" purity="4.9699538946151733e-01" nType="0">
        <Node pos="l" depth="1" NCoef="0" IVar="8" Cut="9.5486301183700562e-01" cType="1" res="4.9665074795484543e-02" rms="4.9626871943473816e-01" purity="5.5328822135925293e-01" nType="0">
          <Node pos="l" depth="2" NCoef="0" IVar="-1" Cut="0.0000000000000000e+00" cType="1" res="-7.7738845720887184e-04" rms="4.9962684512138367e-01" purity="4.8069167137145996e-01" nType="-99"/>
          <Node pos="r" depth="2" NCoef="0" IVar="-1" Cut="0.0000000000000000e+00" cType="1" res="5.7801436632871628e-03" rms="4.8095065355300903e-01" purity="6.3511884212493896e-01" nType="-99"/>
        </Node>
        <Node pos="r" depth="1" NCoef="0" IVar="8" Cut="9.5006269216537476e-01" cType="1" res="-1.6349402070045471e-01" rms="4.6856129169464111e-01" purity="3.2696717977523804e-01" nType="0">
          <Node pos="l" depth="2" NCoef="0" IVar="-1" Cut="0.0000000000000000e+00" cType="1" res="-8.4076318889856339e-03" rms="4.3902161717414856e-01" purity="2.6081722974777222e-01" nType="-99"/>
          <Node pos="r" depth="2" NCoef="0" IVar="-1" Cut="0.0000000000000000e+00" cType="1" res="-3.9040464907884598e-03" rms="4.8944562673568726e-01" purity="3.9870247244834900e-01" nType="-99"/>
        </Node>
      </Node>
    </BinaryTree>
    <BinaryTree type="DecisionTree" boostWeight="1.0000000000000000e+00" itree="4">
      <Node pos="s" depth="0" NCoef="0" IVar="5" Cut="1.2065832614898682e+00" cType="1" res="8.4517681971192360e-03" rms="4.9758630990982056e-01" purity="5.0898915529251099e-01" nType="0">
        <Node pos="l" depth="1" NCoef="0" IVar="8" Cut="9.4974642992019653e-01" cType="1" res="6.5399311482906342e-02" rms="4.9395143985748291e-01" purity="5.7022649049758911e-01" nType="0">
          <Node pos="l" depth="2" NCoef="0" IVar="-1" Cut="0.0000000000000000e+00" cType="1" res="-6.6859408980235457e-04" rms="4.9970924854278564e-01" purity="4.8295134305953979e-01" nType="-99"/>
          <Node pos="r" depth="2" NCoef="0" IVar="-1" Cut="0.0000000000000000e+00" cType="1" res="5.9185354039072990e-03" rms="4.7990602254867554e-01" purity="6.3833427429199219e-01" nType="-99"/>
        </Node>
        <Node pos="r" depth="1" NCoef="0" IVar="8" Cut="9.5255517959594727e-01" cType="1" res="-1.1631952971220016e-01" rms="4.8250946402549744e-01" purity="3.7481883168220520e-01" nType="0">
          <Node pos="l" depth="2" NCoef="0" IVar="-1" Cut="0.0000000000000000e+00" cType="1" res="-7.0344605483114719e-03" rms="4.5945039391517639e-01" purity="3.0392920970916748e-01" nType="-99"/>
          <Node pos="r" depth="2" NCoef="0" IVar="-1" Cut="0.0000000000000000e+00" cType="1" res="-1.4254599809646606e-03" rms="4.9743843078613281e-01" purity="4.6263623237609863e-01" nType="-99"/>
        </Node>
      </Node>
    </BinaryTree>
    <BinaryTree type="DecisionTree" boostWeight="1.0000000000000000e+00" itree="5">
      <Node pos="s" depth="0" NCoef="0" IVar="5" Cut="1.2160345315933228e+00" cType="1" res="-3.2191788777709007e-03" rms="4.9714833498001099e-01" purity="4.9768793582916260e-01" nType="0">
        <Node pos="l" depth="1" NCoef="0" IVar="8" Cut="9.5465904474258423e-01" cType="1" res="5.0768155604600906e-02" rms="4.9530118703842163e-01" purity="5.5696135759353638e-01" nType="0">
          <Node pos="l" depth="2" NCoef="0" IVar="-1" Cut="0.0000000000000000e+00" cType="1" res="-8.8158989092335105e-04" rms="4.9944746494293213e-01" purity="4.7786962985992432e-01" nType="-99"/>
          <Node pos="r" depth="2" NCoef="0" IVar="-1" Cut="0.0000000000000000e+00" cType="1" res="5.9756888076663017e-03" rms="4.7834271192550659e-01" purity="6.4393466711044312e-01" nType="-99"/>
        </Node>
        <Node pos="r" depth="1" NCoef="0" IVar="8" Cut="9.5986384153366089e-01" cType="1" res="-1.2554103136062622e-01" rms="4.7931566834449768e-01" purity="3.6338922381401062e-01" nType="0">
          <Node pos="l" depth="2" NCoef="0" IVar="-1" Cut="0.0000000000000000e+00" cType="1" res="-6.6606248728930950e-03" rms="4.6167218685150146e-01" purity="3.0945783853530884e-01" nType="-99"/>
          <Node pos="r" depth="2" NCoef="0" IVar="-1" Cut="0.0000000000000000e+00" cType="1" res="-1.4939997345209122e-03" rms="4.9748775362968445e-01" purity="4.6191492676734924e-01" nType="-99"/>
        </Node>
      </Node>
    </BinaryTree>
    <BinaryTree type="DecisionTree" boostWeight="1.0000000000000000e+00" itree="6">
      <Node pos="s" depth="0" NCoef="0" IVar="5" Cut="1.2079195976257324e+00" cType="1" res="5.0892736762762070e-03" rms="4.9661463499069214e-01" purity="5.0582742691040039e-01" nType="0">
        <Node pos="l" depth="1" NCoef="0" IVar="8" Cut="9.6717315912246704e-01" cType="1" res="5.8910243213176727e-02" rms="4.9392563104629517e-01" purity="5.6608307361602783e-01" nType="0">
          <Node pos="l" depth="2" NCoef="0" IVar="-1" Cut="0.0000000000000000e+00" cType="1" res="4.1540563688613474e-04" rms="4.9943405389785767e-01" purity="5.1158088445663452e-01" nType="-99"/>
          <Node pos="r" depth="2" NCoef="0" IVar="-1" Cut="0.0000000000000000e+00" cType="1" res="8.4323007613420486e-03" rms="4.5900717377662659e-01" purity="6.9821530580520630e-01" nType="-99"/>
        </Node>
        <Node pos="r" depth="1" NCoef="0" IVar="8" Cut="9.5987761020660400e-01" cType="1" res="-1.1258479207754135e-01" rms="4.8194319009780884e-01" purity="3.7408462166786194e-01" nType="0">
          <Node pos="l" depth="2" NCoef="0" IVar="-1" Cut="0.0000000000000000e+00" cType="1" res="-6.2691639177501202e-03" rms="4.6481850743293762e-01" purity="3.1737911701202393e-01" nType="-99"/>
          <Node pos="r" depth="2" NCoef="0" IVar="-1" Cut="0.0000000000000000e+00" cType="1" res="-7.3405308648943901e-04" rms="4.9843260645866394e-01" purity="4.7982150316238403e-01" nType="-99"/>
        </Node>
      </Node>
    </BinaryTree>
    <BinaryTree type="DecisionTree" boostWeight="1.0000000000000000e+00" itree="7">
      <Node pos="s" depth="0" NCoef="0" IVar="5" Cut="1.2182523012161255e+00" cType="1" res="-4.1816057637333870e-03" rms="4.9612879753112793e-01" purity="4.9706974625587463e-01" nType="0">
        <Node pos="l" depth="1" NCoef="0" IVar="8" Cut="9.6943801641464233e-01" cType="1" res="4.8411197960376740e-02" rms="4.9475315213203430e-01" purity="5.5717420578002930e-01" nType="0">
          <Node pos="l" depth="2" NCoef="0" IVar="-1" Cut="0.0000000000000000e+00" cType="1" res="1.4787296822760254e-04" rms="4.9940609931945801e-01" purity="5.0616002082824707e-01" nType="-99"/>
          <Node pos="r" depth="2" NCoef="0" IVar="-1" Cut="0.0000000000000000e+00" cType="1" res="7.8499494120478630e-03" rms="4.6177715063095093e-01" purity="6.9169414043426514e-01" nType="-99"/>
        </Node>
        <Node pos="r" depth="1" NCoef="0" IVar="8" Cut="9.6700286865234375e-01" cType="1" res="-1.2329113483428955e-01" rms="4.7830897569656372e-01" purity="3.6094826459884644e-01" nType="0">
          <Node pos="l" depth="2" NCoef="0" IVar="-1" Cut="0.0000000000000000e+00" cType="1" res="-6.3783987425267696e-03" rms="4.6393266320228577e-01" purity="3.1526085734367371e-01" nType="-99"/>
          <Node pos="r" depth="2" NCoef="0" IVar="-1" Cut="0.0000000000000000e+00" cType="1" res="-3.4502710332162678e-04" rms="4.9869185686111450e-01" purity="4.8906406760215759e-01" nType="-99"/>
        </Node>
      </Node>
    </BinaryTree>
    <BinaryTree type="DecisionTree" boostWeight="1.0000000000000000e+00" itree="8">
      <Node pos="s" depth="0" NCoef="0" IVar="5" Cut="1.3503438234329224e+00" cType="1" res="-6.9773029536008835e-03" rms="4.9568048119544983e-01" purity="4.9413961172103882e-01" nType="0">
        <Node pos="l" depth="1" NCoef="0" IVar="8" Cut="9.5236831903457642e-01" cType="1" res="3.7741690874099731e-02" rms="4.9554115533828735e-01" purity="5.4641598463058472e-01" nType="0">
          <Node pos="l" depth="2" NCoef="0" IVar="-1" Cut="0.0000000000000000e+00" cType="1" res="-1.4463801635429263e-03" rms="4.9842399358749390e-01" purity="4.6234887838363647e-01" nType="-99"/>
          <Node pos="r" depth="2" NCoef="0" IVar="-1" Cut="0.0000000000000000e+00" cType="1" res="4.8854313790798187e-03" rms="4.8266661167144775e-01" purity="6.2644898891448975e-01" nType="-99"/>
        </Node>
        <Node pos="r" depth="1" NCoef="0" IVar="5" Cut="1.8278832435607910e+00" cType="1" res="-1.4355175197124481e-01" rms="4.7049003839492798e-01" purity="3.3448451757431030e-01" nType="0">
          <Node pos="l" depth="2" NCoef="0" IVar="-1" Cut="0.0000000000000000e+00" cType="1" res="-3.7963907234370708e-03" rms="4.8496070504188538e-01" purity="3.8388425111770630e-01" nType="-99"/>
          <Node pos="r" depth="2" NCoef="0" IVar="-1" Cut="0.0000000000000000e+00" cType="1" res="-8.6856447160243988e-03" rms="4.2885133624076843e-01" purity="2.4432688951492310e-01" nType="-99"/>
        </Node>
      </Node>
    </BinaryTree>
    <BinaryTree type="DecisionTree" boostWeight="1.0000000000000000e+00" itree="9">
      <Node pos="s" depth="0" NCoef="0" IVar="8" Cut="9.5505696535110474e-01" cType="1" res="-3.6942502483725548e-03" rms="4.9501430988311768e-01" purity="4.9745580554008484e-01" nType="0">
        <Node pos="l" depth="1" NCoef="0" IVar="5" Cut="1.2817678451538086e+00" cType="1" res="-7.5125135481357574e-02" rms="4.9035015702247620e-01" purity="4.1427838802337646e-01" nType="0">
          <Node pos="l" depth="2" NCoef="0" IVar="-1" Cut="0.0000000000000000e+00" cType="1" res="-1.2415216770023108e-03" rms="4.9880921840667725e-01" purity="4.6815341711044312e-01" nType="-99"/>
          <Node pos="r" depth="2" NCoef="0" IVar="-1" Cut="0.0000000000000000e+00" cType="1" res="-6.9659352302551270e-03" rms="4.5278728008270264e-01" purity="2.8900888562202454e-01" nType="-99"/>
        </Node>
        <Node pos="r" depth="1" NCoef="0" IVar="5" Cut="1.2035098075866699e+00" cType="1" res="8.2234516739845276e-02" rms="4.8687386512756348e-01" purity="5.9751516580581665e-01" nType="0">
          <Node pos="l" depth="2" NCoef="0" IVar="-1" Cut="0.0000000000000000e+00" cType="1" res="6.2758526764810085e-03" rms="4.7315043210983276e-01" purity="6.5928989648818970e-01" nType="-99"/>
          <Node pos="r" depth="2" NCoef="0" IVar="-1" Cut="0.0000000000000000e+00" cType="1" res="-1.7509618774056435e-03" rms="4.9641022086143494e-01" purity="4.5093172788619995e-01" nType="-99"/>
        </Node>
      </Node>
    </BinaryTree>
    <BinaryTree type="DecisionTree" boostWeight="1.0000000000000000e+00" itree="10">
      <Node pos="s" depth="0" NCoef="0" IVar="5" Cut="1.3518021106719971e+00" cType="1" res="4.6539622417185456e-05" rms="4.9476620554924011e-01" purity="5.0145065784454346e-01" nType="0">
        <Node pos="l" depth="1" NCoef="0" IVar="8" Cut="9.5714741945266724e-01" cType="1" res="4.3013304471969604e-02" rms="4.9431195855140686e-01" purity="5.5322849750518799e-01" nType="0">
          <Node pos="l" depth="2" NCoef="0" IVar="-1" Cut="0.0000000000000000e+00" cType="1" res="-6.7071244120597839e-04" rms="4.9931421875953674e-01" purity="4.8124766349792480e-01" nType="-99"/>
          <Node pos="r" depth="2" NCoef="0" IVar="-1" Cut="0.0000000000000000e+00" cType="1" res="5.5341306142508984e-03" rms="4.7700509428977966e-01" purity="6.4634191989898682e-01" nType="-99"/>
        </Node>
        <Node pos="r" depth="1" NCoef="0" IVar="5" Cut="1.6871241331100464e+00" cType="1" res="-1.3955099880695343e-01" rms="4.6985936164855957e-01" purity="3.3322614431381226e-01" nType="0">
          <Node pos="l" depth="2" NCoef="0" IVar="-1" Cut="0.0000000000000000e+00" cType="1" res="-3.3275610767304897e-03" rms="4.8652780055999756e-01" purity="3.9123219251632690e-01" nType="-99"/>
          <Node pos="r" depth="2" NCoef="0" IVar="-1" Cut="0.0000000000000000e+00" cType="1" res="-7.6273973099887371e-03" rms="4.4512885808944702e-01" purity="2.7448409795761108e-01" nType="-99"/>
        </Node>
      </Node>
    </BinaryTree>
    <BinaryTree type="DecisionTree" boostWeight="1.0000000000000000e+00" itree="11">
      <Node pos="s" depth="0" NCoef="0" IVar="5" Cut="1.2083345651626587e+00" cType="1" res="-8.9348974870517850e-04" rms="4.9461817741394043e-01" purity="5.0072032213211060e-01" nType="0">
        <Node pos="l" depth="1" NCoef="0" IVar="8" Cut="9.4503599405288696e-01" cType="1" res="4.8108745366334915e-02" rms="4.9372863769531250e-01" purity="5.6137663125991821e-01" nType="0">
          <Node pos="l" depth="2" NCoef="0" IVar="-1" Cut="0.0000000000000000e+00" cType="1" res="-1.2165894731879234e-03" rms="4.9895870685577393e-01" purity="4.6768409013748169e-01" nType="-99"/>
          <Node pos="r" depth="2" NCoef="0" IVar="-1" Cut="0.0000000000000000e+00" cType="1" res="4.1773733682930470e-03" rms="4.8517760634422302e-01" purity="6.1516439914703369e-01" nType="-99"/>
        </Node>
        <Node pos="r" depth="1" NCoef="0" IVar="8" Cut="9.5260798931121826e-01" cType="1" res="-1.0732461512088776e-01" rms="4.7959738969802856e-01" purity="3.6897701025009155e-01" nType="0">
          <Node pos="l" depth="2" NCoef="0" IVar="-1" Cut="0.0000000000000000e+00" cType="1" res="-6.4417514950037003e-03" rms="4.5618849992752075e-01" purity="2.9769077897071838e-01" nType="-99"/>
          <Node pos="r" depth="2" NCoef="0" IVar="-1" Cut="0.0000000000000000e+00" cType="1" res="-1.3811736134812236e-03" rms="4.9659529328346252e-01" purity="4.5600488781929016e-01" nType="-99"/>
        </Node>
      </Node>
    </BinaryTree>
    <BinaryTree type="DecisionTree" boostWeight="1.0000000000000000e+00" itree="12">
      <Node pos="s" depth="0" NCoef="0" IVar="5" Cut="9.9782431125640869e-01" cType="1" res="-7.3276176117360592e-03" rms="4.9385434389114380e-01" purity="4.9381414055824280e-01" nType="0">
        <Node pos="l" depth="1" NCoef="0" IVar="8" Cut="9.6261024475097656e-01" cType="1" res="6.0635790228843689e-02" rms="4.9129477143287659e-01" purity="5.7471561431884766e-01" nType="0">
          <Node pos="l" depth="2" NCoef="0" IVar="-1" Cut="0.0000000000000000e+00" cType="1" res="3.9221887709572911e-04" rms="4.9932965636253357e-01" purity="5.1062083244323730e-01" nType="-99"/>
          <Node pos="r" depth="2" NCoef="0" IVar="-1" Cut="0.0000000000000000e+00" cType="1" res="7.1174125187098980e-03" rms="4.6309620141983032e-01" purity="6.8778836727142334e-01" nType="-99"/>
        </Node>
        <Node pos="r" depth="1" NCoef="0" IVar="8" Cut="9.5498687028884888e-01" cType="1" res="-8.8385857641696930e-02" rms="4.8458239436149597e-01" purity="3.9732491970062256e-01" nType="0">
          <Node pos="l" depth="2" NCoef="0" IVar="-1" Cut="0.0000000000000000e+00" cType="1" res="-5.6859254837036133e-03" rms="4.6633177995681763e-01" purity="3.2565870881080627e-01" nType="-99"/>
          <Node pos="r" depth="2" NCoef="0" IVar="-1" Cut="0.0000000000000000e+00" cType="1" res="-2.3729706299491227e-04" rms="4.9732798337936401e-01" purity="4.9767166376113892e-01" nType="-99"/>
        </Node>
      </Node>
    </BinaryTree>
    <BinaryTree type="DecisionTree" boostWeight="1.0000000000000000e+00" itree="13">
      <Node pos="s" depth="0" NCoef="0" IVar="5" Cut="1.2182523012161255e+00" cType="1" res="9.6752970421221107e-05" rms="4.9345242977142334e-01" purity="5.0163072347640991e-01" nType="0">
        <Node pos="l" depth="1" NCoef="0" IVar="8" Cut="9.4763129949569702e-01" cType="1" res="5.0006255507469177e-02" rms="4.9250864982604980e-01" purity="5.6492626667022705e-01" nType="0">
          <Node pos="l" depth="2" NCoef="0" IVar="-1" Cut="0.0000000000000000e+00" cType="1" res="-1.2439095880836248e-03" rms="4.9878960847854614e-01" purity="4.6605759859085083e-01" nType="-99"/>
          <Node pos="r" depth="2" NCoef="0" IVar="-1" Cut="0.0000000000000000e+00" cType="1" res="4.8674009740352631e-03" rms="4.8033770918846130e-01" purity="6.3361120223999023e-01" nType="-99"/>
        </Node>
        <Node pos="r" depth="1" NCoef="0" IVar="3" Cut="5.8462369441986084e-01" cType="1" res="-1.0977432131767273e-01" rms="4.7748145461082458e-01" purity="3.6229154467582703e-01" nType="0">
          <Node pos="l" depth="2" NCoef="0" IVar="-1" Cut="0.0000000000000000e+00" cType="1" res="-6.3055567443370819e-03" rms="4.5902025699615479e-01" purity="3.0834731459617615e-01" nType="-99"/>
          <Node pos="r" depth="2" NCoef="0" IVar="-1" Cut="0.0000000000000000e+00" cType="1" res="-1.1929721804335713e-03" rms="4.9404254555702209e-01" purity="4.4617760181427002e-01" nType="-99"/>
        </Node>
      </Node>
    </BinaryTree>
    <BinaryTree type="DecisionTree" boostWeight="1.0000000000000000e+00" itree="14">
      <Node pos="s" depth="0" NCoef="0" IVar="5" Cut="1.3496515750885010e+00" cType="1" res="-9.7242917399853468e-04" rms="4.9288520216941833e-01" purity="5.0062268972396851e-01" nType="0">
        <Node pos="l" depth="1" NCoef="0" IVar="8" Cut="9.5750260353088379e-01" cType="1" res="4.1525289416313171e-02" rms="4.9302166700363159e-01" purity="5.5512303113937378e-01" nType="0">
          <Node pos="l" depth="2" NCoef="0" IVar="-1" Cut="0.0000000000000000e+00" cType="1" res="-7.1470480179414153e-04" rms="4.9894937872886658e-01" purity="4.7949570417404175e-01" nType="-99"/>
          <Node pos="r" depth="2" NCoef="0" IVar="-1" Cut="0.0000000000000000e+00" cType="1" res="5.5318260565400124e-03" rms="4.7411963343620300e-01" purity="6.5493446588516235e-01" nType="-99"/>
        </Node>
        <Node pos="r" depth="1" NCoef="0" IVar="5" Cut="1.6850168704986572e+00" cType="1" res="-1.3440540432929993e-01" rms="4.6801534295082092e-01" purity="3.2950428128242493e-01" nType="0">
          <Node pos="l" depth="2" NCoef="0" IVar="-1" Cut="0.0000000000000000e+00" cType="1" res="-3.2271591480821371e-03" rms="4.8468473553657532e-01" purity="3.8520723581314087e-01" nType="-99"/>
          <Node pos="r" depth="2" NCoef="0" IVar="-1" Cut="0.0000000000000000e+00" cType="1" res="-7.3720463551580906e-03" rms="4.4362214207649231e-01" purity="2.7207389473915100e-01" nType="-99"/>
        </Node>
      </Node>
    </BinaryTree>
    <BinaryTree type="DecisionTree" boostWeight="1.0000000000000000e+00" itree="15">
      <Node pos="s" depth="0" NCoef="0" IVar="5" Cut="1.4172128438949585e+00" cType="1" res="-2.3679994046688080e-03" rms="4.9231648445129395e-01" purity="4.9925926327705383e-01" nType="0">
        <Node pos="l" depth="1" NCoef="0" IVar="8" Cut="9.5218545198440552e-01" cType="1" res="3.6851648241281509e-02" rms="4.9297341704368591e-01" purity="5.4977512359619141e-01" nType="0">
          <Node pos="l" depth="2" NCoef="0" IVar="-1" Cut="0.0000000000000000e+00" cType="1" res="-1.4086439041420817e-03" rms="4.9748855829238892e-01" purity="4.5832410454750061e-01" nType="-99"/>
          <Node pos="r" depth="2" NCoef="0" IVar="-1" Cut="0.0000000000000000e+00" cType="1" res="4.8306132666766644e-03" rms="4.7900265455245972e-01" purity="6.3671743869781494e-01" nType="-99"/>
        </Node>
        <Node pos="r" depth="1" NCoef="0" IVar="8" Cut="9.6712267398834229e-01" cType="1" res="-1.4346385002136230e-01" rms="4.6325489878654480e-01" purity="3.1752428412437439e-01" nType="0">
          <Node pos="l" depth="2" NCoef="0" IVar="-1" Cut="0.0000000000000000e+00" cType="1" res="-6.7108841612935066e-03" rms="4.4724321365356445e-01" purity="2.7849462628364563e-01" nType="-99"/>
          <Node pos="r" depth="2" NCoef="0" IVar="-1" Cut="0.0000000000000000e+00" cType="1" res="-1.8192350398749113e-03" rms="4.9535724520683289e-01" purity="4.3537461757659912e-01" nType="-99"/>
        </Node>
      </Node>
    </BinaryTree>
    <BinaryTree type="DecisionTree" boostWeight="1.0000000000000000e+00" itree="16">
      <Node pos="s" depth="0" NCoef="0" IVar="5" Cut="1.1886527538299561e+00" cType="1" res="3.7138767074793577e-03" rms="4.9224886298179626e-01" purity="5.0578057765960693e-01" nType="0">
        <Node pos="l" depth="1" NCoef="0" IVar="8" Cut="9.6749556064605713e-01" cType="1" res="5.1086917519569397e-02" rms="4.9109143018722534e-01" purity="5.6910640001296997e-01" nType="0">
          <Node pos="l" depth="2" NCoef="0" IVar="-1" Cut="0.0000000000000000e+00" cType="1" res="2.8804197791032493e-04" rms="4.9865651130676270e-01" purity="5.1138931512832642e-01" nType="-99"/>
          <Node pos="r" depth="2" NCoef="0" IVar="-1" Cut="0.0000000000000000e+00" cType="1" res="7.3483358137309551e-03" rms="4.5703491568565369e-01" purity="7.0238029956817627e-01" nType="-99"/>
        </Node>
        <Node pos="r" depth="1" NCoef="0" IVar="3" Cut="5.4874318838119507e-01" cType="1" res="-9.3412980437278748e-02" rms="4.8021623492240906e-01" purity="3.7594649195671082e-01" nType="0">
          <Node pos="l" depth="2" NCoef="0" IVar="-1" Cut="0.0000000000000000e+00" cType="1" res="-6.2605855055153370e-03" rms="4.5618951320648193e-01" purity="3.0284690856933594e-01" nType="-99"/>
          <Node pos="r" depth="2" NCoef="0" IVar="-1" Cut="0.0000000000000000e+00" cType="1" res="-1.1556798126548529e-03" rms="4.9341145157814026e-01" purity="4.4636678695678711e-01" nType="-99"/>
        </Node>
      </Node>
    </BinaryTree>
    <BinaryTree type="DecisionTree" boostWeight="1.0000000000000000e+00" itree="17">
      <Node pos="s" depth="0" NCoef="0" IVar="5" Cut="1.3896660804748535e+00" cType="1" res="-4.8135844990611076e-03" rms="4.9180379509925842e-01" purity="4.9676209688186646e-01" nType="0">
        <Node pos="l" depth="1" NCoef="0" IVar="8" Cut="9.6075028181076050e-01" cType="1" res="3.4929141402244568e-02" rms="4.9306821823120117e-01" purity="5.4998254776000977e-01" nType="0">
          <Node pos="l" depth="2" NCoef="0" IVar="-1" Cut="0.0000000000000000e+00" cType="1" res="-4.8403022810816765e-04" rms="4.9881118535995483e-01" purity="4.8536142706871033e-01" nType="-99"/>
          <Node pos="r" depth="2" NCoef="0" IVar="-1" Cut="0.0000000000000000e+00" cType="1" res="5.0751534290611744e-03" rms="4.7426575422286987e-01" purity="6.5363240242004395e-01" nType="-99"/>
        </Node>
        <Node pos="r" depth="1" NCoef="0" IVar="8" Cut="9.5502930879592896e-01" cType="1" res="-1.3829629123210907e-01" rms="4.6321251988410950e-01" purity="3.1801214814186096e-01" nType="0">
          <Node pos="l" depth="2" NCoef="0" IVar="-1" Cut="0.0000000000000000e+00" cType="1" res="-7.0756105706095695e-03" rms="4.3738180398941040e-01" purity="2.5869479775428772e-01" nType="-99"/>
          <Node pos="r" depth="2" NCoef="0" IVar="-1" Cut="0.0000000000000000e+00" cType="1" res="-2.7362427208572626e-03" rms="4.9039429426193237e-01" purity="4.0611156821250916e-01" nType="-99"/>
        </Node>
      </Node>
    </BinaryTree>
    <BinaryTree type="DecisionTree" boostWeight="1.0000000000000000e+00" itree="18">
      <Node pos="s" depth="0" NCoef="0" IVar="5" Cut="1.3130226135253906e+00" cType="1" res="-2.2759847342967987e-03" rms="4.9133402109146118e-01" purity="4.9985402822494507e-01" nType="0">
        <Node pos="l" depth="1" NCoef="0" IVar="8" Cut="9.5977073907852173e-01" cType="1" res="3.9474546909332275e-02" rms="4.9215522408485413e-01" purity="5.5773115158081055e-01" nType="0">
          <Node pos="l" depth="2" NCoef="0" IVar="-1" Cut="0.0000000000000000e+00" cType="1" res="-4.9292988842353225e-04" rms="4.9905911087989807e-01" purity="4.8617401719093323e-01" nType="-99"/>
          <Node pos="r" depth="2" NCoef="0" IVar="-1" Cut="0.0000000000000000e+00" cType="1" res="5.3725647740066051e-03" rms="4.7199574112892151e-01" purity="6.6235059499740601e-01" nType="-99"/>
        </Node>
        <Node pos="r" depth="1" NCoef="0" IVar="8" Cut="9.6709877252578735e-01" cType="1" res="-1.1819191277027130e-01" rms="4.6999010443687439e-01" purity="3.3916434645652771e-01" nType="0">
          <Node pos="l" depth="2" NCoef="0" IVar="-1" Cut="0.0000000000000000e+00" cType="1" res="-6.0192989185452461e-03" rms="4.5433530211448669e-01" purity="2.9423299431800842e-01" nType="-99"/>
          <Node pos="r" depth="2" NCoef="0" IVar="-1" Cut="0.0000000000000000e+00" cType="1" res="-2.8325236053206027e-04" rms="4.9723908305168152e-01" purity="4.7273796796798706e-01" nType="-99"/>
        </Node>
      </Node>
    </BinaryTree>
    <BinaryTree type="DecisionTree" boostWeight="1.0000000000000000e+00" itree="19">
      <Node pos="s" depth="0" NCoef="0" IVar="5" Cut="1.3582574129104614e+00" cType="1" res="-1.0440672049298882e-03" rms="4.9098581075668335e-01" purity="5.0125420093536377e-01" nType="0">
        <Node pos="l" depth="1" NCoef="0" IVar="8" Cut="9.6946626901626587e-01" cType="1" res="3.9016760885715485e-02" rms="4.9218493700027466e-01" purity="5.5720382928848267e-01" nType="0">
          <Node pos="l" depth="2" NCoef="0" IVar="-1" Cut="0.0000000000000000e+00" cType="1" res="1.6751475050114095e-04" rms="4.9830752611160278e-01" purity="5.0772708654403687e-01" nType="-99"/>
          <Node pos="r" depth="2" NCoef="0" IVar="-1" Cut="0.0000000000000000e+00" cType="1" res="6.0728811658918858e-03" rms="4.6455046534538269e-01" purity="6.8273448944091797e-01" nType="-99"/>
        </Node>
        <Node pos="r" depth="1" NCoef="0" IVar="3" Cut="5.3998529911041260e-01" cType="1" res="-1.2707056105136871e-01" rms="4.6521696448326111e-01" purity="3.2524353265762329e-01" nType="0">
          <Node pos="l" depth="2" NCoef="0" IVar="-1" Cut="0.0000000000000000e+00" cType="1" res="-7.1678399108350277e-03" rms="4.3615803122520447e-01" purity="2.6015904545783997e-01" nType="-99"/>
          <Node pos="r" depth="2" NCoef="0" IVar="-1" Cut="0.0000000000000000e+00" cType="1" res="-2.3924808483570814e-03" rms="4.8662248253822327e-01" purity="3.9828255772590637e-01" nType="-99"/>
        </Node>
      </Node>
    </BinaryTree>
    <BinaryTree type="DecisionTree" boostWeight="1.0000000000000000e+00" itree="20">
      <Node pos="s" depth="0" NCoef="0" IVar="5" Cut="1.6148798465728760e+00" cType="1" res="-3.2553214114159346e-03" rms="4.9086296558380127e-01" purity="4.9849700927734375e-01" nType="0">
        <Node pos="l" depth="1" NCoef="0" IVar="8" Cut="9.6700251102447510e-01" cType="1" res="2.3302502930164337e-02" rms="4.9271067976951599e-01" purity="5.3429394960403442e-01" nType="0">
          <Node pos="l" depth="2" NCoef="0" IVar="-1" Cut="0.0000000000000000e+00" cType="1" res="-6.5667746821418405e-04" rms="4.9664357304573059e-01" purity="4.7959002852439880e-01" nType="-99"/>
          <Node pos="r" depth="2" NCoef="0" IVar="-1" Cut="0.0000000000000000e+00" cType="1" res="5.3885160014033318e-03" rms="4.7085285186767578e-01" purity="6.6264021396636963e-01" nType="-99"/>
        </Node>
        <Node pos="r" depth="1" NCoef="0" IVar="3" Cut="4.7537091374397278e-01" cType="1" res="-1.6539108753204346e-01" rms="4.4638261198997498e-01" purity="2.7995654940605164e-01" nType="0">
          <Node pos="l" depth="2" NCoef="0" IVar="-1" Cut="0.0000000000000000e+00" cType="1" res="-8.7555004283785820e-03" rms="4.0172547101974487e-01" purity="2.0591555535793304e-01" nType="-99"/>
          <Node pos="r" depth="2" NCoef="0" IVar="-1" Cut="0.0000000000000000e+00" cType="1" res="-4.5223045162856579e-03" rms="4.6942520141601562e-01" purity="3.3370390534400940e-01" nType="-99"/>
        </Node>
      </Node>
    </BinaryTree>
    <BinaryTree type="DecisionTree" boostWeight="1.0000000000000000e+00" itree="21">
      <Node pos="s" depth="0" NCoef="0" IVar="5" Cut="1.4314656257629395e+00" cType="1" res="9.0039524366147816e-05" rms="4.9111816287040710e-01" purity="5.0270056724548340e-01" nType="0">
        <Node pos="l" depth="1" NCoef="0" IVar="8" Cut="9.7466689348220825e-01" cType="1" res="2.9465980827808380e-02" rms="4.9256452918052673e-01" purity="5.4684847593307495e-01" nType="0">
          <Node pos="l" depth="2" NCoef="0" IVar="-1" Cut="0.0000000000000000e+00" cType="1" res="-3.1050221878103912e-05" rms="4.9730482697486877e-01" purity="5.0522184371948242e-01" nType="-99"/>
          <Node pos="r" depth="2" NCoef="0" IVar="-1" Cut="0.0000000000000000e+00" cType="1" res="6.6261659376323223e-03" rms="4.5911142230033875e-01" purity="6.9617623090744019e-01" nType="-99"/>
        </Node>
        <Node pos="r" depth="1" NCoef="0" IVar="0" Cut="5.7663269042968750e+02" cType="1" res="-1.1128579825162888e-01" rms="4.6917635202407837e-01" purity="3.3531811833381653e-01" nType="0">
          <Node pos="l" depth="2" NCoef="0" IVar="-1" Cut="0.0000000000000000e+00" cType="1" res="-6.0903024859726429e-03" rms="4.4974857568740845e-01" purity="2.8698214888572693e-01" nType="-99"/>
          <Node pos="r" depth="2" NCoef="0" IVar="-1" Cut="0.0000000000000000e+00" cType="1" res="-1.5855705132707953e-03" rms="4.8831701278686523e-01" purity="4.0910440683364868e-01" nType="-99"/>
        </Node>
      </Node>
    </BinaryTree>
    <BinaryTree type="DecisionTree" boostWeight="1.0000000000000000e+00" itree="22">
      <Node pos="s" depth="0" NCoef="0" IVar="5" Cut="1.4402991533279419e+00" cType="1" res="-1.3883471256121993e-03" rms="4.9052482843399048e-01" purity="5.0093144178390503e-01" nType="0">
        <Node pos="l" depth="1" NCoef="0" IVar="8" Cut="9.6788793802261353e-01" cType="1" res="3.0992407351732254e-02" rms="4.9229073524475098e-01" purity="5.4826498031616211e-01" nType="0">
          <Node pos="l" depth="2" NCoef="0" IVar="-1" Cut="0.0000000000000000e+00" cType="1" res="-1.7514756473246962e-04" rms="4.9816721677780151e-01" purity="4.9611112475395203e-01" nType="-99"/>
          <Node pos="r" depth="2" NCoef="0" IVar="-1" Cut="0.0000000000000000e+00" cType="1" res="5.6498195044696331e-03" rms="4.6630889177322388e-01" purity="6.7686170339584351e-01" nType="-99"/>
        </Node>
        <Node pos="r" depth="1" NCoef="0" IVar="3" Cut="5.8536714315414429e-01" cType="1" res="-1.2648411095142365e-01" rms="4.6282836794853210e-01" purity="3.1806892156600952e-01" nType="0">
          <Node pos="l" depth="2" NCoef="0" IVar="-1" Cut="0.0000000000000000e+00" cType="1" res="-6.4795552752912045e-03" rms="4.4439586997032166e-01" purity="2.7548605203628540e-01" nType="-99"/>
          <Node pos="r" depth="2" NCoef="0" IVar="-1" Cut="0.0000000000000000e+00" cType="1" res="-1.8501288723200560e-03" rms="4.8905625939369202e-01" purity="4.0659365057945251e-01" nType="-99"/>
        </Node>
      </Node>
    </BinaryTree>
    <BinaryTree type="DecisionTree" boostWeight="1.0000000000000000e+00" itree="23">
      <Node pos="s" depth="0" NCoef="0" IVar="5" Cut="1.0456979274749756e+00" cType="1" res="-4.9522374756634235e-03" rms="4.8945772647857666e-01" purity="4.9767798185348511e-01" nType="0">
        <Node pos="l" depth="1" NCoef="0" IVar="8" Cut="9.3005329370498657e-01" cType="1" res="5.6020930409431458e-02" rms="4.8834484815597534e-01" purity="5.8056932687759399e-01" nType="0">
          <Node pos="l" depth="2" NCoef="0" IVar="-1" Cut="0.0000000000000000e+00" cType="1" res="-2.4435722734779119e-03" rms="4.9539700150489807e-01" purity="4.3258777260780334e-01" nType="-99"/>
          <Node pos="r" depth="2" NCoef="0" IVar="-1" Cut="0.0000000000000000e+00" cType="1" res="4.0387623012065887e-03" rms="4.8142191767692566e-01" purity="6.2117713689804077e-01" nType="-99"/>
        </Node>
        <Node pos="r" depth="1" NCoef="0" IVar="3" Cut="7.1591627597808838e-01" cType="1" res="-9.0327441692352295e-02" rms="4.7811928391456604e-01" purity="3.8161274790763855e-01" nType="0">
          <Node pos="l" depth="2" NCoef="0" IVar="-1" Cut="0.0000000000000000e+00" cType="1" res="-4.4243866577744484e-03" rms="4.7228607535362244e-01" purity="3.5698047280311584e-01" nType="-99"/>
          <Node pos="r" depth="2" NCoef="0" IVar="-1" Cut="0.0000000000000000e+00" cType="1" res="1.6999408835545182e-03" rms="4.9409684538841248e-01" purity="5.3684711456298828e-01" nType="-99"/>
        </Node>
      </Node>
    </BinaryTree>
    <BinaryTree type="DecisionTree" boostWeight="1.0000000000000000e+00" itree="24">
      <Node pos="s" depth="0" NCoef="0" IVar="8" Cut="9.7456747293472290e-01" cType="1" res="-3.9237844757735729e-03" rms="4.9005627632141113e-01" purity="4.9832481145858765e-01" nType="0">
        <Node pos="l" depth="1" NCoef="0" IVar="3" Cut="6.7148905992507935e-01" cType="1" res="-3.4294106066226959e-02" rms="4.9131041765213013e-01" purity="4.5616823434829712e-01" nType="0">
          <Node pos="l" depth="2" NCoef="0" IVar="-1" Cut="0.0000000000000000e+00" cType="1" res="-3.0775391496717930e-03" rms="4.8443514108657837e-01" purity="4.0752172470092773e-01" nType="-99"/>
          <Node pos="r" depth="2" NCoef="0" IVar="-1" Cut="0.0000000000000000e+00" cType="1" res="1.9909427501261234e-03" rms="4.9462956190109253e-01" purity="5.4996782541275024e-01" nType="-99"/>
        </Node>
        <Node pos="r" depth="1" NCoef="0" IVar="3" Cut="5.3927844762802124e-01" cType="1" res="1.1172360181808472e-01" rms="4.6752735972404480e-01" purity="6.5885311365127563e-01" nType="0">
          <Node pos="l" depth="2" NCoef="0" IVar="-1" Cut="0.0000000000000000e+00" cType="1" res="1.9014141289517283e-03" rms="4.8533847928047180e-01" purity="5.7095885276794434e-01" nType="-99"/>
          <Node pos="r" depth="2" NCoef="0" IVar="-1" Cut="0.0000000000000000e+00" cType="1" res="6.9505949504673481e-03" rms="4.5553934574127197e-01" purity="6.9921731948852539e-01" nType="-99"/>
        </Node>
      </Node>
    </BinaryTree>
    <BinaryTree type="DecisionTree" boostWeight="1.0000000000000000e+00" itree="25">
      <Node pos="s" depth="0" NCoef="0" IVar="0" Cut="4.5765295410156250e+02" cType="1" res="-4.8569845966994762e-03" rms="4.8985916376113892e-01" purity="4.9802047014236450e-01" nType="0">
        <Node pos="l" depth="1" NCoef="0" IVar="8" Cut="9.7300434112548828e-01" cType="1" res="-9.0129062533378601e-02" rms="4.8155665397644043e-01" purity="4.0968662500381470e-01" nType="0">
          <Node pos="l" depth="2" NCoef="0" IVar="-1" Cut="0.0000000000000000e+00" cType="1" res="-4.8782359808683395e-03" rms="4.7458234429359436e-01" purity="3.6115136742591858e-01" nType="-99"/>
          <Node pos="r" depth="2" NCoef="0" IVar="-1" Cut="0.0000000000000000e+00" cType="1" res="1.4817876508459449e-03" rms="4.8599332571029663e-01" purity="5.8155465126037598e-01" nType="-99"/>
        </Node>
        <Node pos="r" depth="1" NCoef="0" IVar="5" Cut="1.3631025552749634e+00" cType="1" res="3.6446839570999146e-02" rms="4.8850843310356140e-01" purity="5.4080736637115479e-01" nType="0">
          <Node pos="l" depth="2" NCoef="0" IVar="-1" Cut="0.0000000000000000e+00" cType="1" res="3.0485598836094141e-03" rms="4.8650434613227844e-01" purity="5.8948498964309692e-01" nType="-99"/>
          <Node pos="r" depth="2" NCoef="0" IVar="-1" Cut="0.0000000000000000e+00" cType="1" res="-3.0569273512810469e-03" rms="4.7930061817169189e-01" purity="3.6766427755355835e-01" nType="-99"/>
        </Node>
      </Node>
    </BinaryTree>
    <BinaryTree type="DecisionTree" boostWeight="1.0000000000000000e+00" itree="26">
      <Node pos="s" depth="0" NCoef="0" IVar="5" Cut="1.5022020339965820e+00" cType="1" res="-3.7111726123839617e-03" rms="4.8940733075141907e-01" purity="4.9864920973777771e-01" nType="0">
        <Node pos="l" depth="1" NCoef="0" IVar="8" Cut="9.6959048509597778e-01" cType="1" res="2.4052938446402550e-02" rms="4.9179261922836304e-01" purity="5.4059594869613647e-01" nType="0">
          <Node pos="l" depth="2" NCoef="0" IVar="-1" Cut="0.0000000000000000e+00" cType="1" res="-3.5875986213795841e-04" rms="4.9707886576652527e-01" purity="4.9069058895111084e-01" nType="-99"/>
          <Node pos="r" depth="2" NCoef="0" IVar="-1" Cut="0.0000000000000000e+00" cType="1" res="5.3901276551187038e-03" rms="4.6539470553398132e-01" purity="6.7764163017272949e-01" nType="-99"/>
        </Node>
        <Node pos="r" depth="1" NCoef="0" IVar="8" Cut="9.4234430789947510e-01" cType="1" res="-1.3328379392623901e-01" rms="4.5630076527595520e-01" purity="3.0288761854171753e-01" nType="0">
          <Node pos="l" depth="2" NCoef="0" IVar="-1" Cut="0.0000000000000000e+00" cType="1" res="-7.0689925923943520e-03" rms="4.1850090026855469e-01" purity="2.2798094153404236e-01" nType="-99"/>
          <Node pos="r" depth="2" NCoef="0" IVar="-1" Cut="0.0000000000000000e+00" cType="1" res="-3.5716341808438301e-03" rms="4.7787401080131531e-01" purity="3.5983201861381531e-01" nType="-99"/>
        </Node>
      </Node>
    </BinaryTree>
    <BinaryTree type="DecisionTree" boostWeight="1.0000000000000000e+00" itree="27">
      <Node pos="s" depth="0" NCoef="0" IVar="3" Cut="5.9430849552154541e-01" cType="1" res="-2.5631403550505638e-03" rms="4.8917096853256226e-01" purity="4.9992352724075317e-01" nType="0">
        <Node pos="l" depth="1" NCoef="0" IVar="4" Cut="9.2956028878688812e-02" cType="1" res="-6.5917380154132843e-02" rms="4.8350030183792114e-01" purity="4.2368951439857483e-01" nType="0">
          <Node pos="l" depth="2" NCoef="0" IVar="-1" Cut="0.0000000000000000e+00" cType="1" res="-5.0560967065393925e-03" rms="4.6858641505241394e-01" purity="3.5321661829948425e-01" nType="-99"/>
          <Node pos="r" depth="2" NCoef="0" IVar="-1" Cut="0.0000000000000000e+00" cType="1" res="1.4424866531044245e-03" rms="4.9086195230484009e-01" purity="5.3765451908111572e-01" nType="-99"/>
        </Node>
        <Node pos="r" depth="1" NCoef="0" IVar="8" Cut="9.5823800563812256e-01" cType="1" res="5.4415952414274216e-02" rms="4.8722934722900391e-01" purity="5.6848639249801636e-01" nType="0">
          <Node pos="l" depth="2" NCoef="0" IVar="-1" Cut="0.0000000000000000e+00" cType="1" res="3.4075148869305849e-04" rms="4.9663677811622620e-01" purity="4.9507999420166016e-01" nType="-99"/>
          <Node pos="r" depth="2" NCoef="0" IVar="-1" Cut="0.0000000000000000e+00" cType="1" res="5.4938993416726589e-03" rms="4.6755117177963257e-01" purity="6.6541051864624023e-01" nType="-99"/>
        </Node>
      </Node>
    </BinaryTree>
    <BinaryTree type="DecisionTree" boostWeight="1.0000000000000000e+00" itree="28">
      <Node pos="s" depth="0" NCoef="0" IVar="5" Cut="1.2789931297302246e+00" cType="1" res="-5.5439886637032032e-03" rms="4.8783004283905029e-01" purity="4.9699261784553528e-01" nType="0">
        <Node pos="l" depth="1" NCoef="0" IVar="8" Cut="9.4762504100799561e-01" cType="1" res="3.3132463693618774e-02" rms="4.8994001746177673e-01" purity="5.5820101499557495e-01" nType="0">
          <Node pos="l" depth="2" NCoef="0" IVar="-1" Cut="0.0000000000000000e+00" cType="1" res="-1.4883591793477535e-03" rms="4.9730524420738220e-01" purity="4.5554828643798828e-01" nType="-99"/>
          <Node pos="r" depth="2" NCoef="0" IVar="-1" Cut="0.0000000000000000e+00" cType="1" res="3.7944721989333630e-03" rms="4.7869762778282166e-01" purity="6.3049924373626709e-01" nType="-99"/>
        </Node>
        <Node pos="r" depth="1" NCoef="0" IVar="3" Cut="5.5083298683166504e-01" cType="1" res="-1.0362470149993896e-01" rms="4.6833017468452454e-01" purity="3.4177249670028687e-01" nType="0">
          <Node pos="l" depth="2" NCoef="0" IVar="-1" Cut="0.0000000000000000e+00" cType="1" res="-5.9457276947796345e-03" rms="4.4518002867698669e-01" purity="2.8157928586006165e-01" nType="-99"/>
          <Node pos="r" depth="2" NCoef="0" IVar="-1" Cut="0.0000000000000000e+00" cType="1" res="-1.7671864479780197e-03" rms="4.8759460449218750e-01" purity="4.1338950395584106e-01" nType="-99"/>
        </Node>
      </Node>
    </BinaryTree>
    <BinaryTree type="DecisionTree" boostWeight="1.0000000000000000e+00" itree="29">
      <Node pos="s" depth="0" NCoef="0" IVar="5" Cut="1.1907649040222168e+00" cType="1" res="-2.0987845491617918e-03" rms="4.8763495683670044e-01" purity="4.9981907010078430e-01" nType="0">
        <Node pos="l" depth="1" NCoef="0" IVar="8" Cut="9.4975614547729492e-01" cType="1" res="4.1788566857576370e-02" rms="4.8902052640914917e-01" purity="5.6856942176818848e-01" nType="0">
          <Node pos="l" depth="2" NCoef="0" IVar="-1" Cut="0.0000000000000000e+00" cType="1" res="-8.1524957204237580e-04" rms="4.9857819080352783e-01" purity="4.7374978661537170e-01" nType="-99"/>
          <Node pos="r" depth="2" NCoef="0" IVar="-1" Cut="0.0000000000000000e+00" cType="1" res="4.4277263805270195e-03" rms="4.7438746690750122e-01" purity="6.4992886781692505e-01" nType="-99"/>
        </Node>
        <Node pos="r" depth="1" NCoef="0" IVar="8" Cut="9.5498687028884888e-01" cType="1" res="-9.0328149497509003e-02" rms="4.7266355156898499e-01" purity="3.6160618066787720e-01" nType="0">
          <Node pos="l" depth="2" NCoef="0" IVar="-1" Cut="0.0000000000000000e+00" cType="1" res="-5.5369497276842594e-03" rms="4.5122399926185608e-01" purity="2.9195332527160645e-01" nType="-99"/>
          <Node pos="r" depth="2" NCoef="0" IVar="-1" Cut="0.0000000000000000e+00" cType="1" res="-8.0111448187381029e-04" rms="4.9231296777725220e-01" purity="4.5910423994064331e-01" nType="-99"/>
        </Node>
      </Node>
    </BinaryTree>
    <BinaryTree type="DecisionTree" boostWeight="1.0000000000000000e+00" itree="30">
      <Node pos="s" depth="0" NCoef="0" IVar="5" Cut="9.0672242641448975e-01" cType="1" res="-5.5687869898974895e-03" rms="4.8879471421241760e-01" purity="4.9704584479331970e-01" nType="0">
        <Node pos="l" depth="1" NCoef="0" IVar="0" Cut="4.0650180053710938e+02" cType="1" res="5.0754334777593613e-02" rms="4.8785743117332458e-01" purity="5.8142727613449097e-01" nType="0">
          <Node pos="l" depth="2" NCoef="0" IVar="-1" Cut="0.0000000000000000e+00" cType="1" res="-2.1170817781239748e-03" rms="4.9282315373420715e-01" purity="4.7725290060043335e-01" nType="-99"/>
          <Node pos="r" depth="2" NCoef="0" IVar="-1" Cut="0.0000000000000000e+00" cType="1" res="3.3454345539212227e-03" rms="4.8380309343338013e-01" purity="6.0509109497070312e-01" nType="-99"/>
        </Node>
        <Node pos="r" depth="1" NCoef="0" IVar="8" Cut="9.4542604684829712e-01" cType="1" res="-5.5904127657413483e-02" rms="4.8411738872528076e-01" purity="4.2163509130477905e-01" nType="0">
          <Node pos="l" depth="2" NCoef="0" IVar="-1" Cut="0.0000000000000000e+00" cType="1" res="-4.4674226082861423e-03" rms="4.6675643324851990e-01" purity="3.3392819762229919e-01" nType="-99"/>
          <Node pos="r" depth="2" NCoef="0" IVar="-1" Cut="0.0000000000000000e+00" cType="1" res="-5.4116325918585062e-04" rms="4.9179038405418396e-01" purity="4.8514345288276672e-01" nType="-99"/>
        </Node>
      </Node>
    </BinaryTree>
    <BinaryTree type="DecisionTree" boostWeight="1.0000000000000000e+00" itree="31">
      <Node pos="s" depth="0" NCoef="0" IVar="3" Cut="6.1213338375091553e-01" cType="1" res="-7.1916780434548855e-03" rms="4.8829966783523560e-01" purity="4.9610421061515808e-01" nType="0">
        <Node pos="l" depth="1" NCoef="0" IVar="4" Cut="9.5824547111988068e-02" cType="1" res="-6.3974969089031219e-02" rms="4.8333418369293213e-01" purity="4.2537951469421387e-01" nType="0">
          <Node pos="l" depth="2" NCoef="0" IVar="-1" Cut="0.0000000000000000e+00" cType="1" res="-4.6836440451443195e-03" rms="4.7096246480941772e-01" purity="3.6283031105995178e-01" nType="-99"/>
          <Node pos="r" depth="2" NCoef="0" IVar="-1" Cut="0.0000000000000000e+00" cType="1" res="1.3475770829245448e-03" rms="4.9066835641860962e-01" purity="5.3722530603408813e-01" nType="-99"/>
        </Node>
        <Node pos="r" depth="1" NCoef="0" IVar="8" Cut="9.6964061260223389e-01" cType="1" res="5.3240723907947540e-02" rms="4.8629990220069885e-01" purity="5.7137387990951538e-01" nType="0">
          <Node pos="l" depth="2" NCoef="0" IVar="-1" Cut="0.0000000000000000e+00" cType="1" res="8.5827667498961091e-04" rms="4.9515032768249512e-01" purity="5.1816129684448242e-01" nType="-99"/>
          <Node pos="r" depth="2" NCoef="0" IVar="-1" Cut="0.0000000000000000e+00" cType="1" res="6.8437368609011173e-03" rms="4.5103088021278381e-01" purity="7.1025806665420532e-01" nType="-99"/>
        </Node>
      </Node>
    </BinaryTree>
    <BinaryTree type="DecisionTree" boostWeight="1.0000000000000000e+00" itree="32">
      <Node pos="s" depth="0" NCoef="0" IVar="5" Cut="1.6366462707519531e+00" cType="1" res="-3.2079550437629223e-03" rms="4.8845490813255310e-01" purity="4.9980860948562622e-01" nType="0">
        <Node pos="l" depth="1" NCoef="0" IVar="8" Cut="9.6729183197021484e-01" cType="1" res="1.7368130385875702e-02" rms="4.9112847447395325e-01" purity="5.3240746259689331e-01" nType="0">
          <Node pos="l" depth="2" NCoef="0" IVar="-1" Cut="0.0000000000000000e+00" cType="1" res="-5.3878669859841466e-04" rms="4.9580952525138855e-01" purity="4.8062399029731750e-01" nType="-99"/>
          <Node pos="r" depth="2" NCoef="0" IVar="-1" Cut="0.0000000000000000e+00" cType="1" res="4.1887280531227589e-03" rms="4.7223028540611267e-01" purity="6.5509396791458130e-01" nType="-99"/>
        </Node>
        <Node pos="r" depth="1" NCoef="0" IVar="8" Cut="9.5459407567977905e-01" cType="1" res="-1.4019724726676941e-01" rms="4.4672924280166626e-01" purity="2.8277510404586792e-01" nType="0">
          <Node pos="l" depth="2" NCoef="0" IVar="-1" Cut="0.0000000000000000e+00" cType="1" res="-6.8542142398655415e-03" rms="4.1886395215988159e-01" purity="2.2842673957347870e-01" nType="-99"/>
          <Node pos="r" depth="2" NCoef="0" IVar="-1" Cut="0.0000000000000000e+00" cType="1" res="-3.4304077271372080e-03" rms="4.7865211963653564e-01" purity="3.6203715205192566e-01" nType="-99"/>
        </Node>
      </Node>
    </BinaryTree>
    <BinaryTree type="DecisionTree" boostWeight="1.0000000000000000e+00" itree="33">
      <Node pos="s" depth="0" NCoef="0" IVar="5" Cut="1.4250341653823853e+00" cType="1" res="-1.0109522379934788e-02" rms="4.8688772320747375e-01" purity="4.9192646145820618e-01" nType="0">
        <Node pos="l" depth="1" NCoef="0" IVar="8" Cut="9.5469331741333008e-01" cType="1" res="2.0163059234619141e-02" rms="4.9048560857772827e-01" purity="5.4302543401718140e-01" nType="0">
          <Node pos="l" depth="2" NCoef="0" IVar="-1" Cut="0.0000000000000000e+00" cType="1" res="-1.1726369848474860e-03" rms="4.9630388617515564e-01" purity="4.6065536141395569e-01" nType="-99"/>
          <Node pos="r" depth="2" NCoef="0" IVar="-1" Cut="0.0000000000000000e+00" cType="1" res="3.4797939006239176e-03" rms="4.7802039980888367e-01" purity="6.3535994291305542e-01" nType="-99"/>
        </Node>
        <Node pos="r" depth="1" NCoef="0" IVar="8" Cut="9.5618915557861328e-01" cType="1" res="-1.1874692887067795e-01" rms="4.5754721760749817e-01" purity="3.0855080485343933e-01" nType="0">
          <Node pos="l" depth="2" NCoef="0" IVar="-1" Cut="0.0000000000000000e+00" cType="1" res="-5.9658046811819077e-03" rms="4.3426695466041565e-01" purity="2.5529274344444275e-01" nType="-99"/>
          <Node pos="r" depth="2" NCoef="0" IVar="-1" Cut="0.0000000000000000e+00" cType="1" res="-2.5280700065195560e-03" rms="4.8644071817398071e-01" purity="3.9275768399238586e-01" nType="-99"/>
        </Node>
      </Node>
    </BinaryTree>
    <BinaryTree type="DecisionTree" boostWeight="1.0000000000000000e+00" itree="34">
      <Node pos="s" depth="0" NCoef="0" IVar="5" Cut="1.0791412591934204e+00" cType="1" res="-6.8981195800006390e-03" rms="4.8722109198570251e-01" purity="4.9610999226570129e-01" nType="0">
        <Node pos="l" depth="1" NCoef="0" IVar="0" Cut="4.5852957153320312e+02" cType="1" res="3.9046414196491241e-02" rms="4.8854020237922668e-01" purity="5.7012218236923218e-01" nType="0">
          <Node pos="l" depth="2" NCoef="0" IVar="-1" Cut="0.0000000000000000e+00" cType="1" res="-1.6593127511441708e-03" rms="4.9302884936332703e-01" purity="4.8665669560432434e-01" nType="-99"/>
          <Node pos="r" depth="2" NCoef="0" IVar="-1" Cut="0.0000000000000000e+00" cType="1" res="3.3924991730600595e-03" rms="4.8233053088188171e-01" purity="6.0777068138122559e-01" nType="-99"/>
        </Node>
        <Node pos="r" depth="1" NCoef="0" IVar="5" Cut="1.8203769922256470e+00" cType="1" res="-7.8055895864963531e-02" rms="4.7650623321533203e-01" purity="3.8148170709609985e-01" nType="0">
          <Node pos="l" depth="2" NCoef="0" IVar="-1" Cut="0.0000000000000000e+00" cType="1" res="-2.0049121230840683e-03" rms="4.8764303326606750e-01" purity="4.2362484335899353e-01" nType="-99"/>
          <Node pos="r" depth="2" NCoef="0" IVar="-1" Cut="0.0000000000000000e+00" cType="1" res="-7.1622696705162525e-03" rms="4.1634741425514221e-01" purity="2.2834102809429169e-01" nType="-99"/>
        </Node>
      </Node>
    </BinaryTree>
    <BinaryTree type="DecisionTree" boostWeight="1.0000000000000000e+00" itree="35">
      <Node pos="s" depth="0" NCoef="0" IVar="5" Cut="1.2057018280029297e+00" cType="1" res="-3.4709970932453871e-03" rms="4.8640307784080505e-01" purity="4.9878913164138794e-01" nType="0">
        <Node pos="l" depth="1" NCoef="0" IVar="8" Cut="9.6977496147155762e-01" cType="1" res="3.5900183022022247e-02" rms="4.8883599042892456e-01" purity="5.6635349988937378e-01" nType="0">
          <Node pos="l" depth="2" NCoef="0" IVar="-1" Cut="0.0000000000000000e+00" cType="1" res="2.5380318402312696e-04" rms="4.9753162264823914e-01" purity="5.1496988534927368e-01" nType="-99"/>
          <Node pos="r" depth="2" NCoef="0" IVar="-1" Cut="0.0000000000000000e+00" cType="1" res="5.7817804627120495e-03" rms="4.5414134860038757e-01" purity="7.0711755752563477e-01" nType="-99"/>
        </Node>
        <Node pos="r" depth="1" NCoef="0" IVar="8" Cut="9.5229047536849976e-01" cType="1" res="-8.7442196905612946e-02" rms="4.7028744220733643e-01" purity="3.5468721389770508e-01" nType="0">
          <Node pos="l" depth="2" NCoef="0" IVar="-1" Cut="0.0000000000000000e+00" cType="1" res="-5.3810062818229198e-03" rms="4.4641876220703125e-01" purity="2.8045496344566345e-01" nType="-99"/>
          <Node pos="r" depth="2" NCoef="0" IVar="-1" Cut="0.0000000000000000e+00" cType="1" res="-1.1516194790601730e-03" rms="4.9028313159942627e-01" purity="4.4257259368896484e-01" nType="-99"/>
        </Node>
      </Node>
    </BinaryTree>
    <BinaryTree type="DecisionTree" boostWeight="1.0000000000000000e+00" itree="36">
      <Node pos="s" depth="0" NCoef="0" IVar="5" Cut="1.5747802257537842e+00" cType="1" res="-2.1712603047490120e-03" rms="4.8682981729507446e-01" purity="5.0026124715805054e-01" nType="0">
        <Node pos="l" depth="1" NCoef="0" IVar="8" Cut="9.8429042100906372e-01" cType="1" res="2.1074030548334122e-02" rms="4.9006688594818115e-01" purity="5.3927540779113770e-01" nType="0">
          <Node pos="l" depth="2" NCoef="0" IVar="-1" Cut="0.0000000000000000e+00" cType="1" res="1.8148895469494164e-04" rms="4.9360406398773193e-01" purity="5.1516234874725342e-01" nType="-99"/>
          <Node pos="r" depth="2" NCoef="0" IVar="-1" Cut="0.0000000000000000e+00" cType="1" res="8.0066975206136703e-03" rms="4.3556186556816101e-01" purity="7.3834794759750366e-01" nType="-99"/>
        </Node>
        <Node pos="r" depth="1" NCoef="0" IVar="8" Cut="9.4509744644165039e-01" cType="1" res="-1.2938627600669861e-01" rms="4.4783505797386169e-01" purity="2.8674763441085815e-01" nType="0">
          <Node pos="l" depth="2" NCoef="0" IVar="-1" Cut="0.0000000000000000e+00" cType="1" res="-6.8028517998754978e-03" rms="4.1122901439666748e-01" purity="2.1795526146888733e-01" nType="-99"/>
          <Node pos="r" depth="2" NCoef="0" IVar="-1" Cut="0.0000000000000000e+00" cType="1" res="-3.4852139651775360e-03" rms="4.7340780496597290e-01" purity="3.4754547476768494e-01" nType="-99"/>
        </Node>
      </Node>
    </BinaryTree>
    <BinaryTree type="DecisionTree" boostWeight="1.0000000000000000e+00" itree="37">
      <Node pos="s" depth="0" NCoef="0" IVar="5" Cut="1.2893501520156860e+00" cType="1" res="-7.9040499404072762e-03" rms="4.8569250106811523e-01" purity="4.9426797032356262e-01" nType="0">
        <Node pos="l" depth="1" NCoef="0" IVar="0" Cut="4.5031143188476562e+02" cType="1" res="2.7013476938009262e-02" rms="4.8918417096138000e-01" purity="5.5668395757675171e-01" nType="0">
          <Node pos="l" depth="2" NCoef="0" IVar="-1" Cut="0.0000000000000000e+00" cType="1" res="-2.2286863531917334e-03" rms="4.8990878462791443e-01" purity="4.6965625882148743e-01" nType="-99"/>
          <Node pos="r" depth="2" NCoef="0" IVar="-1" Cut="0.0000000000000000e+00" cType="1" res="2.7136143762618303e-03" rms="4.8501873016357422e-01" purity="5.9272837638854980e-01" nType="-99"/>
        </Node>
        <Node pos="r" depth="1" NCoef="0" IVar="5" Cut="1.9806829690933228e+00" cType="1" res="-9.7918719053268433e-02" rms="4.6462497115135193e-01" purity="3.3336436748504639e-01" nType="0">
          <Node pos="l" depth="2" NCoef="0" IVar="-1" Cut="0.0000000000000000e+00" cType="1" res="-3.0047826003283262e-03" rms="4.7528716921806335e-01" purity="3.6365854740142822e-01" nType="-99"/>
          <Node pos="r" depth="2" NCoef="0" IVar="-1" Cut="0.0000000000000000e+00" cType="1" res="-7.2848941199481487e-03" rms="4.0908786654472351e-01" purity="2.1737392246723175e-01" nType="-99"/>
        </Node>
      </Node>
    </BinaryTree>
    <BinaryTree type="DecisionTree" boostWeight="1.0000000000000000e+00" itree="38">
      <Node pos="s" depth="0" NCoef="0" IVar="3" Cut="5.8423405885696411e-01" cType="1" res="-6.1180029297247529e-04" rms="4.8659032583236694e-01" purity="5.0212919712066650e-01" nType="0">
        <Node pos="l" depth="1" NCoef="0" IVar="4" Cut="9.6589904278516769e-03" cType="1" res="-6.2740080058574677e-02" rms="4.8006081581115723e-01" purity="4.2099326848983765e-01" nType="0">
          <Node pos="l" depth="2" NCoef="0" IVar="-1" Cut="0.0000000000000000e+00" cType="1" res="-5.4658018052577972e-03" rms="4.5810884237289429e-01" purity="3.3086076378822327e-01" nType="-99"/>
          <Node pos="r" depth="2" NCoef="0" IVar="-1" Cut="0.0000000000000000e+00" cType="1" res="-3.0919781420379877e-04" rms="4.8878145217895508e-01" purity="4.8933926224708557e-01" nType="-99"/>
        </Node>
        <Node pos="r" depth="1" NCoef="0" IVar="0" Cut="3.9837890625000000e+02" cType="1" res="4.8796422779560089e-02" rms="4.8608523607254028e-01" purity="5.6665349006652832e-01" nType="0">
          <Node pos="l" depth="2" NCoef="0" IVar="-1" Cut="0.0000000000000000e+00" cType="1" res="-2.1555211860686541e-03" rms="4.8798543214797974e-01" purity="4.5505177974700928e-01" nType="-99"/>
          <Node pos="r" depth="2" NCoef="0" IVar="-1" Cut="0.0000000000000000e+00" cType="1" res="3.1393792014569044e-03" rms="4.8312139511108398e-01" purity="5.8967053890228271e-01" nType="-99"/>
        </Node>
      </Node>
    </BinaryTree>
    <BinaryTree type="DecisionTree" boostWeight="1.0000000000000000e+00" itree="39">
      <Node pos="s" depth="0" NCoef="0" IVar="5" Cut="7.9324144124984741e-01" cType="1" res="-4.9977526068687439e-03" rms="4.8563447594642639e-01" purity="4.9793502688407898e-01" nType="0">
        <Node pos="l" depth="1" NCoef="0" IVar="8" Cut="9.3085545301437378e-01" cType="1" res="6.1405021697282791e-02" rms="4.8280543088912964e-01" purity="5.9721606969833374e-01" nType="0">
          <Node pos="l" depth="2" NCoef="0" IVar="-1" Cut="0.0000000000000000e+00" cType="1" res="-1.3603653060272336e-03" rms="4.9756008386611938e-01" purity="4.6062612533569336e-01" nType="-99"/>
          <Node pos="r" depth="2" NCoef="0" IVar="-1" Cut="0.0000000000000000e+00" cType="1" res="4.0575568564236164e-03" rms="4.7549161314964294e-01" purity="6.3431400060653687e-01" nType="-99"/>
        </Node>
        <Node pos="r" depth="1" NCoef="0" IVar="8" Cut="9.4763916730880737e-01" cType="1" res="-4.8580460250377655e-02" rms="4.8254075646400452e-01" purity="4.3277308344841003e-01" nType="0">
          <Node pos="l" depth="2" NCoef="0" IVar="-1" Cut="0.0000000000000000e+00" cType="1" res="-4.2586605995893478e-03" rms="4.6771723031997681e-01" purity="3.3888953924179077e-01" nType="-99"/>
          <Node pos="r" depth="2" NCoef="0" IVar="-1" Cut="0.0000000000000000e+00" cType="1" res="-6.5166088461410254e-05" rms="4.8877003788948059e-01" purity="5.0664734840393066e-01" nType="-99"/>
        </Node>
      </Node>
    </BinaryTree>
    <BinaryTree type="DecisionTree" boostWeight="1.0000000000000000e+00" itree="40">
      <Node pos="s" depth="0" NCoef="0" IVar="8" Cut="9.6732693910598755e-01" cType="1" res="-5.4511623457074165e-03" rms="4.8554030060768127e-01" purity="4.9661391973495483e-01" nType="0">
        <Node pos="l" depth="1" NCoef="0" IVar="5" Cut="1.6446386575698853e+00" cType="1" res="-3.7913933396339417e-02" rms="4.8730370402336121e-01" purity="4.4061219692230225e-01" nType="0">
          <Node pos="l" depth="2" NCoef="0" IVar="-1" Cut="0.0000000000000000e+00" cType="1" res="-7.2704325430095196e-04" rms="4.9449327588081360e-01" purity="4.7492286562919617e-01" nType="-99"/>
          <Node pos="r" depth="2" NCoef="0" IVar="-1" Cut="0.0000000000000000e+00" cType="1" res="-6.4779305830597878e-03" rms="4.1917613148689270e-01" purity="2.3071998357772827e-01" nType="-99"/>
        </Node>
        <Node pos="r" depth="1" NCoef="0" IVar="4" Cut="6.4180861227214336e-03" cType="1" res="7.4106656014919281e-02" rms="4.7183999419212341e-01" purity="6.3385939598083496e-01" nType="0">
          <Node pos="l" depth="2" NCoef="0" IVar="-1" Cut="0.0000000000000000e+00" cType="1" res="1.4635795960202813e-03" rms="4.8163619637489319e-01" purity="5.8783447742462158e-01" nType="-99"/>
          <Node pos="r" depth="2" NCoef="0" IVar="-1" Cut="0.0000000000000000e+00" cType="1" res="6.0802306979894638e-03" rms="4.5416849851608276e-01" purity="6.9047725200653076e-01" nType="-99"/>
        </Node>
      </Node>
    </BinaryTree>
    <BinaryTree type="DecisionTree" boostWeight="1.0000000000000000e+00" itree="41">
      <Node pos="s" depth="0" NCoef="0" IVar="8" Cut="9.6687203645706177e-01" cType="1" res="-2.7328894939273596e-03" rms="4.8578304052352905e-01" purity="4.9967658519744873e-01" nType="0">
        <Node pos="l" depth="1" NCoef="0" IVar="3" Cut="5.8454966545104980e-01" cType="1" res="-3.2613199204206467e-02" rms="4.8819667100906372e-01" purity="4.4562342762947083e-01" nType="0">
          <Node pos="l" depth="2" NCoef="0" IVar="-1" Cut="0.0000000000000000e+00" cType="1" res="-3.4445896744728088e-03" rms="4.7515958547592163e-01" purity="3.7567588686943054e-01" nType="-99"/>
          <Node pos="r" depth="2" NCoef="0" IVar="-1" Cut="0.0000000000000000e+00" cType="1" res="5.4877193178981543e-04" rms="4.9485978484153748e-01" purity="5.0675427913665771e-01" nType="-99"/>
        </Node>
        <Node pos="r" depth="1" NCoef="0" IVar="5" Cut="1.3680462837219238e+00" cType="1" res="7.1553133428096771e-02" rms="4.7159579396247864e-01" purity="6.3405919075012207e-01" nType="0">
          <Node pos="l" depth="2" NCoef="0" IVar="-1" Cut="0.0000000000000000e+00" cType="1" res="4.5398552902042866e-03" rms="4.6339747309684753e-01" purity="6.8216925859451294e-01" nType="-99"/>
          <Node pos="r" depth="2" NCoef="0" IVar="-1" Cut="0.0000000000000000e+00" cType="1" res="-8.2083960296586156e-04" rms="4.9303808808326721e-01" purity="4.3988412618637085e-01" nType="-99"/>
        </Node>
      </Node>
    </BinaryTree>
    <BinaryTree type="DecisionTree" boostWeight="1.0000000000000000e+00" itree="42">
      <Node pos="s" depth="0" NCoef="0" IVar="5" Cut="1.5745642185211182e+00" cType="1" res="-2.1564108319580555e-03" rms="4.8547682166099548e-01" purity="5.0018477439880371e-01" nType="0">
        <Node pos="l" depth="1" NCoef="0" IVar="0" Cut="5.5144067382812500e+02" cType="1" res="1.8634634092450142e-02" rms="4.8901242017745972e-01" purity="5.3840416669845581e-01" nType="0">
          <Node pos="l" depth="2" NCoef="0" IVar="-1" Cut="0.0000000000000000e+00" cType="1" res="-1.0069484123960137e-03" rms="4.8978120088577271e-01" purity="4.9217358231544495e-01" nType="-99"/>
          <Node pos="r" depth="2" NCoef="0" IVar="-1" Cut="0.0000000000000000e+00" cType="1" res="2.8246860019862652e-03" rms="4.8428723216056824e-01" purity="5.8677279949188232e-01" nType="-99"/>
        </Node>
        <Node pos="r" depth="1" NCoef="0" IVar="3" Cut="4.7866639494895935e-01" cType="1" res="-1.1653681099414825e-01" rms="4.4863381981849670e-01" purity="2.8992354869842529e-01" nType="0">
          <Node pos="l" depth="2" NCoef="0" IVar="-1" Cut="0.0000000000000000e+00" cType="1" res="-6.9381743669509888e-03" rms="4.0883439779281616e-01" purity="2.1854850649833679e-01" nType="-99"/>
          <Node pos="r" depth="2" NCoef="0" IVar="-1" Cut="0.0000000000000000e+00" cType="1" res="-3.0030529014766216e-03" rms="4.6912646293640137e-01" purity="3.3861580491065979e-01" nType="-99"/>
        </Node>
      </Node>
    </BinaryTree>
    <BinaryTree type="DecisionTree" boostWeight="1.0000000000000000e+00" itree="43">
      <Node pos="s" depth="0" NCoef="0" IVar="3" Cut="6.2044435739517212e-01" cType="1" res="-3.2641701400279999e-03" rms="4.8535725474357605e-01" purity="4.9983695149421692e-01" nType="0">
        <Node pos="l" depth="1" NCoef="0" IVar="4" Cut="9.4381511211395264e-02" cType="1" res="-4.8424635082483292e-02" rms="4.8137652873992920e-01" purity="4.3571940064430237e-01" nType="0">
          <Node pos="l" depth="2" NCoef="0" IVar="-1" Cut="0.0000000000000000e+00" cType="1" res="-3.7717334926128387e-03" rms="4.7113728523254395e-01" purity="3.7804022431373596e-01" nType="-99"/>
          <Node pos="r" depth="2" NCoef="0" IVar="-1" Cut="0.0000000000000000e+00" cType="1" res="1.2465096078813076e-03" rms="4.8936265707015991e-01" purity="5.3623443841934204e-01" nType="-99"/>
        </Node>
        <Node pos="r" depth="1" NCoef="0" IVar="8" Cut="9.4520401954650879e-01" cType="1" res="4.8167329281568527e-02" rms="4.8475399613380432e-01" purity="5.7285797595977783e-01" nType="0">
          <Node pos="l" depth="2" NCoef="0" IVar="-1" Cut="0.0000000000000000e+00" cType="1" res="-6.8242783891037107e-04" rms="4.9516955018043518e-01" purity="4.6416288614273071e-01" nType="-99"/>
          <Node pos="r" depth="2" NCoef="0" IVar="-1" Cut="0.0000000000000000e+00" cType="1" res="4.0691574104130268e-03" rms="4.7434446215629578e-01" purity="6.3702547550201416e-01" nType="-99"/>
        </Node>
      </Node>
    </BinaryTree>
    <BinaryTree type="DecisionTree" boostWeight="1.0000000000000000e+00" itree="44">
      <Node pos="s" depth="0" NCoef="0" IVar="3" Cut="5.8262223005294800e-01" cType="1" res="-1.4281104085966945e-03" rms="4.8491021990776062e-01" purity="5.0097340345382690e-01" nType="0">
        <Node pos="l" depth="1" NCoef="0" IVar="4" Cut="1.5014757215976715e-01" cType="1" res="-5.7021718472242355e-02" rms="4.7896358370780945e-01" purity="4.2136672139167786e-01" nType="0">
          <Node pos="l" depth="2" NCoef="0" IVar="-1" Cut="0.0000000000000000e+00" cType="1" res="-4.1625606827437878e-03" rms="4.6903777122497559e-01" purity="3.6518207192420959e-01" nType="-99"/>
          <Node pos="r" depth="2" NCoef="0" IVar="-1" Cut="0.0000000000000000e+00" cType="1" res="3.3422450069338083e-03" rms="4.8348721861839294e-01" purity="5.8348035812377930e-01" nType="-99"/>
        </Node>
        <Node pos="r" depth="1" NCoef="0" IVar="8" Cut="9.5745843648910522e-01" cType="1" res="4.2677905410528183e-02" rms="4.8506492376327515e-01" purity="5.6413066387176514e-01" nType="0">
          <Node pos="l" depth="2" NCoef="0" IVar="-1" Cut="0.0000000000000000e+00" cType="1" res="2.5878476662910543e-05" rms="4.9568545818328857e-01" purity="4.8620000481605530e-01" nType="-99"/>
          <Node pos="r" depth="2" NCoef="0" IVar="-1" Cut="0.0000000000000000e+00" cType="1" res="4.7027636319398880e-03" rms="4.6514633297920227e-01" purity="6.6588562726974487e-01" nType="-99"/>
        </Node>
      </Node>
    </BinaryTree>
    <BinaryTree type="DecisionTree" boostWeight="1.0000000000000000e+00" itree="45">
      <Node pos="s" depth="0" NCoef="0" IVar="3" Cut="5.4957818984985352e-01" cType="1" res="1.4861447270959616e-03" rms="4.8411351442337036e-01" purity="5.0492793321609497e-01" nType="0">
        <Node pos="l" depth="1" NCoef="0" IVar="4" Cut="1.3922590017318726e-01" cType="1" res="-6.6167607903480530e-02" rms="4.7485980391502380e-01" purity="4.1018563508987427e-01" nType="0">
          <Node pos="l" depth="2" NCoef="0" IVar="-1" Cut="0.0000000000000000e+00" cType="1" res="-4.6340394765138626e-03" rms="4.6032574772834778e-01" purity="3.4729811549186707e-01" nType="-99"/>
          <Node pos="r" depth="2" NCoef="0" IVar="-1" Cut="0.0000000000000000e+00" cType="1" res="1.9550099968910217e-03" rms="4.8866376280784607e-01" purity="5.5233156681060791e-01" nType="-99"/>
        </Node>
        <Node pos="r" depth="1" NCoef="0" IVar="0" Cut="4.6393853759765625e+02" cType="1" res="4.0929615497589111e-02" rms="4.8509314656257629e-01" purity="5.6016457080841064e-01" nType="0">
          <Node pos="l" depth="2" NCoef="0" IVar="-1" Cut="0.0000000000000000e+00" cType="1" res="-1.0478132171556354e-03" rms="4.9141144752502441e-01" purity="4.8498997092247009e-01" nType="-99"/>
          <Node pos="r" depth="2" NCoef="0" IVar="-1" Cut="0.0000000000000000e+00" cType="1" res="3.3553440589457750e-03" rms="4.7870871424674988e-01" purity="5.9684556722640991e-01" nType="-99"/>
        </Node>
      </Node>
    </BinaryTree>
    <BinaryTree type="DecisionTree" boostWeight="1.0000000000000000e+00" itree="46">
      <Node pos="s" depth="0" NCoef="0" IVar="0" Cut="4.4040008544921875e+02" cType="1" res="-4.8239696770906448e-03" rms="4.8549741506576538e-01" purity="4.9828198552131653e-01" nType="0">
        <Node pos="l" depth="1" NCoef="0" IVar="8" Cut="9.7193002700805664e-01" cType="1" res="-7.2583377361297607e-02" rms="4.7905829548835754e-01" purity="4.1819131374359131e-01" nType="0">
          <Node pos="l" depth="2" NCoef="0" IVar="-1" Cut="0.0000000000000000e+00" cType="1" res="-4.2527960613369942e-03" rms="4.7387221455574036e-01" purity="3.6310413479804993e-01" nType="-99"/>
          <Node pos="r" depth="2" NCoef="0" IVar="-1" Cut="0.0000000000000000e+00" cType="1" res="2.1304569672793150e-03" rms="4.7776776552200317e-01" purity="6.0444295406341553e-01" nType="-99"/>
        </Node>
        <Node pos="r" depth="1" NCoef="0" IVar="3" Cut="7.1384751796722412e-01" cType="1" res="2.2328788414597511e-02" rms="4.8540648818016052e-01" purity="5.3037619590759277e-01" nType="0">
          <Node pos="l" depth="2" NCoef="0" IVar="-1" Cut="0.0000000000000000e+00" cType="1" res="-2.1813000785186887e-04" rms="4.8635581135749817e-01" purity="4.9089255928993225e-01" nType="-99"/>
          <Node pos="r" depth="2" NCoef="0" IVar="-1" Cut="0.0000000000000000e+00" cType="1" res="4.3793315999209881e-03" rms="4.7547158598899841e-01" purity="6.3401979207992554e-01" nType="-99"/>
        </Node>
      </Node>
    </BinaryTree>
    <BinaryTree type="DecisionTree" boostWeight="1.0000000000000000e+00" itree="47">
      <Node pos="s" depth="0" NCoef="0" IVar="3" Cut="6.0886728763580322e-01" cType="1" res="7.3060917202383280e-04" rms="4.8499578237533569e-01" purity="5.0454103946685791e-01" nType="0">
        <Node pos="l" depth="1" NCoef="0" IVar="4" Cut="6.3566133379936218e-02" cType="1" res="-4.3655436486005783e-02" rms="4.8149225115776062e-01" purity="4.3643870949745178e-01" nType="0">
          <Node pos="l" depth="2" NCoef="0" IVar="-1" Cut="0.0000000000000000e+00" cType="1" res="-4.1399877518415451e-03" rms="4.6869057416915894e-01" purity="3.6039015650749207e-01" nType="-99"/>
          <Node pos="r" depth="2" NCoef="0" IVar="-1" Cut="0.0000000000000000e+00" cType="1" res="1.4718212187290192e-03" rms="4.8744052648544312e-01" purity="5.3731769323348999e-01" nType="-99"/>
        </Node>
        <Node pos="r" depth="1" NCoef="0" IVar="8" Cut="9.8193955421447754e-01" cType="1" res="4.7116551548242569e-02" rms="4.8430263996124268e-01" purity="5.7571190595626831e-01" nType="0">
          <Node pos="l" depth="2" NCoef="0" IVar="-1" Cut="0.0000000000000000e+00" cType="1" res="1.3029417023062706e-03" rms="4.9069654941558838e-01" purity="5.4643517732620239e-01" nType="-99"/>
          <Node pos="r" depth="2" NCoef="0" IVar="-1" Cut="0.0000000000000000e+00" cType="1" res="7.3821521364152431e-03" rms="4.3288606405258179e-01" purity="7.4245673418045044e-01" nType="-99"/>
        </Node>
      </Node>
    </BinaryTree>
    <BinaryTree type="DecisionTree" boostWeight="1.0000000000000000e+00" itree="48">
      <Node pos="s" depth="0" NCoef="0" IVar="3" Cut="6.3148009777069092e-01" cType="1" res="-3.0690913554280996e-03" rms="4.8471975326538086e-01" purity="4.9986368417739868e-01" nType="0">
        <Node pos="l" depth="1" NCoef="0" IVar="4" Cut="9.2777237296104431e-02" cType="1" res="-4.5834325253963470e-02" rms="4.8092874884605408e-01" purity="4.3577811121940613e-01" nType="0">
          <Node pos="l" depth="2" NCoef="0" IVar="-1" Cut="0.0000000000000000e+00" cType="1" res="-3.7948994431644678e-03" rms="4.7113704681396484e-01" purity="3.7415584921836853e-01" nType="-99"/>
          <Node pos="r" depth="2" NCoef="0" IVar="-1" Cut="0.0000000000000000e+00" cType="1" res="1.8613324500620365e-03" rms="4.8634880781173706e-01" purity="5.4901337623596191e-01" nType="-99"/>
        </Node>
        <Node pos="r" depth="1" NCoef="0" IVar="4" Cut="-4.6361826360225677e-02" cType="1" res="5.2397243678569794e-02" rms="4.8399659991264343e-01" purity="5.8298242092132568e-01" nType="0">
          <Node pos="l" depth="2" NCoef="0" IVar="-1" Cut="0.0000000000000000e+00" cType="1" res="1.1234837438678369e-04" rms="4.8963868618011475e-01" purity="5.3079289197921753e-01" nType="-99"/>
          <Node pos="r" depth="2" NCoef="0" IVar="-1" Cut="0.0000000000000000e+00" cType="1" res="3.9927158504724503e-03" rms="4.7713300585746765e-01" purity="6.1859232187271118e-01" nType="-99"/>
        </Node>
      </Node>
    </BinaryTree>
    <BinaryTree type="DecisionTree" boostWeight="1.0000000000000000e+00" itree="49">
      <Node pos="s" depth="0" NCoef="0" IVar="5" Cut="1.3150655031204224e+00" cType="1" res="4.0952851995825768e-03" rms="4.8336288332939148e-01" purity="5.0653505325317383e-01" nType="0">
        <Node pos="l" depth="1" NCoef="0" IVar="0" Cut="4.5360430908203125e+02" cType="1" res="3.3691640943288803e-02" rms="4.8587691783905029e-01" purity="5.6639766693115234e-01" nType="0">
          <Node pos="l" depth="2" NCoef="0" IVar="-1" Cut="0.0000000000000000e+00" cType="1" res="-1.5583346830680966e-03" rms="4.8963105678558350e-01" purity="4.8391062021255493e-01" nType="-99"/>
          <Node pos="r" depth="2" NCoef="0" IVar="-1" Cut="0.0000000000000000e+00" cType="1" res="2.9201097786426544e-03" rms="4.8108428716659546e-01" purity="6.0180473327636719e-01" nType="-99"/>
        </Node>
        <Node pos="r" depth="1" NCoef="0" IVar="0" Cut="4.7591580200195312e+02" cType="1" res="-7.7683530747890472e-02" rms="4.6668893098831177e-01" purity="3.4112644195556641e-01" nType="0">
          <Node pos="l" depth="2" NCoef="0" IVar="-1" Cut="0.0000000000000000e+00" cType="1" res="-5.0914851017296314e-03" rms="4.4251996278762817e-01" purity="2.8239667415618896e-01" nType="-99"/>
          <Node pos="r" depth="2" NCoef="0" IVar="-1" Cut="0.0000000000000000e+00" cType="1" res="-1.7582686850801110e-03" rms="4.7904101014137268e-01" purity="3.8110518455505371e-01" nType="-99"/>
        </Node>
      </Node>
    </BinaryTree>
    <BinaryTree type="DecisionTree" boostWeight="1.0000000000000000e+00" itree="50">
      <Node pos="s" depth="0" NCoef="0" IVar="8" Cut="9.5511347055435181e-01" cType="1" res="-4.5625283382833004e-03" rms="4.8396849632263184e-01" purity="4.9986582994461060e-01" nType="0">
        <Node pos="l" depth="1" NCoef="0" IVar="0" Cut="4.9647817993164062e+02" cType="1" res="-4.7245573252439499e-02" rms="4.8420622944831848e-01" purity="4.1891250014305115e-01" nType="0">
          <Node pos="l" depth="2" NCoef="0" IVar="-1" Cut="0.0000000000000000e+00" cType="1" res="-3.9849085733294487e-03" rms="4.6973034739494324e-01" purity="3.5360673069953918e-01" nType="-99"/>
          <Node pos="r" depth="2" NCoef="0" IVar="-1" Cut="0.0000000000000000e+00" cType="1" res="-4.2698151082731783e-04" rms="4.9059528112411499e-01" purity="4.6430343389511108e-01" nType="-99"/>
        </Node>
        <Node pos="r" depth="1" NCoef="0" IVar="5" Cut="1.5681589841842651e+00" cType="1" res="4.7262784093618393e-02" rms="4.7858968377113342e-01" purity="5.9815853834152222e-01" nType="0">
          <Node pos="l" depth="2" NCoef="0" IVar="-1" Cut="0.0000000000000000e+00" cType="1" res="2.9791367705911398e-03" rms="4.7667184472084045e-01" purity="6.3234037160873413e-01" nType="-99"/>
          <Node pos="r" depth="2" NCoef="0" IVar="-1" Cut="0.0000000000000000e+00" cType="1" res="-2.6654291432350874e-03" rms="4.7683909535408020e-01" purity="3.6550691723823547e-01" nType="-99"/>
        </Node>
      </Node>
    </BinaryTree>
    <BinaryTree type="DecisionTree" boostWeight="1.0000000000000000e+00" itree="51">
      <Node pos="s" depth="0" NCoef="0" IVar="8" Cut="9.4976532459259033e-01" cType="1" res="-6.5535595640540123e-03" rms="4.8347654938697815e-01" purity="4.9652603268623352e-01" nType="0">
        <Node pos="l" depth="1" NCoef="0" IVar="3" Cut="7.3334270715713501e-01" cType="1" res="-5.9298347681760788e-02" rms="4.8122441768646240e-01" purity="4.0233576297760010e-01" nType="0">
          <Node pos="l" depth="2" NCoef="0" IVar="-1" Cut="0.0000000000000000e+00" cType="1" res="-3.4299434628337622e-03" rms="4.7347477078437805e-01" purity="3.6709740757942200e-01" nType="-99"/>
          <Node pos="r" depth="2" NCoef="0" IVar="-1" Cut="0.0000000000000000e+00" cType="1" res="1.6539151547476649e-03" rms="4.9730232357978821e-01" purity="5.3507477045059204e-01" nType="-99"/>
        </Node>
        <Node pos="r" depth="1" NCoef="0" IVar="5" Cut="1.3970885276794434e+00" cType="1" res="4.0078822523355484e-02" rms="4.8066228628158569e-01" purity="5.7980090379714966e-01" nType="0">
          <Node pos="l" depth="2" NCoef="0" IVar="-1" Cut="0.0000000000000000e+00" cType="1" res="2.8438873123377562e-03" rms="4.7790172696113586e-01" purity="6.2727868556976318e-01" nType="-99"/>
          <Node pos="r" depth="2" NCoef="0" IVar="-1" Cut="0.0000000000000000e+00" cType="1" res="-1.8057406414300203e-03" rms="4.8264920711517334e-01" purity="3.9016669988632202e-01" nType="-99"/>
        </Node>
      </Node>
    </BinaryTree>
    <BinaryTree type="DecisionTree" boostWeight="1.0000000000000000e+00" itree="52">
      <Node pos="s" depth="0" NCoef="0" IVar="8" Cut="9.4495803117752075e-01" cType="1" res="3.6793067120015621e-03" rms="4.8471093177795410e-01" purity="5.0803881883621216e-01" nType="0">
        <Node pos="l" depth="1" NCoef="0" IVar="3" Cut="7.4558818340301514e-01" cType="1" res="-4.8234660178422928e-02" rms="4.8337170481681824e-01" purity="4.1057917475700378e-01" nType="0">
          <Node pos="l" depth="2" NCoef="0" IVar="-1" Cut="0.0000000000000000e+00" cType="1" res="-2.9630495700985193e-03" rms="4.7704410552978516e-01" purity="3.7683272361755371e-01" nType="-99"/>
          <Node pos="r" depth="2" NCoef="0" IVar="-1" Cut="0.0000000000000000e+00" cType="1" res="2.8984621167182922e-03" rms="4.9469774961471558e-01" purity="5.6117790937423706e-01" nType="-99"/>
        </Node>
        <Node pos="r" depth="1" NCoef="0" IVar="1" Cut="3.8208895921707153e-01" cType="1" res="3.6825556308031082e-02" rms="4.8265212774276733e-01" purity="5.7026529312133789e-01" nType="0">
          <Node pos="l" depth="2" NCoef="0" IVar="-1" Cut="0.0000000000000000e+00" cType="1" res="-8.9239672524854541e-04" rms="4.8774021863937378e-01" purity="5.0587391853332520e-01" nType="-99"/>
          <Node pos="r" depth="2" NCoef="0" IVar="-1" Cut="0.0000000000000000e+00" cType="1" res="3.1554603483527899e-03" rms="4.7695007920265198e-01" purity="6.0549378395080566e-01" nType="-99"/>
        </Node>
      </Node>
    </BinaryTree>
    <BinaryTree type="DecisionTree" boostWeight="1.0000000000000000e+00" itree="53">
      <Node pos="s" depth="0" NCoef="0" IVar="8" Cut="9.6208530664443970e-01" cType="1" res="-7.7999434433877468e-03" rms="4.8262372612953186e-01" purity="4.9480211734771729e-01" nType="0">
        <Node pos="l" depth="1" NCoef="0" IVar="3" Cut="6.3928020000457764e-01" cType="1" res="-4.2558811604976654e-02" rms="4.8493611812591553e-01" purity="4.2878693342208862e-01" nType="0">
          <Node pos="l" depth="2" NCoef="0" IVar="-1" Cut="0.0000000000000000e+00" cType="1" res="-3.1059070024639368e-03" rms="4.7514313459396362e-01" purity="3.7643420696258545e-01" nType="-99"/>
          <Node pos="r" depth="2" NCoef="0" IVar="-1" Cut="0.0000000000000000e+00" cType="1" res="3.6910289782099426e-04" rms="4.9480825662612915e-01" purity="5.0706690549850464e-01" nType="-99"/>
        </Node>
        <Node pos="r" depth="1" NCoef="0" IVar="5" Cut="1.3037012815475464e+00" cType="1" res="5.6804385036230087e-02" rms="4.7153782844543457e-01" purity="6.1750084161758423e-01" nType="0">
          <Node pos="l" depth="2" NCoef="0" IVar="-1" Cut="0.0000000000000000e+00" cType="1" res="4.3676947243511677e-03" rms="4.6201094985008240e-01" purity="6.8271809816360474e-01" nType="-99"/>
          <Node pos="r" depth="2" NCoef="0" IVar="-1" Cut="0.0000000000000000e+00" cType="1" res="-1.6144163673743606e-03" rms="4.8682540655136108e-01" purity="4.2168784141540527e-01" nType="-99"/>
        </Node>
      </Node>
    </BinaryTree>
    <BinaryTree type="DecisionTree" boostWeight="1.0000000000000000e+00" itree="54">
      <Node pos="s" depth="0" NCoef="0" IVar="8" Cut="9.5073854923248291e-01" cType="1" res="-3.5203297156840563e-03" rms="4.8372036218643188e-01" purity="5.0049000978469849e-01" nType="0">
        <Node pos="l" depth="1" NCoef="0" IVar="3" Cut="7.3428601026535034e-01" cType="1" res="-4.8823017627000809e-02" rms="4.8298209905624390e-01" purity="4.1011485457420349e-01" nType="0">
          <Node pos="l" depth="2" NCoef="0" IVar="-1" Cut="0.0000000000000000e+00" cType="1" res="-2.8425785712897778e-03" rms="4.7727161645889282e-01" purity="3.7875688076019287e-01" nType="-99"/>
          <Node pos="r" depth="2" NCoef="0" IVar="-1" Cut="0.0000000000000000e+00" cType="1" res="1.7187849152833223e-03" rms="4.9587276577949524e-01" purity="5.3806358575820923e-01" nType="-99"/>
        </Node>
        <Node pos="r" depth="1" NCoef="0" IVar="5" Cut="9.1655206680297852e-01" cType="1" res="3.7261396646499634e-02" rms="4.8074647784233093e-01" purity="5.8184623718261719e-01" nType="0">
          <Node pos="l" depth="2" NCoef="0" IVar="-1" Cut="0.0000000000000000e+00" cType="1" res="3.8903735112398863e-03" rms="4.6805018186569214e-01" purity="6.6348022222518921e-01" nType="-99"/>
          <Node pos="r" depth="2" NCoef="0" IVar="-1" Cut="0.0000000000000000e+00" cType="1" res="-3.2433567685075104e-04" rms="4.8925593495368958e-01" purity="4.9905321002006531e-01" nType="-99"/>
        </Node>
      </Node>
    </BinaryTree>
    <BinaryTree type="DecisionTree" boostWeight="1.0000000000000000e+00" itree="55">
      <Node pos="s" depth="0" NCoef="0" IVar="8" Cut="9.2550885677337646e-01" cType="1" res="-6.5558715723454952e-03" rms="4.8371019959449768e-01" purity="4.9698176980018616e-01" nType="0">
        <Node pos="l" depth="1" NCoef="0" IVar="1" Cut="3.9457511901855469e-01" cType="1" res="-1.0057612508535385e-01" rms="4.7004863619804382e-01" purity="3.5356530547142029e-01" nType="0">
          <Node pos="l" depth="2" NCoef="0" IVar="-1" Cut="0.0000000000000000e+00" cType="1" res="-5.2982131019234657e-03" rms="4.5440417528152466e-01" purity="3.1193479895591736e-01" nType="-99"/>
          <Node pos="r" depth="2" NCoef="0" IVar="-1" Cut="0.0000000000000000e+00" cType="1" res="-1.5110030071809888e-03" rms="4.8760867118835449e-01" purity="4.2056825757026672e-01" nType="-99"/>
        </Node>
        <Node pos="r" depth="1" NCoef="0" IVar="3" Cut="6.1594957113265991e-01" cType="1" res="1.3262581080198288e-02" rms="4.8421689867973328e-01" purity="5.2721238136291504e-01" nType="0">
          <Node pos="l" depth="2" NCoef="0" IVar="-1" Cut="0.0000000000000000e+00" cType="1" res="-1.1607047636061907e-03" rms="4.8316323757171631e-01" purity="4.6055036783218384e-01" nType="-99"/>
          <Node pos="r" depth="2" NCoef="0" IVar="-1" Cut="0.0000000000000000e+00" cType="1" res="2.5606534909456968e-03" rms="4.8166975378990173e-01" purity="5.9788954257965088e-01" nType="-99"/>
        </Node>
      </Node>
    </BinaryTree>
    <BinaryTree type="DecisionTree" boostWeight="1.0000000000000000e+00" itree="56">
      <Node pos="s" depth="0" NCoef="0" IVar="3" Cut="7.2697001695632935e-01" cType="1" res="-4.4482885859906673e-03" rms="4.8313128948211670e-01" purity="4.9892884492874146e-01" nType="0">
        <Node pos="l" depth="1" NCoef="0" IVar="4" Cut="9.8495073616504669e-02" cType="1" res="-2.8364881873130798e-02" rms="4.8233267664909363e-01" purity="4.6177715063095093e-01" nType="0">
          <Node pos="l" depth="2" NCoef="0" IVar="-1" Cut="0.0000000000000000e+00" cType="1" res="-2.5080605410039425e-03" rms="4.7866559028625488e-01" purity="4.2040047049522400e-01" nType="-99"/>
          <Node pos="r" depth="2" NCoef="0" IVar="-1" Cut="0.0000000000000000e+00" cType="1" res="2.2857130970805883e-03" rms="4.8219567537307739e-01" purity="5.6423175334930420e-01" nType="-99"/>
        </Node>
        <Node pos="r" depth="1" NCoef="0" IVar="1" Cut="4.0369197726249695e-01" cType="1" res="7.4528433382511139e-02" rms="4.7732144594192505e-01" purity="6.2161016464233398e-01" nType="0">
          <Node pos="l" depth="2" NCoef="0" IVar="-1" Cut="0.0000000000000000e+00" cType="1" res="2.2494895383715630e-03" rms="4.8222327232360840e-01" purity="5.9468859434127808e-01" nType="-99"/>
          <Node pos="r" depth="2" NCoef="0" IVar="-1" Cut="0.0000000000000000e+00" cType="1" res="7.2671137750148773e-03" rms="4.5423093438148499e-01" purity="7.0084542036056519e-01" nType="-99"/>
        </Node>
      </Node>
    </BinaryTree>
    <BinaryTree type="DecisionTree" boostWeight="1.0000000000000000e+00" itree="57">
      <Node pos="s" depth="0" NCoef="0" IVar="0" Cut="4.5684902954101562e+02" cType="1" res="5.1347343251109123e-03" rms="4.8339712619781494e-01" purity="5.0871986150741577e-01" nType="0">
        <Node pos="l" depth="1" NCoef="0" IVar="8" Cut="9.5222932100296021e-01" cType="1" res="-5.9798479080200195e-02" rms="4.7792658209800720e-01" purity="4.2910724878311157e-01" nType="0">
          <Node pos="l" depth="2" NCoef="0" IVar="-1" Cut="0.0000000000000000e+00" cType="1" res="-4.4191209599375725e-03" rms="4.6217274665832520e-01" purity="3.2960104942321777e-01" nType="-99"/>
          <Node pos="r" depth="2" NCoef="0" IVar="-1" Cut="0.0000000000000000e+00" cType="1" res="-3.7076479202369228e-05" rms="4.8740309476852417e-01" purity="5.3574228286743164e-01" nType="-99"/>
        </Node>
        <Node pos="r" depth="1" NCoef="0" IVar="5" Cut="7.9297673702239990e-01" cType="1" res="3.6109820008277893e-02" rms="4.8291894793510437e-01" purity="5.4669737815856934e-01" nType="0">
          <Node pos="l" depth="2" NCoef="0" IVar="-1" Cut="0.0000000000000000e+00" cType="1" res="4.0654051117599010e-03" rms="4.7324192523956299e-01" purity="6.3612312078475952e-01" nType="-99"/>
          <Node pos="r" depth="2" NCoef="0" IVar="-1" Cut="0.0000000000000000e+00" cType="1" res="2.6468702344573103e-05" rms="4.8636221885681152e-01" purity="4.8469305038452148e-01" nType="-99"/>
        </Node>
      </Node>
    </BinaryTree>
    <BinaryTree type="DecisionTree" boostWeight="1.0000000000000000e+00" itree="58">
      <Node pos="s" depth="0" NCoef="0" IVar="5" Cut="9.9419087171554565e-01" cType="1" res="-7.0772180333733559e-04" rms="4.8276856541633606e-01" purity="5.0410228967666626e-01" nType="0">
        <Node pos="l" depth="1" NCoef="0" IVar="0" Cut="4.3330020141601562e+02" cType="1" res="3.8079254329204559e-02" rms="4.8300495743751526e-01" purity="5.8103758096694946e-01" nType="0">
          <Node pos="l" depth="2" NCoef="0" IVar="-1" Cut="0.0000000000000000e+00" cType="1" res="-1.6298654954880476e-03" rms="4.8894685506820679e-01" purity="4.8758113384246826e-01" nType="-99"/>
          <Node pos="r" depth="2" NCoef="0" IVar="-1" Cut="0.0000000000000000e+00" cType="1" res="2.9251126106828451e-03" rms="4.7828957438468933e-01" purity="6.1209601163864136e-01" nType="-99"/>
        </Node>
        <Node pos="r" depth="1" NCoef="0" IVar="0" Cut="5.4742352294921875e+02" cType="1" res="-4.7774735838174820e-02" rms="4.7827559709548950e-01" purity="4.1074323654174805e-01" nType="0">
          <Node pos="l" depth="2" NCoef="0" IVar="-1" Cut="0.0000000000000000e+00" cType="1" res="-3.4007844515144825e-03" rms="4.6828281879425049e-01" purity="3.6934918165206909e-01" nType="-99"/>
          <Node pos="r" depth="2" NCoef="0" IVar="-1" Cut="0.0000000000000000e+00" cType="1" res="-2.9584640287794173e-04" rms="4.8632812500000000e-01" purity="4.5841947197914124e-01" nType="-99"/>
        </Node>
      </Node>
    </BinaryTree>
    <BinaryTree type="DecisionTree" boostWeight="1.0000000000000000e+00" itree="59">
      <Node pos="s" depth="0" NCoef="0" IVar="3" Cut="5.4539716243743896e-01" cType="1" res="-5.0517856143414974e-03" rms="4.8197448253631592e-01" purity="4.9811014533042908e-01" nType="0">
        <Node pos="l" depth="1" NCoef="0" IVar="4" Cut="1.9799831509590149e-01" cType="1" res="-6.6139377653598785e-02" rms="4.7388526797294617e-01" purity="4.0322408080101013e-01" nType="0">
          <Node pos="l" depth="2" NCoef="0" IVar="-1" Cut="0.0000000000000000e+00" cType="1" res="-3.7698585074394941e-03" rms="4.6657842397689819e-01" purity="3.6559715867042542e-01" nType="-99"/>
          <Node pos="r" depth="2" NCoef="0" IVar="-1" Cut="0.0000000000000000e+00" cType="1" res="1.9472406711429358e-03" rms="4.8803082108497620e-01" purity="5.5887341499328613e-01" nType="-99"/>
        </Node>
        <Node pos="r" depth="1" NCoef="0" IVar="8" Cut="9.5222932100296021e-01" cType="1" res="2.9125874862074852e-02" rms="4.8308330774307251e-01" purity="5.5119758844375610e-01" nType="0">
          <Node pos="l" depth="2" NCoef="0" IVar="-1" Cut="0.0000000000000000e+00" cType="1" res="-4.4928080751560628e-04" rms="4.9140155315399170e-01" purity="4.6479120850563049e-01" nType="-99"/>
          <Node pos="r" depth="2" NCoef="0" IVar="-1" Cut="0.0000000000000000e+00" cType="1" res="3.2124505378305912e-03" rms="4.7175043821334839e-01" purity="6.3443595170974731e-01" nType="-99"/>
        </Node>
      </Node>
    </BinaryTree>
    <BinaryTree type="DecisionTree" boostWeight="1.0000000000000000e+00" itree="60">
      <Node pos="s" depth="0" NCoef="0" IVar="8" Cut="9.3568617105484009e-01" cType="1" res="-7.4134147725999355e-03" rms="4.8265254497528076e-01" purity="4.9566242098808289e-01" nType="0">
        <Node pos="l" depth="1" NCoef="0" IVar="3" Cut="5.7603114843368530e-01" cType="1" res="-7.6570414006710052e-02" rms="4.7653180360794067e-01" purity="3.7610313296318054e-01" nType="0">
          <Node pos="l" depth="2" NCoef="0" IVar="-1" Cut="0.0000000000000000e+00" cType="1" res="-4.8703784123063087e-03" rms="4.5196431875228882e-01" purity="3.0061048269271851e-01" nType="-99"/>
          <Node pos="r" depth="2" NCoef="0" IVar="-1" Cut="0.0000000000000000e+00" cType="1" res="-1.3565972913056612e-03" rms="4.9335253238677979e-01" purity="4.4332432746887207e-01" nType="-99"/>
        </Node>
        <Node pos="r" depth="1" NCoef="0" IVar="5" Cut="8.8086163997650146e-01" cType="1" res="1.8572101369500160e-02" rms="4.8237657546997070e-01" purity="5.4058641195297241e-01" nType="0">
          <Node pos="l" depth="2" NCoef="0" IVar="-1" Cut="0.0000000000000000e+00" cType="1" res="2.9702561441808939e-03" rms="4.7414407134056091e-01" purity="6.2678718566894531e-01" nType="-99"/>
          <Node pos="r" depth="2" NCoef="0" IVar="-1" Cut="0.0000000000000000e+00" cType="1" res="-9.1162114404141903e-04" rms="4.8611411452293396e-01" purity="4.6440836787223816e-01" nType="-99"/>
        </Node>
      </Node>
    </BinaryTree>
    <BinaryTree type="DecisionTree" boostWeight="1.0000000000000000e+00" itree="61">
      <Node pos="s" depth="0" NCoef="0" IVar="8" Cut="9.7939437627792358e-01" cType="1" res="-3.7917029112577438e-03" rms="4.8252329230308533e-01" purity="4.9926981329917908e-01" nType="0">
        <Node pos="l" depth="1" NCoef="0" IVar="0" Cut="5.4689379882812500e+02" cType="1" res="-2.1636011078953743e-02" rms="4.8518425226211548e-01" purity="4.6732762455940247e-01" nType="0">
          <Node pos="l" depth="2" NCoef="0" IVar="-1" Cut="0.0000000000000000e+00" cType="1" res="-2.6729183737188578e-03" rms="4.7835952043533325e-01" purity="4.1415891051292419e-01" nType="-99"/>
          <Node pos="r" depth="2" NCoef="0" IVar="-1" Cut="0.0000000000000000e+00" cType="1" res="1.0863080387935042e-03" rms="4.8814201354980469e-01" purity="5.2420401573181152e-01" nType="-99"/>
        </Node>
        <Node pos="r" depth="1" NCoef="0" IVar="3" Cut="5.8739501237869263e-01" cType="1" res="9.6470989286899567e-02" rms="4.5444324612617493e-01" purity="6.7874497175216675e-01" nType="0">
          <Node pos="l" depth="2" NCoef="0" IVar="-1" Cut="0.0000000000000000e+00" cType="1" res="1.9548200070858002e-03" rms="4.7991251945495605e-01" purity="5.8869874477386475e-01" nType="-99"/>
          <Node pos="r" depth="2" NCoef="0" IVar="-1" Cut="0.0000000000000000e+00" cType="1" res="7.1042566560208797e-03" rms="4.3048310279846191e-01" purity="7.4481672048568726e-01" nType="-99"/>
        </Node>
      </Node>
    </BinaryTree>
    <BinaryTree type="DecisionTree" boostWeight="1.0000000000000000e+00" itree="62">
      <Node pos="s" depth="0" NCoef="0" IVar="5" Cut="7.8627955913543701e-01" cType="1" res="-1.0955947218462825e-03" rms="4.8187667131423950e-01" purity="5.0239640474319458e-01" nType="0">
