<?xml version="1.0"?>
<MethodSetup Method="BDT::BDTG">
  <GeneralInfo>
    <Info name="TMVA Release" value="4.2.0 [262656]"/>
    <Info name="ROOT Release" value="6.02/05 [393733]"/>
    <Info name="Creator" value="shtan"/>
    <Info name="Date" value="Sat Apr 14 21:53:57 2018"/>
    <Info name="Host" value="Linux cmsbuild12.cern.ch 2.6.32-573.7.1.el6.x86_64 #1 SMP Wed Sep 23 10:12:03 CEST 2015 x86_64 x86_64 x86_64 GNU/Linux"/>
    <Info name="Dir" value="/eos/user/s/shtan/bdttrain/CMSSW_7_4_15/src/TTH_BDT_Training/2training"/>
    <Info name="Training events" value="16831"/>
    <Info name="TrainingTime" value="2.54337442e+01"/>
    <Info name="AnalysisType" value="Classification"/>
  </GeneralInfo>
  <Options>
    <Option name="V" modified="Yes">False</Option>
    <Option name="VerbosityLevel" modified="No">Default</Option>
    <Option name="VarTransform" modified="No">None</Option>
    <Option name="H" modified="Yes">False</Option>
    <Option name="CreateMVAPdfs" modified="No">False</Option>
    <Option name="IgnoreNegWeightsInTraining" modified="No">False</Option>
    <Option name="NTrees" modified="Yes">797</Option>
    <Option name="MaxDepth" modified="Yes">2</Option>
    <Option name="MinNodeSize" modified="No">5%</Option>
    <Option name="nCuts" modified="Yes">18</Option>
    <Option name="BoostType" modified="Yes">Grad</Option>
    <Option name="AdaBoostR2Loss" modified="No">quadratic</Option>
    <Option name="UseBaggedBoost" modified="Yes">True</Option>
    <Option name="Shrinkage" modified="Yes">1.750000e-02</Option>
    <Option name="AdaBoostBeta" modified="No">5.000000e-01</Option>
    <Option name="UseRandomisedTrees" modified="No">False</Option>
    <Option name="UseNvars" modified="No">3</Option>
    <Option name="UsePoissonNvars" modified="No">True</Option>
    <Option name="BaggedSampleFraction" modified="No">2.100000e-01</Option>
    <Option name="UseYesNoLeaf" modified="No">True</Option>
    <Option name="NegWeightTreatment" modified="Yes">ignorenegweightsintraining</Option>
    <Option name="Css" modified="No">1.000000e+00</Option>
    <Option name="Cts_sb" modified="No">1.000000e+00</Option>
    <Option name="Ctb_ss" modified="No">1.000000e+00</Option>
    <Option name="Cbb" modified="No">1.000000e+00</Option>
    <Option name="NodePurityLimit" modified="No">5.000000e-01</Option>
    <Option name="SeparationType" modified="No">giniindex</Option>
    <Option name="DoBoostMonitor" modified="No">False</Option>
    <Option name="UseFisherCuts" modified="No">False</Option>
    <Option name="MinLinCorrForFisher" modified="No">8.000000e-01</Option>
    <Option name="UseExclusiveVars" modified="No">False</Option>
    <Option name="DoPreselection" modified="No">False</Option>
    <Option name="SigToBkgFraction" modified="No">1.000000e+00</Option>
    <Option name="PruneMethod" modified="No">nopruning</Option>
    <Option name="PruneStrength" modified="No">0.000000e+00</Option>
    <Option name="PruningValFraction" modified="No">5.000000e-01</Option>
    <Option name="nEventsMin" modified="No">0</Option>
    <Option name="UseBaggedGrad" modified="No">False</Option>
    <Option name="GradBaggingFraction" modified="Yes">2.100000e-01</Option>
    <Option name="UseNTrainEvents" modified="No">0</Option>
    <Option name="NNodesMax" modified="No">0</Option>
  </Options>
  <Variables NVar="10">
    <Variable VarIndex="0" Expression="BDT_common5_input_avg_dr_tagged_jets" Label="BDT_common5_input_avg_dr_tagged_jets" Title="BDT_common5_input_avg_dr_tagged_jets" Unit="" Internal="BDT_common5_input_avg_dr_tagged_jets" Type="F" Min="7.35687494e-01" Max="3.72245264e+00"/>
    <Variable VarIndex="1" Expression="Evt_blr_ETH_transformed" Label="Evt_blr_ETH_transformed" Title="Evt_blr_ETH_transformed" Unit="" Internal="Evt_blr_ETH_transformed" Type="F" Min="5.37214220e-01" Max="1.20236683e+01"/>
    <Variable VarIndex="2" Expression="BDT_common5_input_Evt_Deta_JetsAverage" Label="BDT_common5_input_Evt_Deta_JetsAverage" Title="BDT_common5_input_Evt_Deta_JetsAverage" Unit="" Internal="BDT_common5_input_Evt_Deta_JetsAverage" Type="F" Min="1.26845330e-01" Max="2.47606206e+00"/>
    <Variable VarIndex="3" Expression="BDT_common5_input_best_higgs_mass" Label="BDT_common5_input_best_higgs_mass" Title="BDT_common5_input_best_higgs_mass" Unit="" Internal="BDT_common5_input_best_higgs_mass" Type="F" Min="0.00000000e+00" Max="2.10643506e+03"/>
    <Variable VarIndex="4" Expression="BDT_common5_input_closest_tagged_dijet_mass" Label="BDT_common5_input_closest_tagged_dijet_mass" Title="BDT_common5_input_closest_tagged_dijet_mass" Unit="" Internal="BDT_common5_input_closest_tagged_dijet_mass" Type="F" Min="1.72323017e+01" Max="5.44070312e+02"/>
    <Variable VarIndex="5" Expression="BDT_common5_input_dEta_fn" Label="BDT_common5_input_dEta_fn" Title="BDT_common5_input_dEta_fn" Unit="" Internal="BDT_common5_input_dEta_fn" Type="F" Min="0.00000000e+00" Max="6.66002941e+00"/>
    <Variable VarIndex="6" Expression="BDT_common5_input_aplanarity" Label="BDT_common5_input_aplanarity" Title="BDT_common5_input_aplanarity" Unit="" Internal="BDT_common5_input_aplanarity" Type="F" Min="4.49534236e-05" Max="4.22398299e-01"/>
    <Variable VarIndex="7" Expression="BDT_common5_input_h0" Label="BDT_common5_input_h0" Title="BDT_common5_input_h0" Unit="" Internal="BDT_common5_input_h0" Type="F" Min="1.33774117e-01" Max="4.48327690e-01"/>
    <Variable VarIndex="8" Expression="BDT_common5_input_avg_btag_disc_btags" Label="BDT_common5_input_avg_btag_disc_btags" Title="BDT_common5_input_avg_btag_disc_btags" Unit="" Internal="BDT_common5_input_avg_btag_disc_btags" Type="F" Min="8.62996936e-01" Max="9.98949230e-01"/>
    <Variable VarIndex="9" Expression="BDT_common5_input_h3" Label="BDT_common5_input_h3" Title="BDT_common5_input_h3" Unit="" Internal="BDT_common5_input_h3" Type="F" Min="-1.62087500e-01" Max="2.45130703e-01"/>
  </Variables>
  <Spectators NSpec="0"/>
  <Classes NClass="2">
    <Class Name="Signal" Index="0"/>
    <Class Name="Background" Index="1"/>
  </Classes>
  <Transformations NTransformations="0"/>
  <MVAPdfs/>
  <Weights NTrees="797" AnalysisType="1">
    <BinaryTree type="DecisionTree" boostWeight="1.0000000000000000e+00" itree="0">
      <Node pos="s" depth="0" NCoef="0" IVar="2" Cut="1.2601925134658813e+00" cType="1" res="1.2411839328706264e-02" rms="4.9984592199325562e-01" purity="5.1241183280944824e-01" nType="0">
        <Node pos="l" depth="1" NCoef="0" IVar="1" Cut="7.4849948883056641e+00" cType="1" res="1.0462392866611481e-01" rms="4.8893132805824280e-01" purity="6.0462391376495361e-01" nType="0">
          <Node pos="l" depth="2" NCoef="0" IVar="-1" Cut="0.0000000000000000e+00" cType="1" res="2.0560376287903637e-04" rms="4.9974921345710754e-01" purity="5.1583421230316162e-01" nType="-99"/>
          <Node pos="r" depth="2" NCoef="0" IVar="-1" Cut="0.0000000000000000e+00" cType="1" res="5.2389744669198990e-03" rms="4.3500250577926636e-01" purity="7.4652147293090820e-01" nType="-99"/>
        </Node>
        <Node pos="r" depth="1" NCoef="0" IVar="8" Cut="9.5723634958267212e-01" cType="1" res="-1.7644062638282776e-01" rms="4.6783405542373657e-01" purity="3.2355937361717224e-01" nType="0">
          <Node pos="l" depth="2" NCoef="0" IVar="-1" Cut="0.0000000000000000e+00" cType="1" res="-2.2454655263572931e-03" rms="4.3365627527236938e-01" purity="2.5111800432205200e-01" nType="-99"/>
          <Node pos="r" depth="2" NCoef="0" IVar="-1" Cut="0.0000000000000000e+00" cType="1" res="-6.7157775629311800e-04" rms="4.9729174375534058e-01" purity="4.4802960753440857e-01" nType="-99"/>
        </Node>
      </Node>
    </BinaryTree>
    <BinaryTree type="DecisionTree" boostWeight="1.0000000000000000e+00" itree="1">
      <Node pos="s" depth="0" NCoef="0" IVar="0" Cut="2.2042617797851562e+00" cType="1" res="-2.8839961159974337e-03" rms="4.9965950846672058e-01" purity="4.9756509065628052e-01" nType="0">
        <Node pos="l" depth="1" NCoef="0" IVar="1" Cut="6.7299904823303223e+00" cType="1" res="9.6250355243682861e-02" rms="4.9022361636161804e-01" purity="5.9704297780990601e-01" nType="0">
          <Node pos="l" depth="2" NCoef="0" IVar="-1" Cut="0.0000000000000000e+00" cType="1" res="-5.1071465713903308e-04" rms="4.9810123443603516e-01" purity="4.5670279860496521e-01" nType="-99"/>
          <Node pos="r" depth="2" NCoef="0" IVar="-1" Cut="0.0000000000000000e+00" cType="1" res="4.0466454811394215e-03" rms="4.5491454005241394e-01" purity="7.0725256204605103e-01" nType="-99"/>
        </Node>
        <Node pos="r" depth="1" NCoef="0" IVar="8" Cut="9.3372750282287598e-01" cType="1" res="-1.3752943277359009e-01" rms="4.8048776388168335e-01" purity="3.6245301365852356e-01" nType="0">
          <Node pos="l" depth="2" NCoef="0" IVar="-1" Cut="0.0000000000000000e+00" cType="1" res="-2.5380123406648636e-03" rms="4.1012325882911682e-01" purity="2.1415704488754272e-01" nType="-99"/>
          <Node pos="r" depth="2" NCoef="0" IVar="-1" Cut="0.0000000000000000e+00" cType="1" res="-9.3086919514462352e-04" rms="4.9393901228904724e-01" purity="4.2337268590927124e-01" nType="-99"/>
        </Node>
      </Node>
    </BinaryTree>
    <BinaryTree type="DecisionTree" boostWeight="1.0000000000000000e+00" itree="2">
      <Node pos="s" depth="0" NCoef="0" IVar="2" Cut="8.8230079412460327e-01" cType="1" res="-7.3581710457801819e-03" rms="4.9923896789550781e-01" purity="4.9347212910652161e-01" nType="0">
        <Node pos="l" depth="1" NCoef="0" IVar="1" Cut="8.0807590484619141e+00" cType="1" res="1.8513762950897217e-01" rms="4.6309271454811096e-01" purity="6.8733352422714233e-01" nType="0">
          <Node pos="l" depth="2" NCoef="0" IVar="-1" Cut="0.0000000000000000e+00" cType="1" res="1.9236279185861349e-03" rms="4.8461732268333435e-01" purity="6.2222546339035034e-01" nType="-99"/>
          <Node pos="r" depth="2" NCoef="0" IVar="-1" Cut="0.0000000000000000e+00" cType="1" res="9.3261180445551872e-03" rms="3.5519653558731079e-01" purity="8.5179418325424194e-01" nType="-99"/>
        </Node>
        <Node pos="r" depth="1" NCoef="0" IVar="8" Cut="9.3427193164825439e-01" cType="1" res="-7.9160548746585846e-02" rms="4.9319088459014893e-01" purity="4.2116039991378784e-01" nType="0">
          <Node pos="l" depth="2" NCoef="0" IVar="-1" Cut="0.0000000000000000e+00" cType="1" res="-2.3428834974765778e-03" rms="4.2266923189163208e-01" purity="2.3308995366096497e-01" nType="-99"/>
          <Node pos="r" depth="2" NCoef="0" IVar="-1" Cut="0.0000000000000000e+00" cType="1" res="-8.8480075646657497e-05" rms="4.9956399202346802e-01" purity="4.9439722299575806e-01" nType="-99"/>
        </Node>
      </Node>
    </BinaryTree>
    <BinaryTree type="DecisionTree" boostWeight="1.0000000000000000e+00" itree="3">
      <Node pos="s" depth="0" NCoef="0" IVar="8" Cut="9.4100886583328247e-01" cType="1" res="-1.0094005614519119e-02" rms="4.9888965487480164e-01" purity="4.9099484086036682e-01" nType="0">
        <Node pos="l" depth="1" NCoef="0" IVar="2" Cut="1.0721830129623413e+00" cType="1" res="-1.7300526797771454e-01" rms="4.6825999021530151e-01" purity="3.2571387290954590e-01" nType="0">
          <Node pos="l" depth="2" NCoef="0" IVar="-1" Cut="0.0000000000000000e+00" cType="1" res="-5.1083456492051482e-04" rms="4.9820950627326965e-01" purity="4.5830124616622925e-01" nType="-99"/>
          <Node pos="r" depth="2" NCoef="0" IVar="-1" Cut="0.0000000000000000e+00" cType="1" res="-2.3306433577090502e-03" rms="4.2883056402206421e-01" purity="2.4319721758365631e-01" nType="-99"/>
        </Node>
        <Node pos="r" depth="1" NCoef="0" IVar="0" Cut="2.2935440540313721e+00" cType="1" res="8.2486867904663086e-02" rms="4.9200803041458130e-01" purity="5.8492243289947510e-01" nType="0">
          <Node pos="l" depth="2" NCoef="0" IVar="-1" Cut="0.0000000000000000e+00" cType="1" res="2.7259385678917170e-03" rms="4.7360673546791077e-01" purity="6.5910136699676514e-01" nType="-99"/>
          <Node pos="r" depth="2" NCoef="0" IVar="-1" Cut="0.0000000000000000e+00" cType="1" res="-1.1168862693011761e-03" rms="4.9108013510704041e-01" purity="4.0703633427619934e-01" nType="-99"/>
        </Node>
      </Node>
    </BinaryTree>
    <BinaryTree type="DecisionTree" boostWeight="1.0000000000000000e+00" itree="4">
      <Node pos="s" depth="0" NCoef="0" IVar="0" Cut="2.2970955371856689e+00" cType="1" res="-6.8254149518907070e-03" rms="4.9868690967559814e-01" purity="4.9459126591682434e-01" nType="0">
        <Node pos="l" depth="1" NCoef="0" IVar="8" Cut="9.2667740583419800e-01" cType="1" res="7.6790951192378998e-02" rms="4.9279889464378357e-01" purity="5.7989186048507690e-01" nType="0">
          <Node pos="l" depth="2" NCoef="0" IVar="-1" Cut="0.0000000000000000e+00" cType="1" res="-1.5718885697424412e-03" rms="4.7665712237358093e-01" purity="3.4897696971893311e-01" nType="-99"/>
          <Node pos="r" depth="2" NCoef="0" IVar="-1" Cut="0.0000000000000000e+00" cType="1" res="1.8485151231288910e-03" rms="4.8496147990226746e-01" purity="6.1968994140625000e-01" nType="-99"/>
        </Node>
        <Node pos="r" depth="1" NCoef="0" IVar="2" Cut="1.3796387910842896e+00" cType="1" res="-1.7758712172508240e-01" rms="4.6601799130439758e-01" purity="3.2039013504981995e-01" nType="0">
          <Node pos="l" depth="2" NCoef="0" IVar="-1" Cut="0.0000000000000000e+00" cType="1" res="-8.6538103641942143e-04" rms="4.9461385607719421e-01" purity="4.3061602115631104e-01" nType="-99"/>
          <Node pos="r" depth="2" NCoef="0" IVar="-1" Cut="0.0000000000000000e+00" cType="1" res="-2.4491066578775644e-03" rms="4.1745087504386902e-01" purity="2.2521936893463135e-01" nType="-99"/>
        </Node>
      </Node>
    </BinaryTree>
    <BinaryTree type="DecisionTree" boostWeight="1.0000000000000000e+00" itree="5">
      <Node pos="s" depth="0" NCoef="0" IVar="2" Cut="9.1838729381561279e-01" cType="1" res="-1.8837584648281336e-03" rms="4.9860861897468567e-01" purity="4.9985387921333313e-01" nType="0">
        <Node pos="l" depth="1" NCoef="0" IVar="1" Cut="6.7787966728210449e+00" cType="1" res="1.6476601362228394e-01" rms="4.6928125619888306e-01" purity="6.6994237899780273e-01" nType="0">
          <Node pos="l" depth="2" NCoef="0" IVar="-1" Cut="0.0000000000000000e+00" cType="1" res="8.3204294787719846e-04" rms="4.9645313620567322e-01" purity="5.5809086561203003e-01" nType="-99"/>
          <Node pos="r" depth="2" NCoef="0" IVar="-1" Cut="0.0000000000000000e+00" cType="1" res="4.9956818111240864e-03" rms="4.3266963958740234e-01" purity="7.4996060132980347e-01" nType="-99"/>
        </Node>
        <Node pos="r" depth="1" NCoef="0" IVar="8" Cut="9.3780493736267090e-01" cType="1" res="-7.8709483146667480e-02" rms="4.9294134974479675e-01" purity="4.2144292593002319e-01" nType="0">
          <Node pos="l" depth="2" NCoef="0" IVar="-1" Cut="0.0000000000000000e+00" cType="1" res="-2.0865432452410460e-03" rms="4.5223811268806458e-01" purity="2.8745615482330322e-01" nType="-99"/>
          <Node pos="r" depth="2" NCoef="0" IVar="-1" Cut="0.0000000000000000e+00" cType="1" res="-3.3128084032796323e-04" rms="4.9898883700370789e-01" purity="4.7714734077453613e-01" nType="-99"/>
        </Node>
      </Node>
    </BinaryTree>
    <BinaryTree type="DecisionTree" boostWeight="1.0000000000000000e+00" itree="6">
      <Node pos="s" depth="0" NCoef="0" IVar="2" Cut="1.2396322488784790e+00" cType="1" res="1.8304545432329178e-02" rms="4.9769917130470276e-01" purity="5.2023595571517944e-01" nType="0">
        <Node pos="l" depth="1" NCoef="0" IVar="2" Cut="9.4667351245880127e-01" cType="1" res="1.2391594797372818e-01" rms="4.8212066292762756e-01" purity="6.2832045555114746e-01" nType="0">
          <Node pos="l" depth="2" NCoef="0" IVar="-1" Cut="0.0000000000000000e+00" cType="1" res="3.7862025201320648e-03" rms="4.5386970043182373e-01" purity="7.0807802677154541e-01" nType="-99"/>
          <Node pos="r" depth="2" NCoef="0" IVar="-1" Cut="0.0000000000000000e+00" cType="1" res="4.6072693658061326e-04" rms="4.9831998348236084e-01" purity="5.3384101390838623e-01" nType="-99"/>
        </Node>
        <Node pos="r" depth="1" NCoef="0" IVar="0" Cut="2.1931376457214355e+00" cType="1" res="-1.6655658185482025e-01" rms="4.6981438994407654e-01" purity="3.3104592561721802e-01" nType="0">
          <Node pos="l" depth="2" NCoef="0" IVar="-1" Cut="0.0000000000000000e+00" cType="1" res="4.1783548658713698e-04" rms="4.9871337413787842e-01" purity="5.2994215488433838e-01" nType="-99"/>
          <Node pos="r" depth="2" NCoef="0" IVar="-1" Cut="0.0000000000000000e+00" cType="1" res="-2.2394729312509298e-03" rms="4.3985629081726074e-01" purity="2.6276826858520508e-01" nType="-99"/>
        </Node>
      </Node>
    </BinaryTree>
    <BinaryTree type="DecisionTree" boostWeight="1.0000000000000000e+00" itree="7">
      <Node pos="s" depth="0" NCoef="0" IVar="0" Cut="2.1809711456298828e+00" cType="1" res="2.1159481257200241e-03" rms="4.9769154191017151e-01" purity="5.0438570976257324e-01" nType="0">
        <Node pos="l" depth="1" NCoef="0" IVar="2" Cut="9.8267608880996704e-01" cType="1" res="1.2927749752998352e-01" rms="4.8017984628677368e-01" purity="6.3516265153884888e-01" nType="0">
          <Node pos="l" depth="2" NCoef="0" IVar="-1" Cut="0.0000000000000000e+00" cType="1" res="4.0713837370276451e-03" rms="4.5046010613441467e-01" purity="7.1616619825363159e-01" nType="-99"/>
          <Node pos="r" depth="2" NCoef="0" IVar="-1" Cut="0.0000000000000000e+00" cType="1" res="5.2557600429281592e-04" rms="4.9768596887588501e-01" purity="5.3935998678207397e-01" nType="-99"/>
        </Node>
        <Node pos="r" depth="1" NCoef="0" IVar="2" Cut="1.1729788780212402e+00" cType="1" res="-1.4320923388004303e-01" rms="4.7714552283287048e-01" purity="3.5492885112762451e-01" nType="0">
          <Node pos="l" depth="2" NCoef="0" IVar="-1" Cut="0.0000000000000000e+00" cType="1" res="-1.4617701526731253e-04" rms="4.9934798479080200e-01" purity="4.9218428134918213e-01" nType="-99"/>
          <Node pos="r" depth="2" NCoef="0" IVar="-1" Cut="0.0000000000000000e+00" cType="1" res="-2.2139644715934992e-03" rms="4.4869869947433472e-01" purity="2.8081694245338440e-01" nType="-99"/>
        </Node>
      </Node>
    </BinaryTree>
    <BinaryTree type="DecisionTree" boostWeight="1.0000000000000000e+00" itree="8">
      <Node pos="s" depth="0" NCoef="0" IVar="2" Cut="1.2703996896743774e+00" cType="1" res="1.1060549877583981e-02" rms="4.9713706970214844e-01" purity="5.1374334096908569e-01" nType="0">
        <Node pos="l" depth="1" NCoef="0" IVar="1" Cut="6.4243350028991699e+00" cType="1" res="9.6280351281166077e-02" rms="4.8768427968025208e-01" purity="6.0219407081604004e-01" nType="0">
          <Node pos="l" depth="2" NCoef="0" IVar="-1" Cut="0.0000000000000000e+00" cType="1" res="-6.9026747951284051e-04" rms="4.9627536535263062e-01" purity="4.4433099031448364e-01" nType="-99"/>
          <Node pos="r" depth="2" NCoef="0" IVar="-1" Cut="0.0000000000000000e+00" cType="1" res="2.9794964939355850e-03" rms="4.6691158413887024e-01" purity="6.7555767297744751e-01" nType="-99"/>
        </Node>
        <Node pos="r" depth="1" NCoef="0" IVar="0" Cut="2.2012698650360107e+00" cType="1" res="-1.6369137167930603e-01" rms="4.6989825367927551e-01" purity="3.3236610889434814e-01" nType="0">
          <Node pos="l" depth="2" NCoef="0" IVar="-1" Cut="0.0000000000000000e+00" cType="1" res="7.2711656684987247e-05" rms="4.9968647956848145e-01" purity="5.0681924819946289e-01" nType="-99"/>
          <Node pos="r" depth="2" NCoef="0" IVar="-1" Cut="0.0000000000000000e+00" cType="1" res="-2.2316118702292442e-03" rms="4.3980565667152405e-01" purity="2.6299491524696350e-01" nType="-99"/>
        </Node>
      </Node>
    </BinaryTree>
    <BinaryTree type="DecisionTree" boostWeight="1.0000000000000000e+00" itree="9">
      <Node pos="s" depth="0" NCoef="0" IVar="0" Cut="2.4648673534393311e+00" cType="1" res="9.9853007122874260e-03" rms="4.9696770310401917e-01" purity="5.1329964399337769e-01" nType="0">
        <Node pos="l" depth="1" NCoef="0" IVar="2" Cut="8.9657187461853027e-01" cType="1" res="7.0084705948829651e-02" rms="4.9232512712478638e-01" purity="5.7562267780303955e-01" nType="0">
          <Node pos="l" depth="2" NCoef="0" IVar="-1" Cut="0.0000000000000000e+00" cType="1" res="3.3055802341550589e-03" rms="4.5871385931968689e-01" purity="6.9645702838897705e-01" nType="-99"/>
          <Node pos="r" depth="2" NCoef="0" IVar="-1" Cut="0.0000000000000000e+00" cType="1" res="8.5016865341458470e-05" rms="4.9891445040702820e-01" purity="5.0799793004989624e-01" nType="-99"/>
        </Node>
        <Node pos="r" depth="1" NCoef="0" IVar="2" Cut="1.4631834030151367e+00" cType="1" res="-2.4560526013374329e-01" rms="4.3107086420059204e-01" purity="2.4825248122215271e-01" nType="0">
          <Node pos="l" depth="2" NCoef="0" IVar="-1" Cut="0.0000000000000000e+00" cType="1" res="-1.5086533967405558e-03" rms="4.8077538609504700e-01" purity="3.6564737558364868e-01" nType="-99"/>
          <Node pos="r" depth="2" NCoef="0" IVar="-1" Cut="0.0000000000000000e+00" cType="1" res="-3.1096683815121651e-03" rms="3.5990431904792786e-01" purity="1.5302644670009613e-01" nType="-99"/>
        </Node>
      </Node>
    </BinaryTree>
    <BinaryTree type="DecisionTree" boostWeight="1.0000000000000000e+00" itree="10">
      <Node pos="s" depth="0" NCoef="0" IVar="8" Cut="9.5928728580474854e-01" cType="1" res="-2.9212327208369970e-03" rms="4.9686929583549500e-01" purity="5.0035220384597778e-01" nType="0">
        <Node pos="l" depth="1" NCoef="0" IVar="2" Cut="1.3200852870941162e+00" cType="1" res="-9.2629641294479370e-02" rms="4.8911482095718384e-01" purity="4.0769803524017334e-01" nType="0">
          <Node pos="l" depth="2" NCoef="0" IVar="-1" Cut="0.0000000000000000e+00" cType="1" res="-1.8813532369676977e-04" rms="4.9855121970176697e-01" purity="4.8894962668418884e-01" nType="-99"/>
          <Node pos="r" depth="2" NCoef="0" IVar="-1" Cut="0.0000000000000000e+00" cType="1" res="-2.3333134595304728e-03" rms="4.2773440480232239e-01" purity="2.4242234230041504e-01" nType="-99"/>
        </Node>
        <Node pos="r" depth="1" NCoef="0" IVar="2" Cut="1.3636037111282349e+00" cType="1" res="1.6012734174728394e-01" rms="4.6857652068138123e-01" purity="6.6875493526458740e-01" nType="0">
          <Node pos="l" depth="2" NCoef="0" IVar="-1" Cut="0.0000000000000000e+00" cType="1" res="4.5040487311780453e-03" rms="4.4505301117897034e-01" purity="7.2638469934463501e-01" nType="-99"/>
          <Node pos="r" depth="2" NCoef="0" IVar="-1" Cut="0.0000000000000000e+00" cType="1" res="-8.0924393841996789e-04" rms="4.9497583508491516e-01" purity="4.3530684709548950e-01" nType="-99"/>
        </Node>
      </Node>
    </BinaryTree>
    <BinaryTree type="DecisionTree" boostWeight="1.0000000000000000e+00" itree="11">
      <Node pos="s" depth="0" NCoef="0" IVar="0" Cut="2.0854196548461914e+00" cType="1" res="-8.4195621311664581e-03" rms="4.9637407064437866e-01" purity="4.9522942304611206e-01" nType="0">
        <Node pos="l" depth="1" NCoef="0" IVar="4" Cut="5.1367053985595703e+01" cType="1" res="1.3902404904365540e-01" rms="4.7608730196952820e-01" purity="6.4960962533950806e-01" nType="0">
          <Node pos="l" depth="2" NCoef="0" IVar="-1" Cut="0.0000000000000000e+00" cType="1" res="8.6659143562428653e-05" rms="4.9860444664955139e-01" purity="5.1579314470291138e-01" nType="-99"/>
          <Node pos="r" depth="2" NCoef="0" IVar="-1" Cut="0.0000000000000000e+00" cType="1" res="4.3054874986410141e-03" rms="4.4699418544769287e-01" purity="7.2265768051147461e-01" nType="-99"/>
        </Node>
        <Node pos="r" depth="1" NCoef="0" IVar="8" Cut="9.4982522726058960e-01" cType="1" res="-1.0603446513414383e-01" rms="4.8531106114387512e-01" purity="3.9302214980125427e-01" nType="0">
          <Node pos="l" depth="2" NCoef="0" IVar="-1" Cut="0.0000000000000000e+00" cType="1" res="-2.1351103205233812e-03" rms="4.3936842679977417e-01" purity="2.6407271623611450e-01" nType="-99"/>
          <Node pos="r" depth="2" NCoef="0" IVar="-1" Cut="0.0000000000000000e+00" cType="1" res="4.9901119200512767e-04" rms="4.9582123756408691e-01" purity="5.3734451532363892e-01" nType="-99"/>
        </Node>
      </Node>
    </BinaryTree>
    <BinaryTree type="DecisionTree" boostWeight="1.0000000000000000e+00" itree="12">
      <Node pos="s" depth="0" NCoef="0" IVar="8" Cut="9.5012241601943970e-01" cType="1" res="3.9254599250853062e-03" rms="4.9623659253120422e-01" purity="5.0744336843490601e-01" nType="0">
        <Node pos="l" depth="1" NCoef="0" IVar="2" Cut="1.0010621547698975e+00" cType="1" res="-1.0760243982076645e-01" rms="4.8570549488067627e-01" purity="3.9080119132995605e-01" nType="0">
          <Node pos="l" depth="2" NCoef="0" IVar="-1" Cut="0.0000000000000000e+00" cType="1" res="1.0664974106475711e-03" rms="4.9284476041793823e-01" purity="5.7989704608917236e-01" nType="-99"/>
          <Node pos="r" depth="2" NCoef="0" IVar="-1" Cut="0.0000000000000000e+00" cType="1" res="-1.9017024897038937e-03" rms="4.5792296528816223e-01" purity="3.0101436376571655e-01" nType="-99"/>
        </Node>
        <Node pos="r" depth="1" NCoef="0" IVar="0" Cut="2.3642153739929199e+00" cType="1" res="1.2871028482913971e-01" rms="4.7784167528152466e-01" purity="6.3795047998428345e-01" nType="0">
          <Node pos="l" depth="2" NCoef="0" IVar="-1" Cut="0.0000000000000000e+00" cType="1" res="3.8534656632691622e-03" rms="4.5430362224578857e-01" purity="7.0646351575851440e-01" nType="-99"/>
          <Node pos="r" depth="2" NCoef="0" IVar="-1" Cut="0.0000000000000000e+00" cType="1" res="-1.1028343578800559e-03" rms="4.9061599373817444e-01" purity="4.0845707058906555e-01" nType="-99"/>
        </Node>
      </Node>
    </BinaryTree>
    <BinaryTree type="DecisionTree" boostWeight="1.0000000000000000e+00" itree="13">
      <Node pos="s" depth="0" NCoef="0" IVar="0" Cut="2.1593091487884521e+00" cType="1" res="-2.2024955600500107e-02" rms="4.9569359421730042e-01" purity="4.8236048221588135e-01" nType="0">
        <Node pos="l" depth="1" NCoef="0" IVar="8" Cut="9.4724911451339722e-01" cType="1" res="8.5220977663993835e-02" rms="4.8815169930458069e-01" purity="5.9672224521636963e-01" nType="0">
          <Node pos="l" depth="2" NCoef="0" IVar="-1" Cut="0.0000000000000000e+00" cType="1" res="-3.3357919892296195e-04" rms="4.9824002385139465e-01" purity="4.7765150666236877e-01" nType="-99"/>
          <Node pos="r" depth="2" NCoef="0" IVar="-1" Cut="0.0000000000000000e+00" cType="1" res="3.1709412578493357e-03" rms="4.6480330824851990e-01" purity="6.8150115013122559e-01" nType="-99"/>
        </Node>
        <Node pos="r" depth="1" NCoef="0" IVar="2" Cut="1.4420832395553589e+00" cType="1" res="-1.3213086128234863e-01" rms="4.7895547747612000e-01" purity="3.6494907736778259e-01" nType="0">
          <Node pos="l" depth="2" NCoef="0" IVar="-1" Cut="0.0000000000000000e+00" cType="1" res="-8.1220921128988266e-04" rms="4.9411273002624512e-01" purity="4.3680545687675476e-01" nType="-99"/>
          <Node pos="r" depth="2" NCoef="0" IVar="-1" Cut="0.0000000000000000e+00" cType="1" res="-2.4316734634339809e-03" rms="4.2128658294677734e-01" purity="2.3166429996490479e-01" nType="-99"/>
        </Node>
      </Node>
    </BinaryTree>
    <BinaryTree type="DecisionTree" boostWeight="1.0000000000000000e+00" itree="14">
      <Node pos="s" depth="0" NCoef="0" IVar="0" Cut="2.2996311187744141e+00" cType="1" res="-3.3765915781259537e-02" rms="4.9503481388092041e-01" purity="4.7083956003189087e-01" nType="0">
        <Node pos="l" depth="1" NCoef="0" IVar="1" Cut="6.9663128852844238e+00" cType="1" res="4.4286888092756271e-02" rms="4.9470913410186768e-01" purity="5.5471962690353394e-01" nType="0">
          <Node pos="l" depth="2" NCoef="0" IVar="-1" Cut="0.0000000000000000e+00" cType="1" res="-5.4101762361824512e-04" rms="4.9701973795890808e-01" purity="4.5785069465637207e-01" nType="-99"/>
          <Node pos="r" depth="2" NCoef="0" IVar="-1" Cut="0.0000000000000000e+00" cType="1" res="2.1072987001389265e-03" rms="4.7920268774032593e-01" purity="6.3912290334701538e-01" nType="-99"/>
        </Node>
        <Node pos="r" depth="1" NCoef="0" IVar="2" Cut="1.4929285049438477e+00" cType="1" res="-1.9587299227714539e-01" rms="4.5474973320960999e-01" purity="2.9662987589836121e-01" nType="0">
          <Node pos="l" depth="2" NCoef="0" IVar="-1" Cut="0.0000000000000000e+00" cType="1" res="-1.3341553276404738e-03" rms="4.8362705111503601e-01" purity="3.7832990288734436e-01" nType="-99"/>
          <Node pos="r" depth="2" NCoef="0" IVar="-1" Cut="0.0000000000000000e+00" cType="1" res="-2.6926549617201090e-03" rms="3.5840636491775513e-01" purity="1.5201018750667572e-01" nType="-99"/>
        </Node>
      </Node>
    </BinaryTree>
    <BinaryTree type="DecisionTree" boostWeight="1.0000000000000000e+00" itree="15">
      <Node pos="s" depth="0" NCoef="0" IVar="2" Cut="1.2707489728927612e+00" cType="1" res="-2.8933237772434950e-03" rms="4.9524188041687012e-01" purity="5.0160360336303711e-01" nType="0">
        <Node pos="l" depth="1" NCoef="0" IVar="1" Cut="5.5453076362609863e+00" cType="1" res="7.8708373010158539e-02" rms="4.8891806602478027e-01" purity="5.8909368515014648e-01" nType="0">
          <Node pos="l" depth="2" NCoef="0" IVar="-1" Cut="0.0000000000000000e+00" cType="1" res="-1.7361319623887539e-03" rms="4.6818971633911133e-01" purity="3.2684847712516785e-01" nType="-99"/>
          <Node pos="r" depth="2" NCoef="0" IVar="-1" Cut="0.0000000000000000e+00" cType="1" res="1.9802914466708899e-03" rms="4.8001831769943237e-01" purity="6.3122439384460449e-01" nType="-99"/>
        </Node>
        <Node pos="r" depth="1" NCoef="0" IVar="0" Cut="2.5533390045166016e+00" cType="1" res="-1.6664150357246399e-01" rms="4.6645230054855347e-01" purity="3.2603937387466431e-01" nType="0">
          <Node pos="l" depth="2" NCoef="0" IVar="-1" Cut="0.0000000000000000e+00" cType="1" res="-1.1934911599382758e-03" rms="4.8648476600646973e-01" purity="3.9303129911422729e-01" nType="-99"/>
          <Node pos="r" depth="2" NCoef="0" IVar="-1" Cut="0.0000000000000000e+00" cType="1" res="-2.6617257390171289e-03" rms="4.0212237834930420e-01" purity="2.0347082614898682e-01" nType="-99"/>
        </Node>
      </Node>
    </BinaryTree>
    <BinaryTree type="DecisionTree" boostWeight="1.0000000000000000e+00" itree="16">
      <Node pos="s" depth="0" NCoef="0" IVar="2" Cut="9.7352159023284912e-01" cType="1" res="-1.6210207715630531e-02" rms="4.9567559361457825e-01" purity="4.8942908644676208e-01" nType="0">
        <Node pos="l" depth="1" NCoef="0" IVar="1" Cut="7.3066639900207520e+00" cType="1" res="9.8030492663383484e-02" rms="4.8394799232482910e-01" purity="6.1427795886993408e-01" nType="0">
          <Node pos="l" depth="2" NCoef="0" IVar="-1" Cut="0.0000000000000000e+00" cType="1" res="8.6128246039152145e-05" rms="4.9839755892753601e-01" purity="5.1650941371917725e-01" nType="-99"/>
          <Node pos="r" depth="2" NCoef="0" IVar="-1" Cut="0.0000000000000000e+00" cType="1" res="4.5851254835724831e-03" rms="4.3783375620841980e-01" purity="7.3949855566024780e-01" nType="-99"/>
        </Node>
        <Node pos="r" depth="1" NCoef="0" IVar="8" Cut="9.4598245620727539e-01" cType="1" res="-9.0126670897006989e-02" rms="4.8910102248191833e-01" purity="4.0864881873130798e-01" nType="0">
          <Node pos="l" depth="2" NCoef="0" IVar="-1" Cut="0.0000000000000000e+00" cType="1" res="-1.8209627596661448e-03" rms="4.6429163217544556e-01" purity="3.1691899895668030e-01" nType="-99"/>
          <Node pos="r" depth="2" NCoef="0" IVar="-1" Cut="0.0000000000000000e+00" cType="1" res="-3.8228099583648145e-04" rms="4.9725797772407532e-01" purity="4.7481179237365723e-01" nType="-99"/>
        </Node>
      </Node>
    </BinaryTree>
    <BinaryTree type="DecisionTree" boostWeight="1.0000000000000000e+00" itree="17">
      <Node pos="s" depth="0" NCoef="0" IVar="2" Cut="1.3300038576126099e+00" cType="1" res="-2.1514687687158585e-02" rms="4.9473178386688232e-01" purity="4.8284885287284851e-01" nType="0">
        <Node pos="l" depth="1" NCoef="0" IVar="8" Cut="9.4445526599884033e-01" cType="1" res="5.0017166882753372e-02" rms="4.9292820692062378e-01" purity="5.6006932258605957e-01" nType="0">
          <Node pos="l" depth="2" NCoef="0" IVar="-1" Cut="0.0000000000000000e+00" cType="1" res="-9.3518890207633376e-04" rms="4.9056312441825867e-01" purity="4.1555455327033997e-01" nType="-99"/>
          <Node pos="r" depth="2" NCoef="0" IVar="-1" Cut="0.0000000000000000e+00" cType="1" res="2.2883294150233269e-03" rms="4.7628960013389587e-01" purity="6.4778536558151245e-01" nType="-99"/>
        </Node>
        <Node pos="r" depth="1" NCoef="0" IVar="1" Cut="7.0482077598571777e+00" cType="1" res="-1.9223487377166748e-01" rms="4.5569029450416565e-01" purity="2.9855209589004517e-01" nType="0">
          <Node pos="l" depth="2" NCoef="0" IVar="-1" Cut="0.0000000000000000e+00" cType="1" res="-2.2897820454090834e-03" rms="4.0556252002716064e-01" purity="2.0939883589744568e-01" nType="-99"/>
          <Node pos="r" depth="2" NCoef="0" IVar="-1" Cut="0.0000000000000000e+00" cType="1" res="-7.2685227496549487e-04" rms="4.9627599120140076e-01" purity="4.3984878063201904e-01" nType="-99"/>
        </Node>
      </Node>
    </BinaryTree>
    <BinaryTree type="DecisionTree" boostWeight="1.0000000000000000e+00" itree="18">
      <Node pos="s" depth="0" NCoef="0" IVar="2" Cut="1.4830105304718018e+00" cType="1" res="-1.0603948030620813e-03" rms="4.9512663483619690e-01" purity="5.0437390804290771e-01" nType="0">
        <Node pos="l" depth="1" NCoef="0" IVar="1" Cut="7.0913038253784180e+00" cType="1" res="4.2224831879138947e-02" rms="4.9377372860908508e-01" purity="5.5120360851287842e-01" nType="0">
          <Node pos="l" depth="2" NCoef="0" IVar="-1" Cut="0.0000000000000000e+00" cType="1" res="-4.3375181849114597e-04" rms="4.9680244922637939e-01" purity="4.6590158343315125e-01" nType="-99"/>
          <Node pos="r" depth="2" NCoef="0" IVar="-1" Cut="0.0000000000000000e+00" cType="1" res="2.1382248960435390e-03" rms="4.7729426622390747e-01" purity="6.4045411348342896e-01" nType="-99"/>
        </Node>
        <Node pos="r" depth="1" NCoef="0" IVar="1" Cut="6.7585926055908203e+00" cType="1" res="-2.0739994943141937e-01" rms="4.4723650813102722e-01" purity="2.8113803267478943e-01" nType="0">
          <Node pos="l" depth="2" NCoef="0" IVar="-1" Cut="0.0000000000000000e+00" cType="1" res="-2.7575292624533176e-03" rms="3.8718634843826294e-01" purity="1.8468350172042847e-01" nType="-99"/>
          <Node pos="r" depth="2" NCoef="0" IVar="-1" Cut="0.0000000000000000e+00" cType="1" res="-1.2566056102514267e-03" rms="4.8510584235191345e-01" purity="3.8791921734809875e-01" nType="-99"/>
        </Node>
      </Node>
    </BinaryTree>
    <BinaryTree type="DecisionTree" boostWeight="1.0000000000000000e+00" itree="19">
      <Node pos="s" depth="0" NCoef="0" IVar="8" Cut="9.3151545524597168e-01" cType="1" res="-3.5534531343728304e-03" rms="4.9469351768493652e-01" purity="5.0156450271606445e-01" nType="0">
        <Node pos="l" depth="1" NCoef="0" IVar="2" Cut="9.5708030462265015e-01" cType="1" res="-1.7713232338428497e-01" rms="4.6195408701896667e-01" purity="3.1568735837936401e-01" nType="0">
          <Node pos="l" depth="2" NCoef="0" IVar="-1" Cut="0.0000000000000000e+00" cType="1" res="-2.2878544405102730e-04" rms="4.9910116195678711e-01" purity="4.8631861805915833e-01" nType="-99"/>
          <Node pos="r" depth="2" NCoef="0" IVar="-1" Cut="0.0000000000000000e+00" cType="1" res="-2.3095228243619204e-03" rms="4.2769375443458557e-01" purity="2.4304176867008209e-01" nType="-99"/>
        </Node>
        <Node pos="r" depth="1" NCoef="0" IVar="0" Cut="2.2807984352111816e+00" cType="1" res="4.9512691795825958e-02" rms="4.9220892786979675e-01" purity="5.5839049816131592e-01" nType="0">
          <Node pos="l" depth="2" NCoef="0" IVar="-1" Cut="0.0000000000000000e+00" cType="1" res="2.1118561271578074e-03" rms="4.7826471924781799e-01" purity="6.3771808147430420e-01" nType="-99"/>
          <Node pos="r" depth="2" NCoef="0" IVar="-1" Cut="0.0000000000000000e+00" cType="1" res="-1.1724722571671009e-03" rms="4.8800170421600342e-01" purity="3.9753443002700806e-01" nType="-99"/>
        </Node>
      </Node>
    </BinaryTree>
    <BinaryTree type="DecisionTree" boostWeight="1.0000000000000000e+00" itree="20">
      <Node pos="s" depth="0" NCoef="0" IVar="2" Cut="1.3019988536834717e+00" cType="1" res="-1.9565794616937637e-02" rms="4.9372270703315735e-01" purity="4.8534291982650757e-01" nType="0">
        <Node pos="l" depth="1" NCoef="0" IVar="8" Cut="9.3524044752120972e-01" cType="1" res="6.3554339110851288e-02" rms="4.9025022983551025e-01" purity="5.7583397626876831e-01" nType="0">
          <Node pos="l" depth="2" NCoef="0" IVar="-1" Cut="0.0000000000000000e+00" cType="1" res="-1.2935223057866096e-03" rms="4.8195305466651917e-01" purity="3.7478145956993103e-01" nType="-99"/>
          <Node pos="r" depth="2" NCoef="0" IVar="-1" Cut="0.0000000000000000e+00" cType="1" res="2.3218507412821054e-03" rms="4.7548535466194153e-01" purity="6.4879179000854492e-01" nType="-99"/>
        </Node>
        <Node pos="r" depth="1" NCoef="0" IVar="0" Cut="2.3716590404510498e+00" cType="1" res="-1.8978950381278992e-01" rms="4.5566919445991516e-01" purity="3.0002418160438538e-01" nType="0">
          <Node pos="l" depth="2" NCoef="0" IVar="-1" Cut="0.0000000000000000e+00" cType="1" res="-1.1460258392617106e-03" rms="4.8747432231903076e-01" purity="3.9639690518379211e-01" nType="-99"/>
          <Node pos="r" depth="2" NCoef="0" IVar="-1" Cut="0.0000000000000000e+00" cType="1" res="-2.5043422356247902e-03" rms="4.1292858123779297e-01" purity="2.1965245902538300e-01" nType="-99"/>
        </Node>
      </Node>
    </BinaryTree>
    <BinaryTree type="DecisionTree" boostWeight="1.0000000000000000e+00" itree="21">
      <Node pos="s" depth="0" NCoef="0" IVar="1" Cut="5.9787526130676270e+00" cType="1" res="-1.1035799980163574e-02" rms="4.9378064274787903e-01" purity="4.9477934837341309e-01" nType="0">
        <Node pos="l" depth="1" NCoef="0" IVar="0" Cut="2.3897044658660889e+00" cType="1" res="-2.0946823060512543e-01" rms="4.4718581438064575e-01" purity="2.8125959634780884e-01" nType="0">
          <Node pos="l" depth="2" NCoef="0" IVar="-1" Cut="0.0000000000000000e+00" cType="1" res="-1.4973364304751158e-03" rms="4.7705489397048950e-01" purity="3.5365170240402222e-01" nType="-99"/>
          <Node pos="r" depth="2" NCoef="0" IVar="-1" Cut="0.0000000000000000e+00" cType="1" res="-2.7209084946662188e-03" rms="3.5140457749366760e-01" purity="1.4522595703601837e-01" nType="-99"/>
        </Node>
        <Node pos="r" depth="1" NCoef="0" IVar="0" Cut="2.4204583168029785e+00" cType="1" res="5.1342204213142395e-02" rms="4.9125659465789795e-01" purity="5.6190007925033569e-01" nType="0">
          <Node pos="l" depth="2" NCoef="0" IVar="-1" Cut="0.0000000000000000e+00" cType="1" res="1.6670053591951728e-03" rms="4.8246636986732483e-01" purity="6.1977839469909668e-01" nType="-99"/>
          <Node pos="r" depth="2" NCoef="0" IVar="-1" Cut="0.0000000000000000e+00" cType="1" res="-1.7029290320351720e-03" rms="4.6861135959625244e-01" purity="3.2923796772956848e-01" nType="-99"/>
        </Node>
      </Node>
    </BinaryTree>
    <BinaryTree type="DecisionTree" boostWeight="1.0000000000000000e+00" itree="22">
      <Node pos="s" depth="0" NCoef="0" IVar="2" Cut="1.3125559091567993e+00" cType="1" res="-1.6037706285715103e-02" rms="4.9430721998214722e-01" purity="4.8999744653701782e-01" nType="0">
        <Node pos="l" depth="1" NCoef="0" IVar="5" Cut="1.0608050823211670e+00" cType="1" res="5.5275879800319672e-02" rms="4.9223411083221436e-01" purity="5.6866002082824707e-01" nType="0">
          <Node pos="l" depth="2" NCoef="0" IVar="-1" Cut="0.0000000000000000e+00" cType="1" res="1.8142329063266516e-03" rms="4.8106181621551514e-01" purity="6.2722706794738770e-01" nType="-99"/>
          <Node pos="r" depth="2" NCoef="0" IVar="-1" Cut="0.0000000000000000e+00" cType="1" res="-5.4839218501001596e-04" rms="4.9602502584457397e-01" purity="4.6530869603157043e-01" nType="-99"/>
        </Node>
        <Node pos="r" depth="1" NCoef="0" IVar="8" Cut="9.3161457777023315e-01" cType="1" res="-1.8607476353645325e-01" rms="4.5626479387283325e-01" purity="3.0243790149688721e-01" nType="0">
          <Node pos="l" depth="2" NCoef="0" IVar="-1" Cut="0.0000000000000000e+00" cType="1" res="-2.8930415865033865e-03" rms="3.1952372193336487e-01" purity="1.1623690277338028e-01" nType="-99"/>
          <Node pos="r" depth="2" NCoef="0" IVar="-1" Cut="0.0000000000000000e+00" cType="1" res="-1.2324916897341609e-03" rms="4.8362359404563904e-01" purity="3.7999433279037476e-01" nType="-99"/>
        </Node>
      </Node>
    </BinaryTree>
    <BinaryTree type="DecisionTree" boostWeight="1.0000000000000000e+00" itree="23">
      <Node pos="s" depth="0" NCoef="0" IVar="1" Cut="6.7397818565368652e+00" cType="1" res="-8.9913457632064819e-03" rms="4.9276021122932434e-01" purity="4.9604117870330811e-01" nType="0">
        <Node pos="l" depth="1" NCoef="0" IVar="2" Cut="9.3856447935104370e-01" cType="1" res="-1.3083338737487793e-01" rms="4.7641026973724365e-01" purity="3.6264786124229431e-01" nType="0">
          <Node pos="l" depth="2" NCoef="0" IVar="-1" Cut="0.0000000000000000e+00" cType="1" res="9.4237970188260078e-04" rms="4.9375075101852417e-01" purity="5.7485914230346680e-01" nType="-99"/>
          <Node pos="r" depth="2" NCoef="0" IVar="-1" Cut="0.0000000000000000e+00" cType="1" res="-2.0984921138733625e-03" rms="4.4640284776687622e-01" purity="2.7987313270568848e-01" nType="-99"/>
        </Node>
        <Node pos="r" depth="1" NCoef="0" IVar="5" Cut="8.3572685718536377e-01" cType="1" res="9.8600871860980988e-02" rms="4.8178824782371521e-01" purity="6.1383372545242310e-01" nType="0">
          <Node pos="l" depth="2" NCoef="0" IVar="-1" Cut="0.0000000000000000e+00" cType="1" res="5.6340070441365242e-03" rms="4.1977548599243164e-01" purity="7.6648736000061035e-01" nType="-99"/>
          <Node pos="r" depth="2" NCoef="0" IVar="-1" Cut="0.0000000000000000e+00" cType="1" res="-3.5822447443933925e-06" rms="4.9588960409164429e-01" purity="5.1019555330276489e-01" nType="-99"/>
        </Node>
      </Node>
    </BinaryTree>
    <BinaryTree type="DecisionTree" boostWeight="1.0000000000000000e+00" itree="24">
      <Node pos="s" depth="0" NCoef="0" IVar="0" Cut="2.4913163185119629e+00" cType="1" res="1.2705659493803978e-02" rms="4.9333149194717407e-01" purity="5.2009254693984985e-01" nType="0">
        <Node pos="l" depth="1" NCoef="0" IVar="1" Cut="6.1752400398254395e+00" cType="1" res="5.8458369225263596e-02" rms="4.9050837755203247e-01" purity="5.7039934396743774e-01" nType="0">
          <Node pos="l" depth="2" NCoef="0" IVar="-1" Cut="0.0000000000000000e+00" cType="1" res="-9.7184430342167616e-04" rms="4.9061757326126099e-01" purity="4.0973928570747375e-01" nType="-99"/>
          <Node pos="r" depth="2" NCoef="0" IVar="-1" Cut="0.0000000000000000e+00" cType="1" res="1.8653421429917216e-03" rms="4.7896933555603027e-01" purity="6.3144797086715698e-01" nType="-99"/>
        </Node>
        <Node pos="r" depth="1" NCoef="0" IVar="1" Cut="6.2819395065307617e+00" cType="1" res="-2.1528287231922150e-01" rms="4.4136887788772583e-01" purity="2.6941078901290894e-01" nType="0">
          <Node pos="l" depth="2" NCoef="0" IVar="-1" Cut="0.0000000000000000e+00" cType="1" res="-2.7364294510334730e-03" rms="3.8675537705421448e-01" purity="1.8529367446899414e-01" nType="-99"/>
          <Node pos="r" depth="2" NCoef="0" IVar="-1" Cut="0.0000000000000000e+00" cType="1" res="-1.8496330594643950e-03" rms="4.6890768408775330e-01" purity="3.3011981844902039e-01" nType="-99"/>
        </Node>
      </Node>
    </BinaryTree>
    <BinaryTree type="DecisionTree" boostWeight="1.0000000000000000e+00" itree="25">
      <Node pos="s" depth="0" NCoef="0" IVar="8" Cut="9.4170618057250977e-01" cType="1" res="5.4931482300162315e-03" rms="4.9358534812927246e-01" purity="5.1254874467849731e-01" nType="0">
        <Node pos="l" depth="1" NCoef="0" IVar="0" Cut="2.3813645839691162e+00" cType="1" res="-1.3165783882141113e-01" rms="4.7697523236274719e-01" purity="3.6072531342506409e-01" nType="0">
          <Node pos="l" depth="2" NCoef="0" IVar="-1" Cut="0.0000000000000000e+00" cType="1" res="-8.8143494212999940e-04" rms="4.9170109629631042e-01" purity="4.2062383890151978e-01" nType="-99"/>
          <Node pos="r" depth="2" NCoef="0" IVar="-1" Cut="0.0000000000000000e+00" cType="1" res="-2.5573172606527805e-03" rms="4.0773046016693115e-01" purity="2.1129821240901947e-01" nType="-99"/>
        </Node>
        <Node pos="r" depth="1" NCoef="0" IVar="5" Cut="8.2492643594741821e-01" cType="1" res="8.4167346358299255e-02" rms="4.8568943142890930e-01" purity="5.9963947534561157e-01" nType="0">
          <Node pos="l" depth="2" NCoef="0" IVar="-1" Cut="0.0000000000000000e+00" cType="1" res="3.4182544331997633e-03" rms="4.5305857062339783e-01" purity="7.0322394371032715e-01" nType="-99"/>
          <Node pos="r" depth="2" NCoef="0" IVar="-1" Cut="0.0000000000000000e+00" cType="1" res="1.5546867507509887e-04" rms="4.9678117036819458e-01" purity="5.2099686861038208e-01" nType="-99"/>
        </Node>
      </Node>
    </BinaryTree>
    <BinaryTree type="DecisionTree" boostWeight="1.0000000000000000e+00" itree="26">
      <Node pos="s" depth="0" NCoef="0" IVar="2" Cut="9.6786618232727051e-01" cType="1" res="-9.3553503975272179e-03" rms="4.9306061863899231e-01" purity="4.9747738242149353e-01" nType="0">
        <Node pos="l" depth="1" NCoef="0" IVar="8" Cut="9.2683464288711548e-01" cType="1" res="1.2475361675024033e-01" rms="4.7429475188255310e-01" purity="6.4768630266189575e-01" nType="0">
          <Node pos="l" depth="2" NCoef="0" IVar="-1" Cut="0.0000000000000000e+00" cType="1" res="-9.0857513714581728e-04" rms="4.9347886443138123e-01" purity="4.2087051272392273e-01" nType="-99"/>
          <Node pos="r" depth="2" NCoef="0" IVar="-1" Cut="0.0000000000000000e+00" cType="1" res="3.0027066823095083e-03" rms="4.6113511919975281e-01" purity="6.8821239471435547e-01" nType="-99"/>
        </Node>
        <Node pos="r" depth="1" NCoef="0" IVar="1" Cut="5.9847373962402344e+00" cType="1" res="-8.9297033846378326e-02" rms="4.8663979768753052e-01" purity="4.0793859958648682e-01" nType="0">
          <Node pos="l" depth="2" NCoef="0" IVar="-1" Cut="0.0000000000000000e+00" cType="1" res="-2.3611749056726694e-03" rms="4.1730552911758423e-01" purity="2.2600160539150238e-01" nType="-99"/>
          <Node pos="r" depth="2" NCoef="0" IVar="-1" Cut="0.0000000000000000e+00" cType="1" res="-3.6164696211926639e-04" rms="4.9569016695022583e-01" purity="4.7465676069259644e-01" nType="-99"/>
        </Node>
      </Node>
    </BinaryTree>
    <BinaryTree type="DecisionTree" boostWeight="1.0000000000000000e+00" itree="27">
      <Node pos="s" depth="0" NCoef="0" IVar="0" Cut="2.1835322380065918e+00" cType="1" res="1.6836274880915880e-03" rms="4.9240344762802124e-01" purity="5.0850129127502441e-01" nType="0">
        <Node pos="l" depth="1" NCoef="0" IVar="8" Cut="9.4114321470260620e-01" cType="1" res="1.0986534506082535e-01" rms="4.7848325967788696e-01" purity="6.2789857387542725e-01" nType="0">
          <Node pos="l" depth="2" NCoef="0" IVar="-1" Cut="0.0000000000000000e+00" cType="1" res="-3.0992380925454199e-04" rms="4.9812588095664978e-01" purity="4.7437226772308350e-01" nType="-99"/>
          <Node pos="r" depth="2" NCoef="0" IVar="-1" Cut="0.0000000000000000e+00" cType="1" res="3.6594888661056757e-03" rms="4.5152029395103455e-01" purity="7.0876109600067139e-01" nType="-99"/>
        </Node>
        <Node pos="r" depth="1" NCoef="0" IVar="2" Cut="1.3525828123092651e+00" cType="1" res="-1.2721753120422363e-01" rms="4.7749787569046021e-01" purity="3.6623653769493103e-01" nType="0">
          <Node pos="l" depth="2" NCoef="0" IVar="-1" Cut="0.0000000000000000e+00" cType="1" res="-6.4629636472091079e-04" rms="4.9501577019691467e-01" purity="4.5106288790702820e-01" nType="-99"/>
          <Node pos="r" depth="2" NCoef="0" IVar="-1" Cut="0.0000000000000000e+00" cType="1" res="-2.2233771160244942e-03" rms="4.3524983525276184e-01" purity="2.5661492347717285e-01" nType="-99"/>
        </Node>
      </Node>
    </BinaryTree>
    <BinaryTree type="DecisionTree" boostWeight="1.0000000000000000e+00" itree="28">
      <Node pos="s" depth="0" NCoef="0" IVar="2" Cut="1.0949037075042725e+00" cType="1" res="-3.1041142065078020e-03" rms="4.9225738644599915e-01" purity="5.0427544116973877e-01" nType="0">
        <Node pos="l" depth="1" NCoef="0" IVar="8" Cut="9.3223816156387329e-01" cType="1" res="1.0648669302463531e-01" rms="4.7929298877716064e-01" purity="6.2868046760559082e-01" nType="0">
          <Node pos="l" depth="2" NCoef="0" IVar="-1" Cut="0.0000000000000000e+00" cType="1" res="-1.1987502221018076e-03" rms="4.8826959729194641e-01" purity="3.9321547746658325e-01" nType="-99"/>
          <Node pos="r" depth="2" NCoef="0" IVar="-1" Cut="0.0000000000000000e+00" cType="1" res="2.7392222546041012e-03" rms="4.6229210495948792e-01" purity="6.8645757436752319e-01" nType="-99"/>
        </Node>
        <Node pos="r" depth="1" NCoef="0" IVar="1" Cut="6.5814571380615234e+00" cType="1" res="-1.1189150810241699e-01" rms="4.8069092631340027e-01" purity="3.8078239560127258e-01" nType="0">
          <Node pos="l" depth="2" NCoef="0" IVar="-1" Cut="0.0000000000000000e+00" cType="1" res="-1.9682117272168398e-03" rms="4.3908366560935974e-01" purity="2.6495385169982910e-01" nType="-99"/>
          <Node pos="r" depth="2" NCoef="0" IVar="-1" Cut="0.0000000000000000e+00" cType="1" res="-2.6997440727427602e-04" rms="4.9670174717903137e-01" purity="4.8202973604202271e-01" nType="-99"/>
        </Node>
      </Node>
    </BinaryTree>
    <BinaryTree type="DecisionTree" boostWeight="1.0000000000000000e+00" itree="29">
      <Node pos="s" depth="0" NCoef="0" IVar="2" Cut="9.8456567525863647e-01" cType="1" res="-2.0633650943636894e-02" rms="4.9206900596618652e-01" purity="4.8693457245826721e-01" nType="0">
        <Node pos="l" depth="1" NCoef="0" IVar="1" Cut="6.8340377807617188e+00" cType="1" res="1.0563145577907562e-01" rms="4.7846844792366028e-01" purity="6.3192617893218994e-01" nType="0">
          <Node pos="l" depth="2" NCoef="0" IVar="-1" Cut="0.0000000000000000e+00" cType="1" res="-9.4103619630914181e-05" rms="4.9932107329368591e-01" purity="5.0457060337066650e-01" nType="-99"/>
          <Node pos="r" depth="2" NCoef="0" IVar="-1" Cut="0.0000000000000000e+00" cType="1" res="4.0194946341216564e-03" rms="4.4094985723495483e-01" purity="7.3386770486831665e-01" nType="-99"/>
        </Node>
        <Node pos="r" depth="1" NCoef="0" IVar="8" Cut="9.4955050945281982e-01" cType="1" res="-9.8881363868713379e-02" rms="4.8405510187149048e-01" purity="3.9708185195922852e-01" nType="0">
          <Node pos="l" depth="2" NCoef="0" IVar="-1" Cut="0.0000000000000000e+00" cType="1" res="-1.8520238809287548e-03" rms="4.5352470874786377e-01" purity="2.9447522759437561e-01" nType="-99"/>
          <Node pos="r" depth="2" NCoef="0" IVar="-1" Cut="0.0000000000000000e+00" cType="1" res="-8.0156263720709831e-05" rms="4.9600952863693237e-01" purity="5.0105768442153931e-01" nType="-99"/>
        </Node>
      </Node>
    </BinaryTree>
    <BinaryTree type="DecisionTree" boostWeight="1.0000000000000000e+00" itree="30">
      <Node pos="s" depth="0" NCoef="0" IVar="0" Cut="2.1255638599395752e+00" cType="1" res="-2.0675475243479013e-03" rms="4.9166232347488403e-01" purity="5.0608384609222412e-01" nType="0">
        <Node pos="l" depth="1" NCoef="0" IVar="1" Cut="8.2561550140380859e+00" cType="1" res="1.1199834197759628e-01" rms="4.7683987021446228e-01" purity="6.3354867696762085e-01" nType="0">
          <Node pos="l" depth="2" NCoef="0" IVar="-1" Cut="0.0000000000000000e+00" cType="1" res="9.3534245388582349e-04" rms="4.8937129974365234e-01" purity="5.8062440156936646e-01" nType="-99"/>
          <Node pos="r" depth="2" NCoef="0" IVar="-1" Cut="0.0000000000000000e+00" cType="1" res="6.9655282422900200e-03" rms="3.8599747419357300e-01" purity="8.1714147329330444e-01" nType="-99"/>
        </Node>
        <Node pos="r" depth="1" NCoef="0" IVar="1" Cut="6.0973653793334961e+00" cType="1" res="-1.0621690750122070e-01" rms="4.8178046941757202e-01" purity="3.8970053195953369e-01" nType="0">
          <Node pos="l" depth="2" NCoef="0" IVar="-1" Cut="0.0000000000000000e+00" cType="1" res="-2.3326727095991373e-03" rms="4.1719052195549011e-01" purity="2.2855961322784424e-01" nType="-99"/>
          <Node pos="r" depth="2" NCoef="0" IVar="-1" Cut="0.0000000000000000e+00" cType="1" res="-5.5605522356927395e-04" rms="4.9420905113220215e-01" purity="4.5876136422157288e-01" nType="-99"/>
        </Node>
      </Node>
    </BinaryTree>
    <BinaryTree type="DecisionTree" boostWeight="1.0000000000000000e+00" itree="31">
      <Node pos="s" depth="0" NCoef="0" IVar="2" Cut="1.2251015901565552e+00" cType="1" res="-1.4153886586427689e-02" rms="4.9127829074859619e-01" purity="4.9360588192939758e-01" nType="0">
        <Node pos="l" depth="1" NCoef="0" IVar="1" Cut="6.6407055854797363e+00" cType="1" res="8.5549913346767426e-02" rms="4.8443177342414856e-01" purity="6.0610133409500122e-01" nType="0">
          <Node pos="l" depth="2" NCoef="0" IVar="-1" Cut="0.0000000000000000e+00" cType="1" res="-2.5168768479488790e-04" rms="4.9822890758514404e-01" purity="4.8207837343215942e-01" nType="-99"/>
          <Node pos="r" depth="2" NCoef="0" IVar="-1" Cut="0.0000000000000000e+00" cType="1" res="2.8011575341224670e-03" rms="4.6418488025665283e-01" purity="6.8151515722274780e-01" nType="-99"/>
        </Node>
        <Node pos="r" depth="1" NCoef="0" IVar="0" Cut="2.3917984962463379e+00" cType="1" res="-1.7320974171161652e-01" rms="4.5918834209442139e-01" purity="3.1414362788200378e-01" nType="0">
          <Node pos="l" depth="2" NCoef="0" IVar="-1" Cut="0.0000000000000000e+00" cType="1" res="-8.5430720355361700e-04" rms="4.9079716205596924e-01" purity="4.2495530843734741e-01" nType="-99"/>
          <Node pos="r" depth="2" NCoef="0" IVar="-1" Cut="0.0000000000000000e+00" cType="1" res="-2.6286570355296135e-03" rms="4.0227553248405457e-01" purity="2.0562276244163513e-01" nType="-99"/>
        </Node>
      </Node>
    </BinaryTree>
    <BinaryTree type="DecisionTree" boostWeight="1.0000000000000000e+00" itree="32">
      <Node pos="s" depth="0" NCoef="0" IVar="0" Cut="2.1430730819702148e+00" cType="1" res="8.1831542775034904e-03" rms="4.9253585934638977e-01" purity="5.1829105615615845e-01" nType="0">
        <Node pos="l" depth="1" NCoef="0" IVar="7" Cut="3.5161849856376648e-01" cType="1" res="9.2362202703952789e-02" rms="4.8260885477066040e-01" purity="6.1604291200637817e-01" nType="0">
          <Node pos="l" depth="2" NCoef="0" IVar="-1" Cut="0.0000000000000000e+00" cType="1" res="-9.2554715229198337e-04" rms="4.9119848012924194e-01" purity="4.3463522195816040e-01" nType="-99"/>
          <Node pos="r" depth="2" NCoef="0" IVar="-1" Cut="0.0000000000000000e+00" cType="1" res="2.0833204034715891e-03" rms="4.7491383552551270e-01" purity="6.4607363939285278e-01" nType="-99"/>
        </Node>
        <Node pos="r" depth="1" NCoef="0" IVar="1" Cut="7.9278278350830078e+00" cType="1" res="-7.8822031617164612e-02" rms="4.8754784464836121e-01" purity="4.1725739836692810e-01" nType="0">
          <Node pos="l" depth="2" NCoef="0" IVar="-1" Cut="0.0000000000000000e+00" cType="1" res="-1.5609443653374910e-03" rms="4.7217756509780884e-01" purity="3.4922990202903748e-01" nType="-99"/>
          <Node pos="r" depth="2" NCoef="0" IVar="-1" Cut="0.0000000000000000e+00" cType="1" res="2.4847658351063728e-03" rms="4.7634050250053406e-01" purity="6.4589989185333252e-01" nType="-99"/>
        </Node>
      </Node>
    </BinaryTree>
    <BinaryTree type="DecisionTree" boostWeight="1.0000000000000000e+00" itree="33">
      <Node pos="s" depth="0" NCoef="0" IVar="2" Cut="1.0543889999389648e+00" cType="1" res="-1.4721248298883438e-02" rms="4.9182516336441040e-01" purity="4.9389049410820007e-01" nType="0">
        <Node pos="l" depth="1" NCoef="0" IVar="8" Cut="9.5276826620101929e-01" cType="1" res="9.2882268130779266e-02" rms="4.8061072826385498e-01" purity="6.1943876743316650e-01" nType="0">
          <Node pos="l" depth="2" NCoef="0" IVar="-1" Cut="0.0000000000000000e+00" cType="1" res="1.4749003457836807e-04" rms="4.9694538116455078e-01" purity="5.2223849296569824e-01" nType="-99"/>
          <Node pos="r" depth="2" NCoef="0" IVar="-1" Cut="0.0000000000000000e+00" cType="1" res="3.4487657248973846e-03" rms="4.4961169362068176e-01" purity="7.1553033590316772e-01" nType="-99"/>
        </Node>
        <Node pos="r" depth="1" NCoef="0" IVar="5" Cut="1.9704272747039795e+00" cType="1" res="-1.0265900194644928e-01" rms="4.8333090543746948e-01" purity="3.9128759503364563e-01" nType="0">
          <Node pos="l" depth="2" NCoef="0" IVar="-1" Cut="0.0000000000000000e+00" cType="1" res="-7.1145006222650409e-04" rms="4.9149462580680847e-01" purity="4.3797227740287781e-01" nType="-99"/>
          <Node pos="r" depth="2" NCoef="0" IVar="-1" Cut="0.0000000000000000e+00" cType="1" res="-2.3225052282214165e-03" rms="4.3062302470207214e-01" purity="2.4930326640605927e-01" nType="-99"/>
        </Node>
      </Node>
    </BinaryTree>
    <BinaryTree type="DecisionTree" boostWeight="1.0000000000000000e+00" itree="34">
      <Node pos="s" depth="0" NCoef="0" IVar="5" Cut="1.2011225223541260e+00" cType="1" res="-2.0017566159367561e-02" rms="4.9132147431373596e-01" purity="4.8900634050369263e-01" nType="0">
        <Node pos="l" depth="1" NCoef="0" IVar="8" Cut="9.4578593969345093e-01" cType="1" res="6.2767721712589264e-02" rms="4.8705607652664185e-01" purity="5.8018839359283447e-01" nType="0">
          <Node pos="l" depth="2" NCoef="0" IVar="-1" Cut="0.0000000000000000e+00" cType="1" res="-4.0705056744627655e-04" rms="4.9523147940635681e-01" purity="4.6540987491607666e-01" nType="-99"/>
          <Node pos="r" depth="2" NCoef="0" IVar="-1" Cut="0.0000000000000000e+00" cType="1" res="2.2224290296435356e-03" rms="4.7064927220344543e-01" purity="6.5768182277679443e-01" nType="-99"/>
        </Node>
        <Node pos="r" depth="1" NCoef="0" IVar="1" Cut="7.3845806121826172e+00" cType="1" res="-1.3627479970455170e-01" rms="4.7341009974479675e-01" purity="3.6095738410949707e-01" nType="0">
          <Node pos="l" depth="2" NCoef="0" IVar="-1" Cut="0.0000000000000000e+00" cType="1" res="-2.1341536194086075e-03" rms="4.4226312637329102e-01" purity="2.7371287345886230e-01" nType="-99"/>
          <Node pos="r" depth="2" NCoef="0" IVar="-1" Cut="0.0000000000000000e+00" cType="1" res="4.9328763270750642e-04" rms="4.9329951405525208e-01" purity="5.4648816585540771e-01" nType="-99"/>
        </Node>
      </Node>
    </BinaryTree>
    <BinaryTree type="DecisionTree" boostWeight="1.0000000000000000e+00" itree="35">
      <Node pos="s" depth="0" NCoef="0" IVar="2" Cut="1.2511711120605469e+00" cType="1" res="-1.9335266202688217e-02" rms="4.9092760682106018e-01" purity="4.9050688743591309e-01" nType="0">
        <Node pos="l" depth="1" NCoef="0" IVar="1" Cut="6.6681032180786133e+00" cType="1" res="5.1782645285129547e-02" rms="4.8886761069297791e-01" purity="5.7329267263412476e-01" nType="0">
          <Node pos="l" depth="2" NCoef="0" IVar="-1" Cut="0.0000000000000000e+00" cType="1" res="-7.5824133818969131e-04" rms="4.9370631575584412e-01" purity="4.3786978721618652e-01" nType="-99"/>
          <Node pos="r" depth="2" NCoef="0" IVar="-1" Cut="0.0000000000000000e+00" cType="1" res="2.2629119921475649e-03" rms="4.7027260065078735e-01" purity="6.6400158405303955e-01" nType="-99"/>
        </Node>
        <Node pos="r" depth="1" NCoef="0" IVar="1" Cut="6.7022509574890137e+00" cType="1" res="-1.6064758598804474e-01" rms="4.6368250250816345e-01" purity="3.2601028680801392e-01" nType="0">
          <Node pos="l" depth="2" NCoef="0" IVar="-1" Cut="0.0000000000000000e+00" cType="1" res="-2.4319682270288467e-03" rms="4.1257292032241821e-01" purity="2.2097797691822052e-01" nType="-99"/>
          <Node pos="r" depth="2" NCoef="0" IVar="-1" Cut="0.0000000000000000e+00" cType="1" res="-9.5906906062737107e-04" rms="4.9026751518249512e-01" purity="4.2105972766876221e-01" nType="-99"/>
        </Node>
      </Node>
    </BinaryTree>
    <BinaryTree type="DecisionTree" boostWeight="1.0000000000000000e+00" itree="36">
      <Node pos="s" depth="0" NCoef="0" IVar="0" Cut="2.2807984352111816e+00" cType="1" res="-3.0708365142345428e-02" rms="4.9010983109474182e-01" purity="4.7759944200515747e-01" nType="0">
        <Node pos="l" depth="1" NCoef="0" IVar="2" Cut="6.8598061800003052e-01" cType="1" res="5.1667489111423492e-02" rms="4.8868945240974426e-01" purity="5.7258236408233643e-01" nType="0">
          <Node pos="l" depth="2" NCoef="0" IVar="-1" Cut="0.0000000000000000e+00" cType="1" res="5.5485148914158344e-03" rms="4.0283602476119995e-01" purity="7.8561252355575562e-01" nType="-99"/>
          <Node pos="r" depth="2" NCoef="0" IVar="-1" Cut="0.0000000000000000e+00" cType="1" res="2.2341737349051982e-04" rms="4.9429193139076233e-01" purity="5.3446328639984131e-01" nType="-99"/>
        </Node>
        <Node pos="r" depth="1" NCoef="0" IVar="1" Cut="6.4612236022949219e+00" cType="1" res="-1.8237444758415222e-01" rms="4.5527034997940063e-01" purity="3.0272191762924194e-01" nType="0">
          <Node pos="l" depth="2" NCoef="0" IVar="-1" Cut="0.0000000000000000e+00" cType="1" res="-2.3413170129060745e-03" rms="4.0327054262161255e-01" purity="2.0504721999168396e-01" nType="-99"/>
          <Node pos="r" depth="2" NCoef="0" IVar="-1" Cut="0.0000000000000000e+00" cType="1" res="-1.3727353652939200e-03" rms="4.8026594519615173e-01" purity="3.7474969029426575e-01" nType="-99"/>
        </Node>
      </Node>
    </BinaryTree>
    <BinaryTree type="DecisionTree" boostWeight="1.0000000000000000e+00" itree="37">
      <Node pos="s" depth="0" NCoef="0" IVar="0" Cut="2.1513643264770508e+00" cType="1" res="-2.4747686460614204e-02" rms="4.8995381593704224e-01" purity="4.8319619894027710e-01" nType="0">
        <Node pos="l" depth="1" NCoef="0" IVar="4" Cut="6.0405952453613281e+01" cType="1" res="8.7578490376472473e-02" rms="4.8174837231636047e-01" purity="6.1311602592468262e-01" nType="0">
          <Node pos="l" depth="2" NCoef="0" IVar="-1" Cut="0.0000000000000000e+00" cType="1" res="-4.4180360418977216e-05" rms="4.9283725023269653e-01" purity="5.1992082595825195e-01" nType="-99"/>
          <Node pos="r" depth="2" NCoef="0" IVar="-1" Cut="0.0000000000000000e+00" cType="1" res="3.1514363363385201e-03" rms="4.5887050032615662e-01" purity="6.9063824415206909e-01" nType="-99"/>
        </Node>
        <Node pos="r" depth="1" NCoef="0" IVar="0" Cut="2.4822664260864258e+00" cType="1" res="-1.2993772327899933e-01" rms="4.7396296262741089e-01" purity="3.6153024435043335e-01" nType="0">
          <Node pos="l" depth="2" NCoef="0" IVar="-1" Cut="0.0000000000000000e+00" cType="1" res="-7.5499882223084569e-04" rms="4.9156770110130310e-01" purity="4.3730688095092773e-01" nType="-99"/>
          <Node pos="r" depth="2" NCoef="0" IVar="-1" Cut="0.0000000000000000e+00" cType="1" res="-2.3612023796886206e-03" rms="4.2059257626533508e-01" purity="2.3445828258991241e-01" nType="-99"/>
        </Node>
      </Node>
    </BinaryTree>
    <BinaryTree type="DecisionTree" boostWeight="1.0000000000000000e+00" itree="38">
      <Node pos="s" depth="0" NCoef="0" IVar="2" Cut="1.0583109855651855e+00" cType="1" res="-5.1853586919605732e-03" rms="4.8999598622322083e-01" purity="5.0278782844543457e-01" nType="0">
        <Node pos="l" depth="1" NCoef="0" IVar="6" Cut="6.6600993275642395e-02" cType="1" res="1.1202273517847061e-01" rms="4.7472560405731201e-01" purity="6.4176559448242188e-01" nType="0">
          <Node pos="l" depth="2" NCoef="0" IVar="-1" Cut="0.0000000000000000e+00" cType="1" res="-5.4185761837288737e-04" rms="4.9550324678421021e-01" purity="4.8293340206146240e-01" nType="-99"/>
          <Node pos="r" depth="2" NCoef="0" IVar="-1" Cut="0.0000000000000000e+00" cType="1" res="3.3965928014367819e-03" rms="4.5043769478797913e-01" purity="7.0798170566558838e-01" nType="-99"/>
        </Node>
        <Node pos="r" depth="1" NCoef="0" IVar="1" Cut="6.1004505157470703e+00" cType="1" res="-9.7737021744251251e-02" rms="4.8199075460433960e-01" purity="3.9304617047309875e-01" nType="0">
          <Node pos="l" depth="2" NCoef="0" IVar="-1" Cut="0.0000000000000000e+00" cType="1" res="-2.2509887348860502e-03" rms="4.1335248947143555e-01" purity="2.2139404714107513e-01" nType="-99"/>
          <Node pos="r" depth="2" NCoef="0" IVar="-1" Cut="0.0000000000000000e+00" cType="1" res="-3.2948306761682034e-04" rms="4.9503335356712341e-01" purity="4.7503319382667542e-01" nType="-99"/>
        </Node>
      </Node>
    </BinaryTree>
    <BinaryTree type="DecisionTree" boostWeight="1.0000000000000000e+00" itree="39">
      <Node pos="s" depth="0" NCoef="0" IVar="0" Cut="2.4935514926910400e+00" cType="1" res="1.2922523543238640e-02" rms="4.8978260159492493e-01" purity="5.2192348241806030e-01" nType="0">
        <Node pos="l" depth="1" NCoef="0" IVar="5" Cut="1.4450435638427734e+00" cType="1" res="6.2689878046512604e-02" rms="4.8711383342742920e-01" purity="5.7975041866302490e-01" nType="0">
          <Node pos="l" depth="2" NCoef="0" IVar="-1" Cut="0.0000000000000000e+00" cType="1" res="1.7972448840737343e-03" rms="4.7725284099578857e-01" purity="6.3083511590957642e-01" nType="-99"/>
          <Node pos="r" depth="2" NCoef="0" IVar="-1" Cut="0.0000000000000000e+00" cType="1" res="-8.6422619642689824e-04" rms="4.9034398794174194e-01" purity="4.2939296364784241e-01" nType="-99"/>
        </Node>
        <Node pos="r" depth="1" NCoef="0" IVar="1" Cut="6.9549198150634766e+00" cType="1" res="-2.1207228302955627e-01" rms="4.3572166562080383e-01" purity="2.6049166917800903e-01" nType="0">
          <Node pos="l" depth="2" NCoef="0" IVar="-1" Cut="0.0000000000000000e+00" cType="1" res="-2.2892761044204235e-03" rms="3.9315253496170044e-01" purity="1.9355560839176178e-01" nType="-99"/>
          <Node pos="r" depth="2" NCoef="0" IVar="-1" Cut="0.0000000000000000e+00" cType="1" res="-1.5292196767404675e-03" rms="4.7957164049148560e-01" purity="3.6261278390884399e-01" nType="-99"/>
        </Node>
      </Node>
    </BinaryTree>
    <BinaryTree type="DecisionTree" boostWeight="1.0000000000000000e+00" itree="40">
      <Node pos="s" depth="0" NCoef="0" IVar="1" Cut="6.9225912094116211e+00" cType="1" res="-1.8117286264896393e-02" rms="4.8862865567207336e-01" purity="4.9054822325706482e-01" nType="0">
        <Node pos="l" depth="1" NCoef="0" IVar="2" Cut="1.1766080856323242e+00" cType="1" res="-1.2893564999103546e-01" rms="4.7493371367454529e-01" purity="3.6326855421066284e-01" nType="0">
          <Node pos="l" depth="2" NCoef="0" IVar="-1" Cut="0.0000000000000000e+00" cType="1" res="-3.1977862818166614e-04" rms="4.9655660986900330e-01" purity="4.8164409399032593e-01" nType="-99"/>
          <Node pos="r" depth="2" NCoef="0" IVar="-1" Cut="0.0000000000000000e+00" cType="1" res="-2.1986134815961123e-03" rms="4.2428678274154663e-01" purity="2.3859345912933350e-01" nType="-99"/>
        </Node>
        <Node pos="r" depth="1" NCoef="0" IVar="5" Cut="1.4157475233078003e+00" cType="1" res="1.0234609246253967e-01" rms="4.7459605336189270e-01" purity="6.2890565395355225e-01" nType="0">
          <Node pos="l" depth="2" NCoef="0" IVar="-1" Cut="0.0000000000000000e+00" cType="1" res="3.5507413558661938e-03" rms="4.4702956080436707e-01" purity="7.1443027257919312e-01" nType="-99"/>
          <Node pos="r" depth="2" NCoef="0" IVar="-1" Cut="0.0000000000000000e+00" cType="1" res="-7.0308719296008348e-04" rms="4.9157375097274780e-01" purity="4.4977101683616638e-01" nType="-99"/>
        </Node>
      </Node>
    </BinaryTree>
    <BinaryTree type="DecisionTree" boostWeight="1.0000000000000000e+00" itree="41">
      <Node pos="s" depth="0" NCoef="0" IVar="8" Cut="9.3263846635818481e-01" cType="1" res="-9.2244939878582954e-03" rms="4.9052056670188904e-01" purity="5.0090414285659790e-01" nType="0">
        <Node pos="l" depth="1" NCoef="0" IVar="2" Cut="1.2251015901565552e+00" cType="1" res="-1.6597217321395874e-01" rms="4.6307244896888733e-01" purity="3.1920176744461060e-01" nType="0">
          <Node pos="l" depth="2" NCoef="0" IVar="-1" Cut="0.0000000000000000e+00" cType="1" res="-1.2758695520460606e-03" rms="4.8455521464347839e-01" purity="3.7908861041069031e-01" nType="-99"/>
          <Node pos="r" depth="2" NCoef="0" IVar="-1" Cut="0.0000000000000000e+00" cType="1" res="-2.2038824390619993e-03" rms="4.1381430625915527e-01" purity="2.2175851464271545e-01" nType="-99"/>
        </Node>
        <Node pos="r" depth="1" NCoef="0" IVar="2" Cut="1.0415902137756348e+00" cType="1" res="4.4895380735397339e-02" rms="4.8809367418289185e-01" purity="5.6364011764526367e-01" nType="0">
          <Node pos="l" depth="2" NCoef="0" IVar="-1" Cut="0.0000000000000000e+00" cType="1" res="2.3190886713564396e-03" rms="4.6451044082641602e-01" purity="6.7502832412719727e-01" nType="-99"/>
          <Node pos="r" depth="2" NCoef="0" IVar="-1" Cut="0.0000000000000000e+00" cType="1" res="-4.8480008263140917e-04" rms="4.9443456530570984e-01" purity="4.6288761496543884e-01" nType="-99"/>
        </Node>
      </Node>
    </BinaryTree>
    <BinaryTree type="DecisionTree" boostWeight="1.0000000000000000e+00" itree="42">
      <Node pos="s" depth="0" NCoef="0" IVar="0" Cut="2.2755620479583740e+00" cType="1" res="4.6637943014502525e-03" rms="4.9044454097747803e-01" purity="5.1622027158737183e-01" nType="0">
        <Node pos="l" depth="1" NCoef="0" IVar="8" Cut="9.4521558284759521e-01" cType="1" res="6.2783263623714447e-02" rms="4.8528572916984558e-01" purity="5.8669078350067139e-01" nType="0">
          <Node pos="l" depth="2" NCoef="0" IVar="-1" Cut="0.0000000000000000e+00" cType="1" res="-6.4782996196299791e-04" rms="4.9341860413551331e-01" purity="4.4674021005630493e-01" nType="-99"/>
          <Node pos="r" depth="2" NCoef="0" IVar="-1" Cut="0.0000000000000000e+00" cType="1" res="2.5933308061212301e-03" rms="4.6369898319244385e-01" purity="6.8023633956909180e-01" nType="-99"/>
        </Node>
        <Node pos="r" depth="1" NCoef="0" IVar="1" Cut="8.3816413879394531e+00" cType="1" res="-1.1807341128587723e-01" rms="4.7850602865219116e-01" purity="3.6740005016326904e-01" nType="0">
          <Node pos="l" depth="2" NCoef="0" IVar="-1" Cut="0.0000000000000000e+00" cType="1" res="-1.6427838709205389e-03" rms="4.6654421091079712e-01" purity="3.2908377051353455e-01" nType="-99"/>
          <Node pos="r" depth="2" NCoef="0" IVar="-1" Cut="0.0000000000000000e+00" cType="1" res="8.4554444765672088e-04" rms="5.0026708841323853e-01" purity="5.6052529811859131e-01" nType="-99"/>
        </Node>
      </Node>
    </BinaryTree>
    <BinaryTree type="DecisionTree" boostWeight="1.0000000000000000e+00" itree="43">
      <Node pos="s" depth="0" NCoef="0" IVar="2" Cut="1.3786808252334595e+00" cType="1" res="1.0733945528045297e-03" rms="4.8866388201713562e-01" purity="5.1226902008056641e-01" nType="0">
        <Node pos="l" depth="1" NCoef="0" IVar="5" Cut="6.6217774152755737e-01" cType="1" res="6.9105356931686401e-02" rms="4.8415091633796692e-01" purity="5.9123331308364868e-01" nType="0">
          <Node pos="l" depth="2" NCoef="0" IVar="-1" Cut="0.0000000000000000e+00" cType="1" res="3.8856198079884052e-03" rms="4.4277727603912354e-01" purity="7.2628456354141235e-01" nType="-99"/>
          <Node pos="r" depth="2" NCoef="0" IVar="-1" Cut="0.0000000000000000e+00" cType="1" res="4.5147789933253080e-05" rms="4.9228349328041077e-01" purity="5.1937884092330933e-01" nType="-99"/>
        </Node>
        <Node pos="r" depth="1" NCoef="0" IVar="1" Cut="6.8791971206665039e+00" cType="1" res="-1.9158849120140076e-01" rms="4.4832983613014221e-01" purity="2.8864744305610657e-01" nType="0">
          <Node pos="l" depth="2" NCoef="0" IVar="-1" Cut="0.0000000000000000e+00" cType="1" res="-2.6008535642176867e-03" rms="3.8666233420372009e-01" purity="1.8555510044097900e-01" nType="-99"/>
          <Node pos="r" depth="2" NCoef="0" IVar="-1" Cut="0.0000000000000000e+00" cType="1" res="-1.2552910484373569e-03" rms="4.8501801490783691e-01" purity="3.8754022121429443e-01" nType="-99"/>
        </Node>
      </Node>
    </BinaryTree>
    <BinaryTree type="DecisionTree" boostWeight="1.0000000000000000e+00" itree="44">
      <Node pos="s" depth="0" NCoef="0" IVar="0" Cut="2.1427175998687744e+00" cType="1" res="-1.4858626760542393e-02" rms="4.8743987083435059e-01" purity="4.9486613273620605e-01" nType="0">
        <Node pos="l" depth="1" NCoef="0" IVar="6" Cut="9.0258955955505371e-02" cType="1" res="1.0707434266805649e-01" rms="4.7320860624313354e-01" purity="6.3660418987274170e-01" nType="0">
          <Node pos="l" depth="2" NCoef="0" IVar="-1" Cut="0.0000000000000000e+00" cType="1" res="1.6270441119559109e-04" rms="4.9225065112113953e-01" purity="5.3438061475753784e-01" nType="-99"/>
          <Node pos="r" depth="2" NCoef="0" IVar="-1" Cut="0.0000000000000000e+00" cType="1" res="4.1693178936839104e-03" rms="4.3146336078643799e-01" purity="7.4137651920318604e-01" nType="-99"/>
        </Node>
        <Node pos="r" depth="1" NCoef="0" IVar="2" Cut="1.2797119617462158e+00" cType="1" res="-1.2815488874912262e-01" rms="4.7291639447212219e-01" purity="3.6316758394241333e-01" nType="0">
          <Node pos="l" depth="2" NCoef="0" IVar="-1" Cut="0.0000000000000000e+00" cType="1" res="-5.2253319881856441e-04" rms="4.9445071816444397e-01" purity="4.6653407812118530e-01" nType="-99"/>
          <Node pos="r" depth="2" NCoef="0" IVar="-1" Cut="0.0000000000000000e+00" cType="1" res="-2.2642188705503941e-03" rms="4.2900469899177551e-01" purity="2.4983318150043488e-01" nType="-99"/>
        </Node>
      </Node>
    </BinaryTree>
    <BinaryTree type="DecisionTree" boostWeight="1.0000000000000000e+00" itree="45">
      <Node pos="s" depth="0" NCoef="0" IVar="0" Cut="2.2266974449157715e+00" cType="1" res="-1.1248338036239147e-02" rms="4.8915261030197144e-01" purity="5.0066983699798584e-01" nType="0">
        <Node pos="l" depth="1" NCoef="0" IVar="4" Cut="8.0228004455566406e+01" cType="1" res="7.1583151817321777e-02" rms="4.8443347215652466e-01" purity="6.0164445638656616e-01" nType="0">
          <Node pos="l" depth="2" NCoef="0" IVar="-1" Cut="0.0000000000000000e+00" cType="1" res="1.3896499876864254e-04" rms="4.9215325713157654e-01" purity="5.3762632608413696e-01" nType="-99"/>
          <Node pos="r" depth="2" NCoef="0" IVar="-1" Cut="0.0000000000000000e+00" cType="1" res="3.7516332231462002e-03" rms="4.4737350940704346e-01" purity="7.2113895416259766e-01" nType="-99"/>
        </Node>
        <Node pos="r" depth="1" NCoef="0" IVar="0" Cut="2.5426390171051025e+00" cType="1" res="-1.3983796536922455e-01" rms="4.6820542216300964e-01" purity="3.4391444921493530e-01" nType="0">
          <Node pos="l" depth="2" NCoef="0" IVar="-1" Cut="0.0000000000000000e+00" cType="1" res="-7.1825133636593819e-04" rms="4.9243560433387756e-01" purity="4.3650624155998230e-01" nType="-99"/>
          <Node pos="r" depth="2" NCoef="0" IVar="-1" Cut="0.0000000000000000e+00" cType="1" res="-2.5081573985517025e-03" rms="3.9262783527374268e-01" purity="1.9543679058551788e-01" nType="-99"/>
        </Node>
      </Node>
    </BinaryTree>
    <BinaryTree type="DecisionTree" boostWeight="1.0000000000000000e+00" itree="46">
      <Node pos="s" depth="0" NCoef="0" IVar="2" Cut="1.2458657026290894e+00" cType="1" res="-9.3856938183307648e-03" rms="4.8861241340637207e-01" purity="5.0096690654754639e-01" nType="0">
        <Node pos="l" depth="1" NCoef="0" IVar="8" Cut="9.6614634990692139e-01" cType="1" res="7.2367072105407715e-02" rms="4.8354187607765198e-01" purity="5.9964358806610107e-01" nType="0">
          <Node pos="l" depth="2" NCoef="0" IVar="-1" Cut="0.0000000000000000e+00" cType="1" res="2.6172335492447019e-04" rms="4.9401503801345825e-01" purity="5.3746932744979858e-01" nType="-99"/>
          <Node pos="r" depth="2" NCoef="0" IVar="-1" Cut="0.0000000000000000e+00" cType="1" res="4.9709053710103035e-03" rms="4.2601349949836731e-01" purity="7.5920087099075317e-01" nType="-99"/>
        </Node>
        <Node pos="r" depth="1" NCoef="0" IVar="0" Cut="2.3327224254608154e+00" cType="1" res="-1.4794382452964783e-01" rms="4.6537154912948608e-01" purity="3.3372554183006287e-01" nType="0">
          <Node pos="l" depth="2" NCoef="0" IVar="-1" Cut="0.0000000000000000e+00" cType="1" res="-6.5386790083721280e-04" rms="4.9262177944183350e-01" purity="4.4434416294097900e-01" nType="-99"/>
          <Node pos="r" depth="2" NCoef="0" IVar="-1" Cut="0.0000000000000000e+00" cType="1" res="-2.3430373985320330e-03" rms="4.2370426654815674e-01" purity="2.3798350989818573e-01" nType="-99"/>
        </Node>
      </Node>
    </BinaryTree>
    <BinaryTree type="DecisionTree" boostWeight="1.0000000000000000e+00" itree="47">
      <Node pos="s" depth="0" NCoef="0" IVar="2" Cut="1.5045112371444702e+00" cType="1" res="7.2382204234600067e-03" rms="4.8759138584136963e-01" purity="5.1806485652923584e-01" nType="0">
        <Node pos="l" depth="1" NCoef="0" IVar="0" Cut="2.3292953968048096e+00" cType="1" res="5.6423202157020569e-02" rms="4.8548549413681030e-01" purity="5.7586061954498291e-01" nType="0">
          <Node pos="l" depth="2" NCoef="0" IVar="-1" Cut="0.0000000000000000e+00" cType="1" res="1.6010521212592721e-03" rms="4.7725000977516174e-01" purity="6.2766832113265991e-01" nType="-99"/>
          <Node pos="r" depth="2" NCoef="0" IVar="-1" Cut="0.0000000000000000e+00" cType="1" res="-1.0412519332021475e-03" rms="4.8564252257347107e-01" purity="3.9858055114746094e-01" nType="-99"/>
        </Node>
        <Node pos="r" depth="1" NCoef="0" IVar="7" Cut="3.9493077993392944e-01" cType="1" res="-2.2128196060657501e-01" rms="4.2872470617294312e-01" purity="2.4953746795654297e-01" nType="0">
          <Node pos="l" depth="2" NCoef="0" IVar="-1" Cut="0.0000000000000000e+00" cType="1" res="-2.4950150400400162e-03" rms="3.8619625568389893e-01" purity="1.8588812649250031e-01" nType="-99"/>
          <Node pos="r" depth="2" NCoef="0" IVar="-1" Cut="0.0000000000000000e+00" cType="1" res="-1.1350400745868683e-03" rms="4.7996130585670471e-01" purity="3.7769809365272522e-01" nType="-99"/>
        </Node>
      </Node>
    </BinaryTree>
    <BinaryTree type="DecisionTree" boostWeight="1.0000000000000000e+00" itree="48">
      <Node pos="s" depth="0" NCoef="0" IVar="2" Cut="1.1159892082214355e+00" cType="1" res="-1.8315181136131287e-02" rms="4.8663893342018127e-01" purity="4.9162960052490234e-01" nType="0">
        <Node pos="l" depth="1" NCoef="0" IVar="8" Cut="9.4080382585525513e-01" cType="1" res="9.7915768623352051e-02" rms="4.7537976503372192e-01" purity="6.3217884302139282e-01" nType="0">
          <Node pos="l" depth="2" NCoef="0" IVar="-1" Cut="0.0000000000000000e+00" cType="1" res="-8.1437069457024336e-04" rms="4.9593782424926758e-01" purity="4.3699035048484802e-01" nType="-99"/>
          <Node pos="r" depth="2" NCoef="0" IVar="-1" Cut="0.0000000000000000e+00" cType="1" res="3.7191479932516813e-03" rms="4.3921855092048645e-01" purity="7.3389744758605957e-01" nType="-99"/>
        </Node>
        <Node pos="r" depth="1" NCoef="0" IVar="0" Cut="1.9586486816406250e+00" cType="1" res="-1.3385690748691559e-01" rms="4.6989929676055908e-01" purity="3.5191383957862854e-01" nType="0">
          <Node pos="l" depth="2" NCoef="0" IVar="-1" Cut="0.0000000000000000e+00" cType="1" res="1.7352489521726966e-03" rms="4.8752039670944214e-01" purity="6.1944806575775146e-01" nType="-99"/>
          <Node pos="r" depth="2" NCoef="0" IVar="-1" Cut="0.0000000000000000e+00" cType="1" res="-1.7250676173716784e-03" rms="4.5695352554321289e-01" purity="3.1235340237617493e-01" nType="-99"/>
        </Node>
      </Node>
    </BinaryTree>
    <BinaryTree type="DecisionTree" boostWeight="1.0000000000000000e+00" itree="49">
      <Node pos="s" depth="0" NCoef="0" IVar="0" Cut="2.5300047397613525e+00" cType="1" res="-1.4924511313438416e-02" rms="4.8959559202194214e-01" purity="4.9703517556190491e-01" nType="0">
        <Node pos="l" depth="1" NCoef="0" IVar="8" Cut="9.4086432456970215e-01" cType="1" res="1.7156785354018211e-02" rms="4.9107193946838379e-01" purity="5.3693354129791260e-01" nType="0">
          <Node pos="l" depth="2" NCoef="0" IVar="-1" Cut="0.0000000000000000e+00" cType="1" res="-9.7458536038175225e-04" rms="4.8821681737899780e-01" purity="4.0599277615547180e-01" nType="-99"/>
          <Node pos="r" depth="2" NCoef="0" IVar="-1" Cut="0.0000000000000000e+00" cType="1" res="1.0876677697524428e-03" rms="4.8456948995590210e-01" purity="5.9963113069534302e-01" nType="-99"/>
        </Node>
        <Node pos="r" depth="1" NCoef="0" IVar="1" Cut="7.0348243713378906e+00" cType="1" res="-2.1021640300750732e-01" rms="4.3184056878089905e-01" purity="2.5415781140327454e-01" nType="0">
          <Node pos="l" depth="2" NCoef="0" IVar="-1" Cut="0.0000000000000000e+00" cType="1" res="-2.3714676499366760e-03" rms="3.9549627900123596e-01" purity="1.9627514481544495e-01" nType="-99"/>
          <Node pos="r" depth="2" NCoef="0" IVar="-1" Cut="0.0000000000000000e+00" cType="1" res="-1.5817040111869574e-03" rms="4.7149485349655151e-01" purity="3.4165754914283752e-01" nType="-99"/>
        </Node>
      </Node>
    </BinaryTree>
    <BinaryTree type="DecisionTree" boostWeight="1.0000000000000000e+00" itree="50">
      <Node pos="s" depth="0" NCoef="0" IVar="0" Cut="2.3361167907714844e+00" cType="1" res="-7.6615707948803902e-03" rms="4.8665839433670044e-01" purity="5.0453680753707886e-01" nType="0">
        <Node pos="l" depth="1" NCoef="0" IVar="8" Cut="9.4477808475494385e-01" cType="1" res="6.7791886627674103e-02" rms="4.8216202855110168e-01" purity="5.9447669982910156e-01" nType="0">
          <Node pos="l" depth="2" NCoef="0" IVar="-1" Cut="0.0000000000000000e+00" cType="1" res="-6.2890577828511596e-04" rms="4.9179059267044067e-01" purity="4.4767451286315918e-01" nType="-99"/>
          <Node pos="r" depth="2" NCoef="0" IVar="-1" Cut="0.0000000000000000e+00" cType="1" res="2.7934229001402855e-03" rms="4.5909830927848816e-01" purity="6.8994820117950439e-01" nType="-99"/>
        </Node>
        <Node pos="r" depth="1" NCoef="0" IVar="1" Cut="7.6811947822570801e+00" cType="1" res="-1.9760051369667053e-01" rms="4.4429025053977966e-01" purity="2.7813112735748291e-01" nType="0">
          <Node pos="l" depth="2" NCoef="0" IVar="-1" Cut="0.0000000000000000e+00" cType="1" res="-2.2535012103617191e-03" rms="4.1764286160469055e-01" purity="2.2840854525566101e-01" nType="-99"/>
          <Node pos="r" depth="2" NCoef="0" IVar="-1" Cut="0.0000000000000000e+00" cType="1" res="-8.8557088747620583e-04" rms="4.9138867855072021e-01" purity="4.2496281862258911e-01" nType="-99"/>
        </Node>
      </Node>
    </BinaryTree>
    <BinaryTree type="DecisionTree" boostWeight="1.0000000000000000e+00" itree="51">
      <Node pos="s" depth="0" NCoef="0" IVar="2" Cut="8.5363489389419556e-01" cType="1" res="-3.1093239784240723e-02" rms="4.8815879225730896e-01" purity="4.8248690366744995e-01" nType="0">
        <Node pos="l" depth="1" NCoef="0" IVar="1" Cut="6.9552683830261230e+00" cType="1" res="1.2732264399528503e-01" rms="4.6441993117332458e-01" purity="6.7363172769546509e-01" nType="0">
          <Node pos="l" depth="2" NCoef="0" IVar="-1" Cut="0.0000000000000000e+00" cType="1" res="7.4578064959496260e-04" rms="4.9397838115692139e-01" purity="5.7956951856613159e-01" nType="-99"/>
          <Node pos="r" depth="2" NCoef="0" IVar="-1" Cut="0.0000000000000000e+00" cType="1" res="4.5413491316139698e-03" rms="4.2522996664047241e-01" purity="7.5947594642639160e-01" nType="-99"/>
        </Node>
        <Node pos="r" depth="1" NCoef="0" IVar="8" Cut="9.5100528001785278e-01" cType="1" res="-8.9873455464839935e-02" rms="4.8365563154220581e-01" purity="4.1156262159347534e-01" nType="0">
          <Node pos="l" depth="2" NCoef="0" IVar="-1" Cut="0.0000000000000000e+00" cType="1" res="-1.6642379341647029e-03" rms="4.6096602082252502e-01" purity="3.1700333952903748e-01" nType="-99"/>
          <Node pos="r" depth="2" NCoef="0" IVar="-1" Cut="0.0000000000000000e+00" cType="1" res="-1.1799387721111998e-04" rms="4.9362364411354065e-01" purity="5.1173377037048340e-01" nType="-99"/>
        </Node>
      </Node>
    </BinaryTree>
    <BinaryTree type="DecisionTree" boostWeight="1.0000000000000000e+00" itree="52">
      <Node pos="s" depth="0" NCoef="0" IVar="2" Cut="1.3641136884689331e+00" cType="1" res="-2.2830190137028694e-02" rms="4.8800164461135864e-01" purity="4.9060276150703430e-01" nType="0">
        <Node pos="l" depth="1" NCoef="0" IVar="2" Cut="8.0386435985565186e-01" cType="1" res="3.6602456122636795e-02" rms="4.8864752054214478e-01" purity="5.6458669900894165e-01" nType="0">
          <Node pos="l" depth="2" NCoef="0" IVar="-1" Cut="0.0000000000000000e+00" cType="1" res="2.7488339692354202e-03" rms="4.5634037256240845e-01" purity="6.9799774885177612e-01" nType="-99"/>
          <Node pos="r" depth="2" NCoef="0" IVar="-1" Cut="0.0000000000000000e+00" cType="1" res="-5.2151201089145616e-05" rms="4.9405980110168457e-01" purity="5.1507568359375000e-01" nType="-99"/>
        </Node>
        <Node pos="r" depth="1" NCoef="0" IVar="0" Cut="2.5217471122741699e+00" cType="1" res="-1.8414486944675446e-01" rms="4.4813355803489685e-01" purity="2.8979232907295227e-01" nType="0">
          <Node pos="l" depth="2" NCoef="0" IVar="-1" Cut="0.0000000000000000e+00" cType="1" res="-1.1853239266201854e-03" rms="4.8533493280410767e-01" purity="3.9022099971771240e-01" nType="-99"/>
          <Node pos="r" depth="2" NCoef="0" IVar="-1" Cut="0.0000000000000000e+00" cType="1" res="-2.4709694553166628e-03" rms="3.7986662983894348e-01" purity="1.7661285400390625e-01" nType="-99"/>
        </Node>
      </Node>
    </BinaryTree>
    <BinaryTree type="DecisionTree" boostWeight="1.0000000000000000e+00" itree="53">
      <Node pos="s" depth="0" NCoef="0" IVar="2" Cut="9.5806473493576050e-01" cType="1" res="-4.3040633201599121e-02" rms="4.8847326636314392e-01" purity="4.7253519296646118e-01" nType="0">
        <Node pos="l" depth="1" NCoef="0" IVar="1" Cut="8.6790533065795898e+00" cType="1" res="8.1572227180004120e-02" rms="4.8110836744308472e-01" purity="6.2949657440185547e-01" nType="0">
          <Node pos="l" depth="2" NCoef="0" IVar="-1" Cut="0.0000000000000000e+00" cType="1" res="9.5734751084819436e-04" rms="4.8872908949851990e-01" purity="6.0313683748245239e-01" nType="-99"/>
          <Node pos="r" depth="2" NCoef="0" IVar="-1" Cut="0.0000000000000000e+00" cType="1" res="4.7076656483113766e-03" rms="4.1825732588768005e-01" purity="7.7326405048370361e-01" nType="-99"/>
        </Node>
        <Node pos="r" depth="1" NCoef="0" IVar="4" Cut="8.7496246337890625e+01" cType="1" res="-1.1731533706188202e-01" rms="4.7758778929710388e-01" purity="3.7897944450378418e-01" nType="0">
          <Node pos="l" depth="2" NCoef="0" IVar="-1" Cut="0.0000000000000000e+00" cType="1" res="-1.9093584269285202e-03" rms="4.5813700556755066e-01" purity="3.1598350405693054e-01" nType="-99"/>
          <Node pos="r" depth="2" NCoef="0" IVar="-1" Cut="0.0000000000000000e+00" cType="1" res="-2.5976562756113708e-04" rms="4.8992496728897095e-01" purity="4.7427582740783691e-01" nType="-99"/>
        </Node>
      </Node>
    </BinaryTree>
    <BinaryTree type="DecisionTree" boostWeight="1.0000000000000000e+00" itree="54">
      <Node pos="s" depth="0" NCoef="0" IVar="2" Cut="1.2987852096557617e+00" cType="1" res="-2.1215112879872322e-02" rms="4.8865419626235962e-01" purity="4.9126520752906799e-01" nType="0">
        <Node pos="l" depth="1" NCoef="0" IVar="8" Cut="9.3538373708724976e-01" cType="1" res="3.7411283701658249e-02" rms="4.8871466517448425e-01" purity="5.6661766767501831e-01" nType="0">
          <Node pos="l" depth="2" NCoef="0" IVar="-1" Cut="0.0000000000000000e+00" cType="1" res="-1.1098169488832355e-03" rms="4.8680576682090759e-01" purity="3.9578077197074890e-01" nType="-99"/>
          <Node pos="r" depth="2" NCoef="0" IVar="-1" Cut="0.0000000000000000e+00" cType="1" res="1.5186221571639180e-03" rms="4.7942206263542175e-01" purity="6.2961900234222412e-01" nType="-99"/>
        </Node>
        <Node pos="r" depth="1" NCoef="0" IVar="8" Cut="9.5142859220504761e-01" cType="1" res="-1.4925600588321686e-01" rms="4.6341431140899658e-01" purity="3.2669422030448914e-01" nType="0">
          <Node pos="l" depth="2" NCoef="0" IVar="-1" Cut="0.0000000000000000e+00" cType="1" res="-2.0789487753063440e-03" rms="4.2302754521369934e-01" purity="2.3602867126464844e-01" nType="-99"/>
          <Node pos="r" depth="2" NCoef="0" IVar="-1" Cut="0.0000000000000000e+00" cType="1" res="-6.1897939303889871e-04" rms="4.9256655573844910e-01" purity="4.4414040446281433e-01" nType="-99"/>
        </Node>
      </Node>
    </BinaryTree>
    <BinaryTree type="DecisionTree" boostWeight="1.0000000000000000e+00" itree="55">
      <Node pos="s" depth="0" NCoef="0" IVar="0" Cut="2.1690216064453125e+00" cType="1" res="-3.2416418194770813e-02" rms="4.8655471205711365e-01" purity="4.7892460227012634e-01" nType="0">
        <Node pos="l" depth="1" NCoef="0" IVar="1" Cut="8.8113994598388672e+00" cType="1" res="6.9824852049350739e-02" rms="4.8256561160087585e-01" purity="6.0513329505920410e-01" nType="0">
          <Node pos="l" depth="2" NCoef="0" IVar="-1" Cut="0.0000000000000000e+00" cType="1" res="6.0130917700007558e-04" rms="4.9043324589729309e-01" purity="5.7120549678802490e-01" nType="-99"/>
          <Node pos="r" depth="2" NCoef="0" IVar="-1" Cut="0.0000000000000000e+00" cType="1" res="6.1489250510931015e-03" rms="3.8639765977859497e-01" purity="8.1126683950424194e-01" nType="-99"/>
        </Node>
        <Node pos="r" depth="1" NCoef="0" IVar="8" Cut="9.3774849176406860e-01" cType="1" res="-1.3947929441928864e-01" rms="4.6730610728263855e-01" purity="3.4676402807235718e-01" nType="0">
          <Node pos="l" depth="2" NCoef="0" IVar="-1" Cut="0.0000000000000000e+00" cType="1" res="-2.1434247028082609e-03" rms="4.0959990024566650e-01" purity="2.1744003891944885e-01" nType="-99"/>
          <Node pos="r" depth="2" NCoef="0" IVar="-1" Cut="0.0000000000000000e+00" cType="1" res="-1.0284099262207747e-03" rms="4.8559254407882690e-01" purity="4.1383793950080872e-01" nType="-99"/>
        </Node>
      </Node>
    </BinaryTree>
    <BinaryTree type="DecisionTree" boostWeight="1.0000000000000000e+00" itree="56">
      <Node pos="s" depth="0" NCoef="0" IVar="2" Cut="1.1532233953475952e+00" cType="1" res="-1.3991497457027435e-02" rms="4.8723560571670532e-01" purity="4.9921500682830811e-01" nType="0">
        <Node pos="l" depth="1" NCoef="0" IVar="8" Cut="9.3471413850784302e-01" cType="1" res="6.0545030981302261e-02" rms="4.8284557461738586e-01" purity="5.9614187479019165e-01" nType="0">
          <Node pos="l" depth="2" NCoef="0" IVar="-1" Cut="0.0000000000000000e+00" cType="1" res="-8.0754817463457584e-04" rms="4.9394726753234863e-01" purity="4.2886236310005188e-01" nType="-99"/>
          <Node pos="r" depth="2" NCoef="0" IVar="-1" Cut="0.0000000000000000e+00" cType="1" res="1.9734615925699472e-03" rms="4.6976098418235779e-01" purity="6.5648174285888672e-01" nType="-99"/>
        </Node>
        <Node pos="r" depth="1" NCoef="0" IVar="1" Cut="7.5547509193420410e+00" cType="1" res="-1.1313825845718384e-01" rms="4.7522968053817749e-01" purity="3.7028524279594421e-01" nType="0">
          <Node pos="l" depth="2" NCoef="0" IVar="-1" Cut="0.0000000000000000e+00" cType="1" res="-1.6941921785473824e-03" rms="4.5220243930816650e-01" purity="2.9792535305023193e-01" nType="-99"/>
          <Node pos="r" depth="2" NCoef="0" IVar="-1" Cut="0.0000000000000000e+00" cType="1" res="3.2153660868061706e-05" rms="4.9525716900825500e-01" purity="5.0532573461532593e-01" nType="-99"/>
        </Node>
      </Node>
    </BinaryTree>
    <BinaryTree type="DecisionTree" boostWeight="1.0000000000000000e+00" itree="57">
      <Node pos="s" depth="0" NCoef="0" IVar="2" Cut="1.2734814882278442e+00" cType="1" res="-1.8172433599829674e-02" rms="4.8654228448867798e-01" purity="4.9509602785110474e-01" nType="0">
        <Node pos="l" depth="1" NCoef="0" IVar="5" Cut="1.5811210870742798e+00" cType="1" res="4.8155844211578369e-02" rms="4.8583677411079407e-01" purity="5.8006930351257324e-01" nType="0">
          <Node pos="l" depth="2" NCoef="0" IVar="-1" Cut="0.0000000000000000e+00" cType="1" res="1.3834390556439757e-03" rms="4.7816810011863708e-01" purity="6.2284463644027710e-01" nType="-99"/>
          <Node pos="r" depth="2" NCoef="0" IVar="-1" Cut="0.0000000000000000e+00" cType="1" res="-1.4864166732877493e-03" rms="4.8109883069992065e-01" purity="3.8067349791526794e-01" nType="-99"/>
        </Node>
        <Node pos="r" depth="1" NCoef="0" IVar="8" Cut="9.4718438386917114e-01" cType="1" res="-1.5614689886569977e-01" rms="4.5821598172187805e-01" purity="3.1833657622337341e-01" nType="0">
          <Node pos="l" depth="2" NCoef="0" IVar="-1" Cut="0.0000000000000000e+00" cType="1" res="-2.2105257958173752e-03" rms="4.1047382354736328e-01" purity="2.1970635652542114e-01" nType="-99"/>
          <Node pos="r" depth="2" NCoef="0" IVar="-1" Cut="0.0000000000000000e+00" cType="1" res="-8.1362767377868295e-04" rms="4.8722204566001892e-01" purity="4.1876253485679626e-01" nType="-99"/>
        </Node>
      </Node>
    </BinaryTree>
    <BinaryTree type="DecisionTree" boostWeight="1.0000000000000000e+00" itree="58">
      <Node pos="s" depth="0" NCoef="0" IVar="0" Cut="2.2036945819854736e+00" cType="1" res="-2.4386228993535042e-02" rms="4.8595017194747925e-01" purity="4.8825544118881226e-01" nType="0">
        <Node pos="l" depth="1" NCoef="0" IVar="1" Cut="7.0092148780822754e+00" cType="1" res="6.1580609530210495e-02" rms="4.8297283053398132e-01" purity="5.9816116094589233e-01" nType="0">
          <Node pos="l" depth="2" NCoef="0" IVar="-1" Cut="0.0000000000000000e+00" cType="1" res="-3.6296836333349347e-04" rms="4.9686992168426514e-01" purity="4.8476859927177429e-01" nType="-99"/>
          <Node pos="r" depth="2" NCoef="0" IVar="-1" Cut="0.0000000000000000e+00" cType="1" res="2.7857681270688772e-03" rms="4.5607519149780273e-01" purity="6.9771975278854370e-01" nType="-99"/>
        </Node>
        <Node pos="r" depth="1" NCoef="0" IVar="2" Cut="9.9862700700759888e-01" cType="1" res="-1.3432607054710388e-01" rms="4.6722474694252014e-01" purity="3.4770110249519348e-01" nType="0">
          <Node pos="l" depth="2" NCoef="0" IVar="-1" Cut="0.0000000000000000e+00" cType="1" res="1.3089219573885202e-03" rms="4.8619955778121948e-01" purity="6.0789591073989868e-01" nType="-99"/>
          <Node pos="r" depth="2" NCoef="0" IVar="-1" Cut="0.0000000000000000e+00" cType="1" res="-1.7706553917378187e-03" rms="4.5453646779060364e-01" purity="3.0524739623069763e-01" nType="-99"/>
        </Node>
      </Node>
    </BinaryTree>
    <BinaryTree type="DecisionTree" boostWeight="1.0000000000000000e+00" itree="59">
      <Node pos="s" depth="0" NCoef="0" IVar="5" Cut="1.5934181213378906e+00" cType="1" res="-3.1165819615125656e-02" rms="4.8600617051124573e-01" purity="4.8153921961784363e-01" nType="0">
        <Node pos="l" depth="1" NCoef="0" IVar="1" Cut="6.3177833557128906e+00" cType="1" res="2.5868043303489685e-02" rms="4.8691028356552124e-01" purity="5.4891502857208252e-01" nType="0">
          <Node pos="l" depth="2" NCoef="0" IVar="-1" Cut="0.0000000000000000e+00" cType="1" res="-9.7048486350104213e-04" rms="4.8349758982658386e-01" purity="3.9954671263694763e-01" nType="-99"/>
          <Node pos="r" depth="2" NCoef="0" IVar="-1" Cut="0.0000000000000000e+00" cType="1" res="1.3265453744679689e-03" rms="4.7890073060989380e-01" purity="6.1905121803283691e-01" nType="-99"/>
        </Node>
        <Node pos="r" depth="1" NCoef="0" IVar="2" Cut="1.2864578962326050e+00" cType="1" res="-1.9466644525527954e-01" rms="4.4454783201217651e-01" purity="2.8839096426963806e-01" nType="0">
          <Node pos="l" depth="2" NCoef="0" IVar="-1" Cut="0.0000000000000000e+00" cType="1" res="-1.0391892865300179e-03" rms="4.8908823728561401e-01" purity="4.1877579689025879e-01" nType="-99"/>
          <Node pos="r" depth="2" NCoef="0" IVar="-1" Cut="0.0000000000000000e+00" cType="1" res="-2.4940331932157278e-03" rms="3.9550235867500305e-01" purity="1.9939589500427246e-01" nType="-99"/>
        </Node>
      </Node>
    </BinaryTree>
    <BinaryTree type="DecisionTree" boostWeight="1.0000000000000000e+00" itree="60">
      <Node pos="s" depth="0" NCoef="0" IVar="2" Cut="1.4311269521713257e+00" cType="1" res="-2.8395386412739754e-02" rms="4.8566892743110657e-01" purity="4.8333775997161865e-01" nType="0">
        <Node pos="l" depth="1" NCoef="0" IVar="5" Cut="1.6954702138900757e+00" cType="1" res="2.4185180664062500e-02" rms="4.8835116624832153e-01" purity="5.4865419864654541e-01" nType="0">
          <Node pos="l" depth="2" NCoef="0" IVar="-1" Cut="0.0000000000000000e+00" cType="1" res="8.8310719002038240e-04" rms="4.8460313677787781e-01" purity="5.8698630332946777e-01" nType="-99"/>
          <Node pos="r" depth="2" NCoef="0" IVar="-1" Cut="0.0000000000000000e+00" cType="1" res="-1.5853458316996694e-03" rms="4.7223556041717529e-01" purity="3.5217007994651794e-01" nType="-99"/>
        </Node>
        <Node pos="r" depth="1" NCoef="0" IVar="1" Cut="7.2321605682373047e+00" cType="1" res="-2.1668544411659241e-01" rms="4.2563518881797791e-01" purity="2.4944068491458893e-01" nType="0">
          <Node pos="l" depth="2" NCoef="0" IVar="-1" Cut="0.0000000000000000e+00" cType="1" res="-2.3877315688878298e-03" rms="3.8204395771026611e-01" purity="1.8147672712802887e-01" nType="-99"/>
          <Node pos="r" depth="2" NCoef="0" IVar="-1" Cut="0.0000000000000000e+00" cType="1" res="-1.2562586925923824e-03" rms="4.7949957847595215e-01" purity="3.7852716445922852e-01" nType="-99"/>
        </Node>
      </Node>
    </BinaryTree>
    <BinaryTree type="DecisionTree" boostWeight="1.0000000000000000e+00" itree="61">
      <Node pos="s" depth="0" NCoef="0" IVar="0" Cut="2.2264211177825928e+00" cType="1" res="-3.2689310610294342e-02" rms="4.8526269197463989e-01" purity="4.7888827323913574e-01" nType="0">
        <Node pos="l" depth="1" NCoef="0" IVar="1" Cut="6.6161947250366211e+00" cType="1" res="4.5298095792531967e-02" rms="4.8441544175148010e-01" purity="5.7936340570449829e-01" nType="0">
          <Node pos="l" depth="2" NCoef="0" IVar="-1" Cut="0.0000000000000000e+00" cType="1" res="-7.5327628292143345e-04" rms="4.9207106232643127e-01" purity="4.3975168466567993e-01" nType="-99"/>
          <Node pos="r" depth="2" NCoef="0" IVar="-1" Cut="0.0000000000000000e+00" cType="1" res="2.1964681800454855e-03" rms="4.6526417136192322e-01" purity="6.7261552810668945e-01" nType="-99"/>
        </Node>
        <Node pos="r" depth="1" NCoef="0" IVar="8" Cut="9.2567276954650879e-01" cType="1" res="-1.4630985260009766e-01" rms="4.6357977390289307e-01" purity="3.3250516653060913e-01" nType="0">
          <Node pos="l" depth="2" NCoef="0" IVar="-1" Cut="0.0000000000000000e+00" cType="1" res="-2.6584886945784092e-03" rms="3.4868001937866211e-01" purity="1.4282463490962982e-01" nType="-99"/>
          <Node pos="r" depth="2" NCoef="0" IVar="-1" Cut="0.0000000000000000e+00" cType="1" res="-1.1130814673379064e-03" rms="4.8236635327339172e-01" purity="3.9062151312828064e-01" nType="-99"/>
        </Node>
      </Node>
    </BinaryTree>
    <BinaryTree type="DecisionTree" boostWeight="1.0000000000000000e+00" itree="62">
