<?xml version="1.0"?>
<MethodSetup Method="BDT::BDTG">
  <GeneralInfo>
    <Info name="TMVA Release" value="4.2.0 [262656]"/>
    <Info name="ROOT Release" value="6.02/05 [393733]"/>
    <Info name="Creator" value="shtan"/>
    <Info name="Date" value="Sat Apr 14 18:48:47 2018"/>
    <Info name="Host" value="Linux cmsbuild12.cern.ch 2.6.32-573.7.1.el6.x86_64 #1 SMP Wed Sep 23 10:12:03 CEST 2015 x86_64 x86_64 x86_64 GNU/Linux"/>
    <Info name="Dir" value="/eos/user/s/shtan/bdttrain/CMSSW_7_4_15/src/TTH_BDT_Training/2training"/>
    <Info name="Training events" value="12467"/>
    <Info name="TrainingTime" value="6.32393599e+00"/>
    <Info name="AnalysisType" value="Classification"/>
  </GeneralInfo>
  <Options>
    <Option name="V" modified="Yes">False</Option>
    <Option name="VerbosityLevel" modified="No">Default</Option>
    <Option name="VarTransform" modified="No">None</Option>
    <Option name="H" modified="Yes">False</Option>
    <Option name="CreateMVAPdfs" modified="No">False</Option>
    <Option name="IgnoreNegWeightsInTraining" modified="No">False</Option>
    <Option name="NTrees" modified="Yes">797</Option>
    <Option name="MaxDepth" modified="Yes">2</Option>
    <Option name="MinNodeSize" modified="No">5%</Option>
    <Option name="nCuts" modified="Yes">18</Option>
    <Option name="BoostType" modified="Yes">Grad</Option>
    <Option name="AdaBoostR2Loss" modified="No">quadratic</Option>
    <Option name="UseBaggedBoost" modified="Yes">True</Option>
    <Option name="Shrinkage" modified="Yes">1.750000e-02</Option>
    <Option name="AdaBoostBeta" modified="No">5.000000e-01</Option>
    <Option name="UseRandomisedTrees" modified="No">False</Option>
    <Option name="UseNvars" modified="No">3</Option>
    <Option name="UsePoissonNvars" modified="No">True</Option>
    <Option name="BaggedSampleFraction" modified="No">2.100000e-01</Option>
    <Option name="UseYesNoLeaf" modified="No">True</Option>
    <Option name="NegWeightTreatment" modified="Yes">ignorenegweightsintraining</Option>
    <Option name="Css" modified="No">1.000000e+00</Option>
    <Option name="Cts_sb" modified="No">1.000000e+00</Option>
    <Option name="Ctb_ss" modified="No">1.000000e+00</Option>
    <Option name="Cbb" modified="No">1.000000e+00</Option>
    <Option name="NodePurityLimit" modified="No">5.000000e-01</Option>
    <Option name="SeparationType" modified="No">giniindex</Option>
    <Option name="DoBoostMonitor" modified="No">False</Option>
    <Option name="UseFisherCuts" modified="No">False</Option>
    <Option name="MinLinCorrForFisher" modified="No">8.000000e-01</Option>
    <Option name="UseExclusiveVars" modified="No">False</Option>
    <Option name="DoPreselection" modified="No">False</Option>
    <Option name="SigToBkgFraction" modified="No">1.000000e+00</Option>
    <Option name="PruneMethod" modified="No">nopruning</Option>
    <Option name="PruneStrength" modified="No">0.000000e+00</Option>
    <Option name="PruningValFraction" modified="No">5.000000e-01</Option>
    <Option name="nEventsMin" modified="No">0</Option>
    <Option name="UseBaggedGrad" modified="No">False</Option>
    <Option name="GradBaggingFraction" modified="Yes">2.100000e-01</Option>
    <Option name="UseNTrainEvents" modified="No">0</Option>
    <Option name="NNodesMax" modified="No">0</Option>
  </Options>
  <Variables NVar="10">
    <Variable VarIndex="0" Expression="BDT_common5_input_avg_dr_tagged_jets" Label="BDT_common5_input_avg_dr_tagged_jets" Title="BDT_common5_input_avg_dr_tagged_jets" Unit="" Internal="BDT_common5_input_avg_dr_tagged_jets" Type="F" Min="7.35525429e-01" Max="3.72298956e+00"/>
    <Variable VarIndex="1" Expression="Evt_blr_ETH_transformed" Label="Evt_blr_ETH_transformed" Title="Evt_blr_ETH_transformed" Unit="" Internal="Evt_blr_ETH_transformed" Type="F" Min="6.59720182e-01" Max="1.19346352e+01"/>
    <Variable VarIndex="2" Expression="BDT_common5_input_Evt_Deta_JetsAverage" Label="BDT_common5_input_Evt_Deta_JetsAverage" Title="BDT_common5_input_Evt_Deta_JetsAverage" Unit="" Internal="BDT_common5_input_Evt_Deta_JetsAverage" Type="F" Min="1.26258016e-01" Max="2.49898052e+00"/>
    <Variable VarIndex="3" Expression="BDT_common5_input_best_higgs_mass" Label="BDT_common5_input_best_higgs_mass" Title="BDT_common5_input_best_higgs_mass" Unit="" Internal="BDT_common5_input_best_higgs_mass" Type="F" Min="1.72323017e+01" Max="2.11315015e+03"/>
    <Variable VarIndex="4" Expression="BDT_common5_input_closest_tagged_dijet_mass" Label="BDT_common5_input_closest_tagged_dijet_mass" Title="BDT_common5_input_closest_tagged_dijet_mass" Unit="" Internal="BDT_common5_input_closest_tagged_dijet_mass" Type="F" Min="1.72323017e+01" Max="5.44070312e+02"/>
    <Variable VarIndex="5" Expression="BDT_common5_input_dEta_fn" Label="BDT_common5_input_dEta_fn" Title="BDT_common5_input_dEta_fn" Unit="" Internal="BDT_common5_input_dEta_fn" Type="F" Min="5.43002458e-03" Max="5.75354719e+00"/>
    <Variable VarIndex="6" Expression="BDT_common5_input_aplanarity" Label="BDT_common5_input_aplanarity" Title="BDT_common5_input_aplanarity" Unit="" Internal="BDT_common5_input_aplanarity" Type="F" Min="7.85256620e-04" Max="4.16283756e-01"/>
    <Variable VarIndex="7" Expression="BDT_common5_input_h0" Label="BDT_common5_input_h0" Title="BDT_common5_input_h0" Unit="" Internal="BDT_common5_input_h0" Type="F" Min="1.33968055e-01" Max="4.46631938e-01"/>
    <Variable VarIndex="8" Expression="BDT_common5_input_avg_btag_disc_btags" Label="BDT_common5_input_avg_btag_disc_btags" Title="BDT_common5_input_avg_btag_disc_btags" Unit="" Internal="BDT_common5_input_avg_btag_disc_btags" Type="F" Min="8.71301889e-01" Max="9.98949230e-01"/>
    <Variable VarIndex="9" Expression="BDT_common5_input_h3" Label="BDT_common5_input_h3" Title="BDT_common5_input_h3" Unit="" Internal="BDT_common5_input_h3" Type="F" Min="-1.57295585e-01" Max="2.43308619e-01"/>
  </Variables>
  <Spectators NSpec="0"/>
  <Classes NClass="2">
    <Class Name="Signal" Index="0"/>
    <Class Name="Background" Index="1"/>
  </Classes>
  <Transformations NTransformations="0"/>
  <MVAPdfs/>
  <Weights NTrees="797" AnalysisType="1">
    <BinaryTree type="DecisionTree" boostWeight="1.0000000000000000e+00" itree="0">
      <Node pos="s" depth="0" NCoef="0" IVar="1" Cut="6.4204769134521484e+00" cType="1" res="1.2720811180770397e-02" rms="4.9983814358711243e-01" purity="5.1272082328796387e-01" nType="0">
        <Node pos="l" depth="1" NCoef="0" IVar="5" Cut="1.1519608497619629e+00" cType="1" res="-1.2157358229160309e-01" rms="4.8499470949172974e-01" purity="3.7842640280723572e-01" nType="0">
          <Node pos="l" depth="2" NCoef="0" IVar="-1" Cut="0.0000000000000000e+00" cType="1" res="-3.8834344013594091e-04" rms="4.9937698245048523e-01" purity="4.7504740953445435e-01" nType="-99"/>
          <Node pos="r" depth="2" NCoef="0" IVar="-1" Cut="0.0000000000000000e+00" cType="1" res="-3.0170725658535957e-03" rms="4.3709844350814819e-01" purity="2.5721415877342224e-01" nType="-99"/>
        </Node>
        <Node pos="r" depth="1" NCoef="0" IVar="0" Cut="2.4608743190765381e+00" cType="1" res="8.4963321685791016e-02" rms="4.9272835254669189e-01" purity="5.8496332168579102e-01" nType="0">
          <Node pos="l" depth="2" NCoef="0" IVar="-1" Cut="0.0000000000000000e+00" cType="1" res="2.6399553753435612e-03" rms="4.8390918970108032e-01" purity="6.2582486867904663e-01" nType="-99"/>
          <Node pos="r" depth="2" NCoef="0" IVar="-1" Cut="0.0000000000000000e+00" cType="1" res="-2.1261991932988167e-03" rms="4.7817841172218323e-01" purity="3.5389930009841919e-01" nType="-99"/>
        </Node>
      </Node>
    </BinaryTree>
    <BinaryTree type="DecisionTree" boostWeight="1.0000000000000000e+00" itree="1">
      <Node pos="s" depth="0" NCoef="0" IVar="8" Cut="9.3615406751632690e-01" cType="1" res="-6.4415936358273029e-03" rms="4.9961981177330017e-01" purity="4.9389740824699402e-01" nType="0">
        <Node pos="l" depth="1" NCoef="0" IVar="0" Cut="2.1619472503662109e+00" cType="1" res="-1.8841773271560669e-01" rms="4.6278348565101624e-01" purity="3.1097853183746338e-01" nType="0">
          <Node pos="l" depth="2" NCoef="0" IVar="-1" Cut="0.0000000000000000e+00" cType="1" res="-9.6908723935484886e-04" rms="4.9540689587593079e-01" purity="4.3354147672653198e-01" nType="-99"/>
          <Node pos="r" depth="2" NCoef="0" IVar="-1" Cut="0.0000000000000000e+00" cType="1" res="-3.4102823119610548e-03" rms="4.0451425313949585e-01" purity="2.0615904033184052e-01" nType="-99"/>
        </Node>
        <Node pos="r" depth="1" NCoef="0" IVar="5" Cut="1.6416925191879272e+00" cType="1" res="6.7518539726734161e-02" rms="4.9507507681846619e-01" purity="5.6824070215225220e-01" nType="0">
          <Node pos="l" depth="2" NCoef="0" IVar="-1" Cut="0.0000000000000000e+00" cType="1" res="2.6775102596729994e-03" rms="4.8301902413368225e-01" purity="6.2850385904312134e-01" nType="-99"/>
          <Node pos="r" depth="2" NCoef="0" IVar="-1" Cut="0.0000000000000000e+00" cType="1" res="-1.8919081194326282e-03" rms="4.8262283205986023e-01" purity="3.7014272809028625e-01" nType="-99"/>
        </Node>
      </Node>
    </BinaryTree>
    <BinaryTree type="DecisionTree" boostWeight="1.0000000000000000e+00" itree="2">
      <Node pos="s" depth="0" NCoef="0" IVar="0" Cut="2.2799177169799805e+00" cType="1" res="-1.6525389626622200e-02" rms="4.9915036559104919e-01" purity="4.8410618305206299e-01" nType="0">
        <Node pos="l" depth="1" NCoef="0" IVar="5" Cut="1.1834523677825928e+00" cType="1" res="6.1093043535947800e-02" rms="4.9567487835884094e-01" purity="5.6231927871704102e-01" nType="0">
          <Node pos="l" depth="2" NCoef="0" IVar="-1" Cut="0.0000000000000000e+00" cType="1" res="2.7505620382726192e-03" rms="4.8105433583259583e-01" purity="6.3547533750534058e-01" nType="-99"/>
          <Node pos="r" depth="2" NCoef="0" IVar="-1" Cut="0.0000000000000000e+00" cType="1" res="-1.0892527643591166e-03" rms="4.9411836266517639e-01" purity="4.2609682679176331e-01" nType="-99"/>
        </Node>
        <Node pos="r" depth="1" NCoef="0" IVar="1" Cut="7.4426531791687012e+00" cType="1" res="-1.7489780485630035e-01" rms="4.6779406070709229e-01" purity="3.2452040910720825e-01" nType="0">
          <Node pos="l" depth="2" NCoef="0" IVar="-1" Cut="0.0000000000000000e+00" cType="1" res="-2.9233277309685946e-03" rms="4.4154247641563416e-01" purity="2.6604411005973816e-01" nType="-99"/>
          <Node pos="r" depth="2" NCoef="0" IVar="-1" Cut="0.0000000000000000e+00" cType="1" res="-1.0084576206281781e-03" rms="4.9634546041488647e-01" purity="4.4069492816925049e-01" nType="-99"/>
        </Node>
      </Node>
    </BinaryTree>
    <BinaryTree type="DecisionTree" boostWeight="1.0000000000000000e+00" itree="3">
      <Node pos="s" depth="0" NCoef="0" IVar="0" Cut="2.4176299571990967e+00" cType="1" res="-7.0680403150618076e-03" rms="4.9910366535186768e-01" purity="4.9381086230278015e-01" nType="0">
        <Node pos="l" depth="1" NCoef="0" IVar="1" Cut="6.5481028556823730e+00" cType="1" res="5.4029773920774460e-02" rms="4.9633103609085083e-01" purity="5.5576455593109131e-01" nType="0">
          <Node pos="l" depth="2" NCoef="0" IVar="-1" Cut="0.0000000000000000e+00" cType="1" res="-1.3729928759858012e-03" rms="4.9033895134925842e-01" purity="4.0414333343505859e-01" nType="-99"/>
          <Node pos="r" depth="2" NCoef="0" IVar="-1" Cut="0.0000000000000000e+00" cType="1" res="2.9992798808962107e-03" rms="4.7929409146308899e-01" purity="6.4197611808776855e-01" nType="-99"/>
        </Node>
        <Node pos="r" depth="1" NCoef="0" IVar="3" Cut="2.2668911743164062e+02" cType="1" res="-2.2872880101203918e-01" rms="4.4321671128273010e-01" purity="2.6904523372650146e-01" nType="0">
          <Node pos="l" depth="2" NCoef="0" IVar="-1" Cut="0.0000000000000000e+00" cType="1" res="-2.3423829115927219e-03" rms="4.7021180391311646e-01" purity="3.3102375268936157e-01" nType="-99"/>
          <Node pos="r" depth="2" NCoef="0" IVar="-1" Cut="0.0000000000000000e+00" cType="1" res="-3.6668118555098772e-03" rms="3.9327627420425415e-01" purity="1.9135841727256775e-01" nType="-99"/>
        </Node>
      </Node>
    </BinaryTree>
    <BinaryTree type="DecisionTree" boostWeight="1.0000000000000000e+00" itree="4">
      <Node pos="s" depth="0" NCoef="0" IVar="0" Cut="2.2040197849273682e+00" cType="1" res="-1.1082215234637260e-02" rms="4.9841988086700439e-01" purity="4.8989549279212952e-01" nType="0">
        <Node pos="l" depth="1" NCoef="0" IVar="8" Cut="9.4090175628662109e-01" cType="1" res="1.0170829296112061e-01" rms="4.8812505602836609e-01" purity="6.0467708110809326e-01" nType="0">
          <Node pos="l" depth="2" NCoef="0" IVar="-1" Cut="0.0000000000000000e+00" cType="1" res="-1.0824379278346896e-03" rms="4.9453994631767273e-01" purity="4.2741733789443970e-01" nType="-99"/>
          <Node pos="r" depth="2" NCoef="0" IVar="-1" Cut="0.0000000000000000e+00" cType="1" res="4.1909790597856045e-03" rms="4.6518272161483765e-01" purity="6.8235725164413452e-01" nType="-99"/>
        </Node>
        <Node pos="r" depth="1" NCoef="0" IVar="2" Cut="1.1290419101715088e+00" cType="1" res="-1.5702995657920837e-01" rms="4.7307726740837097e-01" purity="3.4137135744094849e-01" nType="0">
          <Node pos="l" depth="2" NCoef="0" IVar="-1" Cut="0.0000000000000000e+00" cType="1" res="7.4263021815568209e-04" rms="4.9712061882019043e-01" purity="5.3985518217086792e-01" nType="-99"/>
          <Node pos="r" depth="2" NCoef="0" IVar="-1" Cut="0.0000000000000000e+00" cType="1" res="-2.9753493145108223e-03" rms="4.3900182843208313e-01" purity="2.6180565357208252e-01" nType="-99"/>
        </Node>
      </Node>
    </BinaryTree>
    <BinaryTree type="DecisionTree" boostWeight="1.0000000000000000e+00" itree="5">
      <Node pos="s" depth="0" NCoef="0" IVar="2" Cut="1.1712478399276733e+00" cType="1" res="2.3458056151866913e-02" rms="4.9767318367958069e-01" purity="5.2491271495819092e-01" nType="0">
        <Node pos="l" depth="1" NCoef="0" IVar="1" Cut="6.1590585708618164e+00" cType="1" res="1.3238954544067383e-01" rms="4.8023647069931030e-01" purity="6.3602519035339355e-01" nType="0">
          <Node pos="l" depth="2" NCoef="0" IVar="-1" Cut="0.0000000000000000e+00" cType="1" res="-7.5632112566381693e-04" rms="4.9724957346916199e-01" purity="4.5003983378410339e-01" nType="-99"/>
          <Node pos="r" depth="2" NCoef="0" IVar="-1" Cut="0.0000000000000000e+00" cType="1" res="4.3719052337110043e-03" rms="4.6163469552993774e-01" purity="6.9125115871429443e-01" nType="-99"/>
        </Node>
        <Node pos="r" depth="1" NCoef="0" IVar="1" Cut="6.9495954513549805e+00" cType="1" res="-1.2370868027210236e-01" rms="4.8272776603698730e-01" purity="3.7479951977729797e-01" nType="0">
          <Node pos="l" depth="2" NCoef="0" IVar="-1" Cut="0.0000000000000000e+00" cType="1" res="-2.8368029743432999e-03" rms="4.4634643197059631e-01" purity="2.7597758173942566e-01" nType="-99"/>
          <Node pos="r" depth="2" NCoef="0" IVar="-1" Cut="0.0000000000000000e+00" cType="1" res="-3.4013495314866304e-04" rms="4.9832138419151306e-01" purity="4.8072880506515503e-01" nType="-99"/>
        </Node>
      </Node>
    </BinaryTree>
    <BinaryTree type="DecisionTree" boostWeight="1.0000000000000000e+00" itree="6">
      <Node pos="s" depth="0" NCoef="0" IVar="0" Cut="2.3565852642059326e+00" cType="1" res="6.6835531033575535e-03" rms="4.9786379933357239e-01" purity="5.0867950916290283e-01" nType="0">
        <Node pos="l" depth="1" NCoef="0" IVar="8" Cut="9.3218392133712769e-01" cType="1" res="7.3137730360031128e-02" rms="4.9267253279685974e-01" purity="5.7750600576400757e-01" nType="0">
          <Node pos="l" depth="2" NCoef="0" IVar="-1" Cut="0.0000000000000000e+00" cType="1" res="-1.5927007189020514e-03" rms="4.8522102832794189e-01" purity="3.8147690892219543e-01" nType="-99"/>
          <Node pos="r" depth="2" NCoef="0" IVar="-1" Cut="0.0000000000000000e+00" cType="1" res="2.5689119938760996e-03" rms="4.8239782452583313e-01" purity="6.2912487983703613e-01" nType="-99"/>
        </Node>
        <Node pos="r" depth="1" NCoef="0" IVar="1" Cut="6.2289133071899414e+00" cType="1" res="-1.8360474705696106e-01" rms="4.6231758594512939e-01" purity="3.1159800291061401e-01" nType="0">
          <Node pos="l" depth="2" NCoef="0" IVar="-1" Cut="0.0000000000000000e+00" cType="1" res="-3.7830711808055639e-03" rms="3.6871367692947388e-01" purity="1.6230311989784241e-01" nType="-99"/>
          <Node pos="r" depth="2" NCoef="0" IVar="-1" Cut="0.0000000000000000e+00" cType="1" res="-1.1841333471238613e-03" rms="4.9393466114997864e-01" purity="4.2403796315193176e-01" nType="-99"/>
        </Node>
      </Node>
    </BinaryTree>
    <BinaryTree type="DecisionTree" boostWeight="1.0000000000000000e+00" itree="7">
      <Node pos="s" depth="0" NCoef="0" IVar="2" Cut="9.7523564100265503e-01" cType="1" res="-1.8206736072897911e-02" rms="4.9732574820518494e-01" purity="4.8434805870056152e-01" nType="0">
        <Node pos="l" depth="1" NCoef="0" IVar="8" Cut="9.2969810962677002e-01" cType="1" res="1.1983302980661392e-01" rms="4.8254147171974182e-01" purity="6.2638491392135620e-01" nType="0">
          <Node pos="l" depth="2" NCoef="0" IVar="-1" Cut="0.0000000000000000e+00" cType="1" res="-1.3716167304664850e-03" rms="4.8893049359321594e-01" purity="3.9567357301712036e-01" nType="-99"/>
          <Node pos="r" depth="2" NCoef="0" IVar="-1" Cut="0.0000000000000000e+00" cType="1" res="3.7926356308162212e-03" rms="4.6852681040763855e-01" purity="6.7335003614425659e-01" nType="-99"/>
        </Node>
        <Node pos="r" depth="1" NCoef="0" IVar="1" Cut="6.5205535888671875e+00" cType="1" res="-1.0313672572374344e-01" rms="4.8714381456375122e-01" purity="3.9695876836776733e-01" nType="0">
          <Node pos="l" depth="2" NCoef="0" IVar="-1" Cut="0.0000000000000000e+00" cType="1" res="-2.8394185937941074e-03" rms="4.4038116931915283e-01" purity="2.6498624682426453e-01" nType="-99"/>
          <Node pos="r" depth="2" NCoef="0" IVar="-1" Cut="0.0000000000000000e+00" cType="1" res="-3.3988189534284174e-04" rms="4.9838909506797791e-01" purity="4.8326733708381653e-01" nType="-99"/>
        </Node>
      </Node>
    </BinaryTree>
    <BinaryTree type="DecisionTree" boostWeight="1.0000000000000000e+00" itree="8">
      <Node pos="s" depth="0" NCoef="0" IVar="2" Cut="1.0117583274841309e+00" cType="1" res="-8.5437604866456240e-05" rms="4.9723231792449951e-01" purity="5.0259184837341309e-01" nType="0">
        <Node pos="l" depth="1" NCoef="0" IVar="1" Cut="6.8851828575134277e+00" cType="1" res="1.3488607108592987e-01" rms="4.7822868824005127e-01" purity="6.4287209510803223e-01" nType="0">
          <Node pos="l" depth="2" NCoef="0" IVar="-1" Cut="0.0000000000000000e+00" cType="1" res="6.3625274924561381e-04" rms="4.9809136986732483e-01" purity="5.4049301147460938e-01" nType="-99"/>
          <Node pos="r" depth="2" NCoef="0" IVar="-1" Cut="0.0000000000000000e+00" cType="1" res="5.1884464919567108e-03" rms="4.4827175140380859e-01" purity="7.2117793560028076e-01" nType="-99"/>
        </Node>
        <Node pos="r" depth="1" NCoef="0" IVar="1" Cut="7.0976896286010742e+00" cType="1" res="-9.6592873334884644e-02" rms="4.8801138997077942e-01" purity="4.0228849649429321e-01" nType="0">
          <Node pos="l" depth="2" NCoef="0" IVar="-1" Cut="0.0000000000000000e+00" cType="1" res="-2.5169558357447386e-03" rms="4.5556947588920593e-01" purity="2.9664856195449829e-01" nType="-99"/>
          <Node pos="r" depth="2" NCoef="0" IVar="-1" Cut="0.0000000000000000e+00" cType="1" res="4.8540768329985440e-04" rms="4.9738863110542297e-01" purity="5.2959293127059937e-01" nType="-99"/>
        </Node>
      </Node>
    </BinaryTree>
    <BinaryTree type="DecisionTree" boostWeight="1.0000000000000000e+00" itree="9">
      <Node pos="s" depth="0" NCoef="0" IVar="0" Cut="2.2656681537628174e+00" cType="1" res="-1.0160999372601509e-02" rms="4.9705019593238831e-01" purity="4.9301397800445557e-01" nType="0">
        <Node pos="l" depth="1" NCoef="0" IVar="1" Cut="7.6297812461853027e+00" cType="1" res="7.9617403447628021e-02" rms="4.9083873629570007e-01" purity="5.8722263574600220e-01" nType="0">
          <Node pos="l" depth="2" NCoef="0" IVar="-1" Cut="0.0000000000000000e+00" cType="1" res="8.7727778009139001e-05" rms="4.9879607558250427e-01" purity="5.1025640964508057e-01" nType="-99"/>
          <Node pos="r" depth="2" NCoef="0" IVar="-1" Cut="0.0000000000000000e+00" cType="1" res="5.2182069048285484e-03" rms="4.5088094472885132e-01" purity="7.1546590328216553e-01" nType="-99"/>
        </Node>
        <Node pos="r" depth="1" NCoef="0" IVar="2" Cut="1.2631443738937378e+00" cType="1" res="-1.6935560107231140e-01" rms="4.6723067760467529e-01" purity="3.2596358656883240e-01" nType="0">
          <Node pos="l" depth="2" NCoef="0" IVar="-1" Cut="0.0000000000000000e+00" cType="1" res="-9.8825152963399887e-04" rms="4.9473902583122253e-01" purity="4.3474230170249939e-01" nType="-99"/>
          <Node pos="r" depth="2" NCoef="0" IVar="-1" Cut="0.0000000000000000e+00" cType="1" res="-3.1242305412888527e-03" rms="4.3365526199340820e-01" purity="2.5243628025054932e-01" nType="-99"/>
        </Node>
      </Node>
    </BinaryTree>
    <BinaryTree type="DecisionTree" boostWeight="1.0000000000000000e+00" itree="10">
      <Node pos="s" depth="0" NCoef="0" IVar="2" Cut="1.2533802986145020e+00" cType="1" res="-1.0189368389546871e-02" rms="4.9599650502204895e-01" purity="4.9277812242507935e-01" nType="0">
        <Node pos="l" depth="1" NCoef="0" IVar="1" Cut="5.7874579429626465e+00" cType="1" res="8.4415480494499207e-02" rms="4.8916566371917725e-01" purity="5.9184277057647705e-01" nType="0">
          <Node pos="l" depth="2" NCoef="0" IVar="-1" Cut="0.0000000000000000e+00" cType="1" res="-2.1806892473250628e-03" rms="4.6596655249595642e-01" purity="3.2227331399917603e-01" nType="-99"/>
          <Node pos="r" depth="2" NCoef="0" IVar="-1" Cut="0.0000000000000000e+00" cType="1" res="2.9879279900342226e-03" rms="4.7595396637916565e-01" purity="6.5079867839813232e-01" nType="-99"/>
        </Node>
        <Node pos="r" depth="1" NCoef="0" IVar="1" Cut="6.9239025115966797e+00" cType="1" res="-1.8521314859390259e-01" rms="4.5964232087135315e-01" purity="3.0950358510017395e-01" nType="0">
          <Node pos="l" depth="2" NCoef="0" IVar="-1" Cut="0.0000000000000000e+00" cType="1" res="-3.3441733103245497e-03" rms="3.9565747976303101e-01" purity="1.9578097760677338e-01" nType="-99"/>
          <Node pos="r" depth="2" NCoef="0" IVar="-1" Cut="0.0000000000000000e+00" cType="1" res="-9.2287670122459531e-04" rms="4.9530637264251709e-01" purity="4.4568943977355957e-01" nType="-99"/>
        </Node>
      </Node>
    </BinaryTree>
    <BinaryTree type="DecisionTree" boostWeight="1.0000000000000000e+00" itree="11">
      <Node pos="s" depth="0" NCoef="0" IVar="2" Cut="1.3736990690231323e+00" cType="1" res="-1.2958609499037266e-02" rms="4.9652141332626343e-01" purity="4.9120232462882996e-01" nType="0">
        <Node pos="l" depth="1" NCoef="0" IVar="0" Cut="2.2683610916137695e+00" cType="1" res="5.7168461382389069e-02" rms="4.9375522136688232e-01" purity="5.6496077775955200e-01" nType="0">
          <Node pos="l" depth="2" NCoef="0" IVar="-1" Cut="0.0000000000000000e+00" cType="1" res="1.8405409064143896e-03" rms="4.8765206336975098e-01" purity="6.0475438833236694e-01" nType="-99"/>
          <Node pos="r" depth="2" NCoef="0" IVar="-1" Cut="0.0000000000000000e+00" cType="1" res="-1.0515461908653378e-03" rms="4.9369871616363525e-01" purity="4.2996203899383545e-01" nType="-99"/>
        </Node>
        <Node pos="r" depth="1" NCoef="0" IVar="5" Cut="1.7555803060531616e+00" cType="1" res="-2.2130595147609711e-01" rms="4.4345524907112122e-01" purity="2.7206623554229736e-01" nType="0">
          <Node pos="l" depth="2" NCoef="0" IVar="-1" Cut="0.0000000000000000e+00" cType="1" res="-2.0935242064297199e-03" rms="4.7422918677330017e-01" purity="3.4640631079673767e-01" nType="-99"/>
          <Node pos="r" depth="2" NCoef="0" IVar="-1" Cut="0.0000000000000000e+00" cType="1" res="-3.7389062345027924e-03" rms="3.7873995304107666e-01" purity="1.7427065968513489e-01" nType="-99"/>
        </Node>
      </Node>
    </BinaryTree>
    <BinaryTree type="DecisionTree" boostWeight="1.0000000000000000e+00" itree="12">
      <Node pos="s" depth="0" NCoef="0" IVar="2" Cut="9.9944597482681274e-01" cType="1" res="-2.4300247896462679e-03" rms="4.9621659517288208e-01" purity="5.0169533491134644e-01" nType="0">
        <Node pos="l" depth="1" NCoef="0" IVar="1" Cut="7.7263884544372559e+00" cType="1" res="1.1381158977746964e-01" rms="4.8191580176353455e-01" purity="6.2650024890899658e-01" nType="0">
          <Node pos="l" depth="2" NCoef="0" IVar="-1" Cut="0.0000000000000000e+00" cType="1" res="6.4455351093783975e-04" rms="4.9699965119361877e-01" purity="5.4524862766265869e-01" nType="-99"/>
          <Node pos="r" depth="2" NCoef="0" IVar="-1" Cut="0.0000000000000000e+00" cType="1" res="7.5512938201427460e-03" rms="4.1516074538230896e-01" purity="7.7802526950836182e-01" nType="-99"/>
        </Node>
        <Node pos="r" depth="1" NCoef="0" IVar="8" Cut="9.4118833541870117e-01" cType="1" res="-8.5737101733684540e-02" rms="4.8952215909957886e-01" purity="4.1225117444992065e-01" nType="0">
          <Node pos="l" depth="2" NCoef="0" IVar="-1" Cut="0.0000000000000000e+00" cType="1" res="-2.7255560271441936e-03" rms="4.4565072655677795e-01" purity="2.7628508210182190e-01" nType="-99"/>
          <Node pos="r" depth="2" NCoef="0" IVar="-1" Cut="0.0000000000000000e+00" cType="1" res="-2.2181405802257359e-04" rms="4.9844786524772644e-01" purity="4.8973256349563599e-01" nType="-99"/>
        </Node>
      </Node>
    </BinaryTree>
    <BinaryTree type="DecisionTree" boostWeight="1.0000000000000000e+00" itree="13">
      <Node pos="s" depth="0" NCoef="0" IVar="8" Cut="9.3643283843994141e-01" cType="1" res="-8.1774499267339706e-03" rms="4.9567353725433350e-01" purity="4.9655544757843018e-01" nType="0">
        <Node pos="l" depth="1" NCoef="0" IVar="0" Cut="2.1256687641143799e+00" cType="1" res="-1.7967806756496429e-01" rms="4.6179470419883728e-01" purity="3.1313517689704895e-01" nType="0">
          <Node pos="l" depth="2" NCoef="0" IVar="-1" Cut="0.0000000000000000e+00" cType="1" res="-1.2068432988598943e-03" rms="4.9145126342773438e-01" purity="4.1260409355163574e-01" nType="-99"/>
          <Node pos="r" depth="2" NCoef="0" IVar="-1" Cut="0.0000000000000000e+00" cType="1" res="-3.0897168908268213e-03" rms="4.1651219129562378e-01" purity="2.2535875439643860e-01" nType="-99"/>
        </Node>
        <Node pos="r" depth="1" NCoef="0" IVar="2" Cut="1.1721264123916626e+00" cType="1" res="5.2218466997146606e-02" rms="4.9306187033653259e-01" purity="5.6114906072616577e-01" nType="0">
          <Node pos="l" depth="2" NCoef="0" IVar="-1" Cut="0.0000000000000000e+00" cType="1" res="2.7901718858629465e-03" rms="4.7626060247421265e-01" purity="6.4725673198699951e-01" nType="-99"/>
          <Node pos="r" depth="2" NCoef="0" IVar="-1" Cut="0.0000000000000000e+00" cType="1" res="-1.1901645921170712e-03" rms="4.9289566278457642e-01" purity="4.2433321475982666e-01" nType="-99"/>
        </Node>
      </Node>
    </BinaryTree>
    <BinaryTree type="DecisionTree" boostWeight="1.0000000000000000e+00" itree="14">
      <Node pos="s" depth="0" NCoef="0" IVar="0" Cut="2.3859670162200928e+00" cType="1" res="1.0749152861535549e-02" rms="4.9465599656105042e-01" purity="5.1503235101699829e-01" nType="0">
        <Node pos="l" depth="1" NCoef="0" IVar="5" Cut="1.2904208898544312e+00" cType="1" res="7.8003250062465668e-02" rms="4.8891931772232056e-01" purity="5.8712708950042725e-01" nType="0">
          <Node pos="l" depth="2" NCoef="0" IVar="-1" Cut="0.0000000000000000e+00" cType="1" res="3.1243630219250917e-03" rms="4.7253006696701050e-01" purity="6.5699005126953125e-01" nType="-99"/>
          <Node pos="r" depth="2" NCoef="0" IVar="-1" Cut="0.0000000000000000e+00" cType="1" res="-1.1166540207341313e-03" rms="4.9143871665000916e-01" purity="4.2870751023292542e-01" nType="-99"/>
        </Node>
        <Node pos="r" depth="1" NCoef="0" IVar="8" Cut="9.6360486745834351e-01" cType="1" res="-2.0204396545886993e-01" rms="4.5049440860748291e-01" purity="2.8692334890365601e-01" nType="0">
          <Node pos="l" depth="2" NCoef="0" IVar="-1" Cut="0.0000000000000000e+00" cType="1" res="-3.1834400724619627e-03" rms="4.1307196021080017e-01" purity="2.1960960328578949e-01" nType="-99"/>
          <Node pos="r" depth="2" NCoef="0" IVar="-1" Cut="0.0000000000000000e+00" cType="1" res="2.9768038075417280e-04" rms="4.9912205338478088e-01" purity="5.1092582941055298e-01" nType="-99"/>
        </Node>
      </Node>
    </BinaryTree>
    <BinaryTree type="DecisionTree" boostWeight="1.0000000000000000e+00" itree="15">
      <Node pos="s" depth="0" NCoef="0" IVar="2" Cut="1.0030925273895264e+00" cType="1" res="-1.0426254011690617e-02" rms="4.9391987919807434e-01" purity="4.9362549185752869e-01" nType="0">
        <Node pos="l" depth="1" NCoef="0" IVar="0" Cut="2.1503274440765381e+00" cType="1" res="1.4894117414951324e-01" rms="4.6946907043457031e-01" purity="6.6505086421966553e-01" nType="0">
          <Node pos="l" depth="2" NCoef="0" IVar="-1" Cut="0.0000000000000000e+00" cType="1" res="5.1145660690963268e-03" rms="4.4444003701210022e-01" purity="7.2657549381256104e-01" nType="-99"/>
          <Node pos="r" depth="2" NCoef="0" IVar="-1" Cut="0.0000000000000000e+00" cType="1" res="2.7046160539612174e-04" rms="4.9619266390800476e-01" purity="5.2652233839035034e-01" nType="-99"/>
        </Node>
        <Node pos="r" depth="1" NCoef="0" IVar="1" Cut="6.5443496704101562e+00" cType="1" res="-1.1677943170070648e-01" rms="4.8105758428573608e-01" purity="3.7922555208206177e-01" nType="0">
          <Node pos="l" depth="2" NCoef="0" IVar="-1" Cut="0.0000000000000000e+00" cType="1" res="-3.1115298625081778e-03" rms="4.1795867681503296e-01" purity="2.2729377448558807e-01" nType="-99"/>
          <Node pos="r" depth="2" NCoef="0" IVar="-1" Cut="0.0000000000000000e+00" cType="1" res="-1.6873677668627352e-04" rms="4.9694672226905823e-01" purity="4.9256178736686707e-01" nType="-99"/>
        </Node>
      </Node>
    </BinaryTree>
    <BinaryTree type="DecisionTree" boostWeight="1.0000000000000000e+00" itree="16">
      <Node pos="s" depth="0" NCoef="0" IVar="0" Cut="2.3778450489044189e+00" cType="1" res="1.5363730490207672e-03" rms="4.9368128180503845e-01" purity="5.0647962093353271e-01" nType="0">
        <Node pos="l" depth="1" NCoef="0" IVar="8" Cut="9.3877661228179932e-01" cType="1" res="7.0753969252109528e-02" rms="4.8895445466041565e-01" purity="5.8123648166656494e-01" nType="0">
          <Node pos="l" depth="2" NCoef="0" IVar="-1" Cut="0.0000000000000000e+00" cType="1" res="-1.4414631295949221e-03" rms="4.8630034923553467e-01" purity="3.9171713590621948e-01" nType="-99"/>
          <Node pos="r" depth="2" NCoef="0" IVar="-1" Cut="0.0000000000000000e+00" cType="1" res="3.3337844070047140e-03" rms="4.6944829821586609e-01" purity="6.6546696424484253e-01" nType="-99"/>
        </Node>
        <Node pos="r" depth="1" NCoef="0" IVar="2" Cut="1.4580100774765015e+00" cType="1" res="-2.1909382939338684e-01" rms="4.4110900163650513e-01" purity="2.6819297671318054e-01" nType="0">
          <Node pos="l" depth="2" NCoef="0" IVar="-1" Cut="0.0000000000000000e+00" cType="1" res="-2.0117005333304405e-03" rms="4.7625577449798584e-01" purity="3.5427987575531006e-01" nType="-99"/>
          <Node pos="r" depth="2" NCoef="0" IVar="-1" Cut="0.0000000000000000e+00" cType="1" res="-3.7420771550387144e-03" rms="3.7659284472465515e-01" purity="1.7175857722759247e-01" nType="-99"/>
        </Node>
      </Node>
    </BinaryTree>
    <BinaryTree type="DecisionTree" boostWeight="1.0000000000000000e+00" itree="17">
      <Node pos="s" depth="0" NCoef="0" IVar="2" Cut="1.2829712629318237e+00" cType="1" res="1.3830568641424179e-02" rms="4.9387723207473755e-01" purity="5.1948893070220947e-01" nType="0">
        <Node pos="l" depth="1" NCoef="0" IVar="5" Cut="1.5045107603073120e+00" cType="1" res="9.6885874867439270e-02" rms="4.8430749773979187e-01" purity="6.0966682434082031e-01" nType="0">
          <Node pos="l" depth="2" NCoef="0" IVar="-1" Cut="0.0000000000000000e+00" cType="1" res="2.9337492305785418e-03" rms="4.7306618094444275e-01" purity="6.5322011709213257e-01" nType="-99"/>
          <Node pos="r" depth="2" NCoef="0" IVar="-1" Cut="0.0000000000000000e+00" cType="1" res="-1.3483131770044565e-03" rms="4.9001145362854004e-01" purity="4.1050508618354797e-01" nType="-99"/>
        </Node>
        <Node pos="r" depth="1" NCoef="0" IVar="1" Cut="7.9254651069641113e+00" cType="1" res="-1.5581832826137543e-01" rms="4.6921688318252563e-01" purity="3.3529147505760193e-01" nType="0">
          <Node pos="l" depth="2" NCoef="0" IVar="-1" Cut="0.0000000000000000e+00" cType="1" res="-2.6306121144443750e-03" rms="4.4656008481979370e-01" purity="2.7961856126785278e-01" nType="-99"/>
          <Node pos="r" depth="2" NCoef="0" IVar="-1" Cut="0.0000000000000000e+00" cType="1" res="-9.1963171144016087e-05" rms="4.9904796481132507e-01" purity="4.9493175745010376e-01" nType="-99"/>
        </Node>
      </Node>
    </BinaryTree>
    <BinaryTree type="DecisionTree" boostWeight="1.0000000000000000e+00" itree="18">
      <Node pos="s" depth="0" NCoef="0" IVar="2" Cut="1.3880324363708496e+00" cType="1" res="-6.7580146715044975e-03" rms="4.9397966265678406e-01" purity="4.9851575493812561e-01" nType="0">
        <Node pos="l" depth="1" NCoef="0" IVar="1" Cut="6.4204769134521484e+00" cType="1" res="5.9001564979553223e-02" rms="4.9103328585624695e-01" purity="5.7047235965728760e-01" nType="0">
          <Node pos="l" depth="2" NCoef="0" IVar="-1" Cut="0.0000000000000000e+00" cType="1" res="-1.0682188440114260e-03" rms="4.9205625057220459e-01" purity="4.2431947588920593e-01" nType="-99"/>
          <Node pos="r" depth="2" NCoef="0" IVar="-1" Cut="0.0000000000000000e+00" cType="1" res="2.7283148374408484e-03" rms="4.7754970192909241e-01" purity="6.4164125919342041e-01" nType="-99"/>
        </Node>
        <Node pos="r" depth="1" NCoef="0" IVar="1" Cut="7.6877422332763672e+00" cType="1" res="-1.9808650016784668e-01" rms="4.5085662603378296e-01" purity="2.8915679454803467e-01" nType="0">
          <Node pos="l" depth="2" NCoef="0" IVar="-1" Cut="0.0000000000000000e+00" cType="1" res="-3.0339488293975592e-03" rms="4.2005166411399841e-01" purity="2.3101326823234558e-01" nType="-99"/>
          <Node pos="r" depth="2" NCoef="0" IVar="-1" Cut="0.0000000000000000e+00" cType="1" res="-5.3220841800794005e-04" rms="4.9856385588645935e-01" purity="4.6721813082695007e-01" nType="-99"/>
        </Node>
      </Node>
    </BinaryTree>
    <BinaryTree type="DecisionTree" boostWeight="1.0000000000000000e+00" itree="19">
      <Node pos="s" depth="0" NCoef="0" IVar="1" Cut="6.0512609481811523e+00" cType="1" res="-1.4892974868416786e-02" rms="4.9399915337562561e-01" purity="4.9150711297988892e-01" nType="0">
        <Node pos="l" depth="1" NCoef="0" IVar="4" Cut="8.6940986633300781e+01" cType="1" res="-1.8420977890491486e-01" rms="4.5759856700897217e-01" purity="3.0447950959205627e-01" nType="0">
          <Node pos="l" depth="2" NCoef="0" IVar="-1" Cut="0.0000000000000000e+00" cType="1" res="-2.9991655610501766e-03" rms="4.3109506368637085e-01" purity="2.5091755390167236e-01" nType="-99"/>
          <Node pos="r" depth="2" NCoef="0" IVar="-1" Cut="0.0000000000000000e+00" cType="1" res="-8.2432117778807878e-04" rms="4.9161008000373840e-01" purity="4.3226444721221924e-01" nType="-99"/>
        </Node>
        <Node pos="r" depth="1" NCoef="0" IVar="5" Cut="1.6237689256668091e+00" cType="1" res="3.8587875664234161e-02" rms="4.9301201105117798e-01" purity="5.5058217048645020e-01" nType="0">
          <Node pos="l" depth="2" NCoef="0" IVar="-1" Cut="0.0000000000000000e+00" cType="1" res="1.7353063449263573e-03" rms="4.8634999990463257e-01" purity="6.0194510221481323e-01" nType="-99"/>
          <Node pos="r" depth="2" NCoef="0" IVar="-1" Cut="0.0000000000000000e+00" cType="1" res="-1.8573987763375044e-03" rms="4.7945812344551086e-01" purity="3.6722004413604736e-01" nType="-99"/>
        </Node>
      </Node>
    </BinaryTree>
    <BinaryTree type="DecisionTree" boostWeight="1.0000000000000000e+00" itree="20">
      <Node pos="s" depth="0" NCoef="0" IVar="0" Cut="2.2566924095153809e+00" cType="1" res="2.0953046157956123e-02" rms="4.9220383167266846e-01" purity="5.2716839313507080e-01" nType="0">
        <Node pos="l" depth="1" NCoef="0" IVar="2" Cut="1.3711302280426025e+00" cType="1" res="1.1729662120342255e-01" rms="4.7805044054985046e-01" purity="6.3314259052276611e-01" nType="0">
          <Node pos="l" depth="2" NCoef="0" IVar="-1" Cut="0.0000000000000000e+00" cType="1" res="3.2097368966788054e-03" rms="4.6926411986351013e-01" purity="6.6460287570953369e-01" nType="-99"/>
          <Node pos="r" depth="2" NCoef="0" IVar="-1" Cut="0.0000000000000000e+00" cType="1" res="-1.2527101207524538e-03" rms="4.9081471562385559e-01" purity="4.1561126708984375e-01" nType="-99"/>
        </Node>
        <Node pos="r" depth="1" NCoef="0" IVar="1" Cut="8.0167112350463867e+00" cType="1" res="-1.4270012080669403e-01" rms="4.7227293252944946e-01" purity="3.4715640544891357e-01" nType="0">
          <Node pos="l" depth="2" NCoef="0" IVar="-1" Cut="0.0000000000000000e+00" cType="1" res="-2.5432882830500603e-03" rms="4.5346260070800781e-01" purity="2.9521116614341736e-01" nType="-99"/>
          <Node pos="r" depth="2" NCoef="0" IVar="-1" Cut="0.0000000000000000e+00" cType="1" res="8.2860921975225210e-04" rms="4.9546989798545837e-01" purity="5.4509174823760986e-01" nType="-99"/>
        </Node>
      </Node>
    </BinaryTree>
    <BinaryTree type="DecisionTree" boostWeight="1.0000000000000000e+00" itree="21">
      <Node pos="s" depth="0" NCoef="0" IVar="0" Cut="2.2517902851104736e+00" cType="1" res="-2.3132644128054380e-03" rms="4.9219185113906860e-01" purity="5.0368452072143555e-01" nType="0">
        <Node pos="l" depth="1" NCoef="0" IVar="8" Cut="9.3482452630996704e-01" cType="1" res="9.2355653643608093e-02" rms="4.8385551571846008e-01" purity="6.0923808813095093e-01" nType="0">
          <Node pos="l" depth="2" NCoef="0" IVar="-1" Cut="0.0000000000000000e+00" cType="1" res="-1.5729252481833100e-03" rms="4.8514091968536377e-01" purity="3.8397648930549622e-01" nType="-99"/>
          <Node pos="r" depth="2" NCoef="0" IVar="-1" Cut="0.0000000000000000e+00" cType="1" res="3.6205302458256483e-03" rms="4.6437060832977295e-01" purity="6.8158304691314697e-01" nType="-99"/>
        </Node>
        <Node pos="r" depth="1" NCoef="0" IVar="2" Cut="1.1617935895919800e+00" cType="1" res="-1.5780863165855408e-01" rms="4.6552985906600952e-01" purity="3.3031088113784790e-01" nType="0">
          <Node pos="l" depth="2" NCoef="0" IVar="-1" Cut="0.0000000000000000e+00" cType="1" res="3.5264427424408495e-04" rms="4.9468871951103210e-01" purity="5.2241474390029907e-01" nType="-99"/>
          <Node pos="r" depth="2" NCoef="0" IVar="-1" Cut="0.0000000000000000e+00" cType="1" res="-2.8028015512973070e-03" rms="4.4113582372665405e-01" purity="2.6931896805763245e-01" nType="-99"/>
        </Node>
      </Node>
    </BinaryTree>
    <BinaryTree type="DecisionTree" boostWeight="1.0000000000000000e+00" itree="22">
      <Node pos="s" depth="0" NCoef="0" IVar="0" Cut="2.3695232868194580e+00" cType="1" res="-1.9893827848136425e-03" rms="4.9199882149696350e-01" purity="5.0467443466186523e-01" nType="0">
        <Node pos="l" depth="1" NCoef="0" IVar="1" Cut="6.2452774047851562e+00" cType="1" res="6.4023092389106750e-02" rms="4.8844078183174133e-01" purity="5.7831454277038574e-01" nType="0">
          <Node pos="l" depth="2" NCoef="0" IVar="-1" Cut="0.0000000000000000e+00" cType="1" res="-1.5727869467809796e-03" rms="4.8141524195671082e-01" purity="3.7769034504890442e-01" nType="-99"/>
          <Node pos="r" depth="2" NCoef="0" IVar="-1" Cut="0.0000000000000000e+00" cType="1" res="3.0527876224368811e-03" rms="4.7155389189720154e-01" purity="6.6111862659454346e-01" nType="-99"/>
        </Node>
        <Node pos="r" depth="1" NCoef="0" IVar="1" Cut="7.2913403511047363e+00" cType="1" res="-1.9609422981739044e-01" rms="4.4925522804260254e-01" purity="2.8814125061035156e-01" nType="0">
          <Node pos="l" depth="2" NCoef="0" IVar="-1" Cut="0.0000000000000000e+00" cType="1" res="-3.3420484978705645e-03" rms="4.0103650093078613e-01" purity="2.0431847870349884e-01" nType="-99"/>
          <Node pos="r" depth="2" NCoef="0" IVar="-1" Cut="0.0000000000000000e+00" cType="1" res="-9.9862914066761732e-04" rms="4.9294334650039673e-01" purity="4.3174561858177185e-01" nType="-99"/>
        </Node>
      </Node>
    </BinaryTree>
    <BinaryTree type="DecisionTree" boostWeight="1.0000000000000000e+00" itree="23">
      <Node pos="s" depth="0" NCoef="0" IVar="2" Cut="1.2633600234985352e+00" cType="1" res="2.5683115236461163e-03" rms="4.9155125021934509e-01" purity="5.0993633270263672e-01" nType="0">
        <Node pos="l" depth="1" NCoef="0" IVar="8" Cut="9.4060099124908447e-01" cType="1" res="9.2840507626533508e-02" rms="4.8287925124168396e-01" purity="6.1047244071960449e-01" nType="0">
          <Node pos="l" depth="2" NCoef="0" IVar="-1" Cut="0.0000000000000000e+00" cType="1" res="-7.4013974517583847e-04" rms="4.9565669894218445e-01" purity="4.4988209009170532e-01" nType="-99"/>
          <Node pos="r" depth="2" NCoef="0" IVar="-1" Cut="0.0000000000000000e+00" cType="1" res="3.5927321296185255e-03" rms="4.6336916089057922e-01" purity="6.8211179971694946e-01" nType="-99"/>
        </Node>
        <Node pos="r" depth="1" NCoef="0" IVar="0" Cut="2.3338468074798584e+00" cType="1" res="-1.7226506769657135e-01" rms="4.6004268527030945e-01" purity="3.1522452831268311e-01" nType="0">
          <Node pos="l" depth="2" NCoef="0" IVar="-1" Cut="0.0000000000000000e+00" cType="1" res="-8.8758778292685747e-04" rms="4.9482366442680359e-01" purity="4.4416993856430054e-01" nType="-99"/>
          <Node pos="r" depth="2" NCoef="0" IVar="-1" Cut="0.0000000000000000e+00" cType="1" res="-3.2187143806368113e-03" rms="4.1619443893432617e-01" purity="2.2627253830432892e-01" nType="-99"/>
        </Node>
      </Node>
    </BinaryTree>
    <BinaryTree type="DecisionTree" boostWeight="1.0000000000000000e+00" itree="24">
      <Node pos="s" depth="0" NCoef="0" IVar="0" Cut="2.1445794105529785e+00" cType="1" res="-2.0498979836702347e-02" rms="4.9223139882087708e-01" purity="4.8713982105255127e-01" nType="0">
        <Node pos="l" depth="1" NCoef="0" IVar="1" Cut="6.6860327720642090e+00" cType="1" res="8.0181226134300232e-02" rms="4.8518729209899902e-01" purity="5.9992873668670654e-01" nType="0">
          <Node pos="l" depth="2" NCoef="0" IVar="-1" Cut="0.0000000000000000e+00" cType="1" res="-5.7256082072854042e-04" rms="4.9655202031135559e-01" purity="4.6579134464263916e-01" nType="-99"/>
          <Node pos="r" depth="2" NCoef="0" IVar="-1" Cut="0.0000000000000000e+00" cType="1" res="3.9144605398178101e-03" rms="4.6005836129188538e-01" purity="6.9155859947204590e-01" nType="-99"/>
        </Node>
        <Node pos="r" depth="1" NCoef="0" IVar="1" Cut="5.7528171539306641e+00" cType="1" res="-1.2549965083599091e-01" rms="4.7736322879791260e-01" purity="3.6951088905334473e-01" nType="0">
          <Node pos="l" depth="2" NCoef="0" IVar="-1" Cut="0.0000000000000000e+00" cType="1" res="-3.2130822073668242e-03" rms="3.8363718986511230e-01" purity="1.8134312331676483e-01" nType="-99"/>
          <Node pos="r" depth="2" NCoef="0" IVar="-1" Cut="0.0000000000000000e+00" cType="1" res="-1.2564844219014049e-03" rms="4.8981779813766479e-01" purity="4.2102816700935364e-01" nType="-99"/>
        </Node>
      </Node>
    </BinaryTree>
    <BinaryTree type="DecisionTree" boostWeight="1.0000000000000000e+00" itree="25">
      <Node pos="s" depth="0" NCoef="0" IVar="2" Cut="1.4905767440795898e+00" cType="1" res="-1.8651939928531647e-02" rms="4.9170956015586853e-01" purity="4.8889747262001038e-01" nType="0">
        <Node pos="l" depth="1" NCoef="0" IVar="8" Cut="9.3280237913131714e-01" cType="1" res="2.6233490556478500e-02" rms="4.9240022897720337e-01" purity="5.3967905044555664e-01" nType="0">
          <Node pos="l" depth="2" NCoef="0" IVar="-1" Cut="0.0000000000000000e+00" cType="1" res="-1.8271714216098189e-03" rms="4.7452026605606079e-01" purity="3.5078218579292297e-01" nType="-99"/>
          <Node pos="r" depth="2" NCoef="0" IVar="-1" Cut="0.0000000000000000e+00" cType="1" res="1.4581312425434589e-03" rms="4.8732933402061462e-01" purity="5.9403121471405029e-01" nType="-99"/>
        </Node>
        <Node pos="r" depth="1" NCoef="0" IVar="4" Cut="8.2385398864746094e+01" cType="1" res="-2.3415237665176392e-01" rms="4.2708522081375122e-01" purity="2.4508883059024811e-01" nType="0">
          <Node pos="l" depth="2" NCoef="0" IVar="-1" Cut="0.0000000000000000e+00" cType="1" res="-3.7232644390314817e-03" rms="3.5957100987434387e-01" purity="1.5540251135826111e-01" nType="-99"/>
          <Node pos="r" depth="2" NCoef="0" IVar="-1" Cut="0.0000000000000000e+00" cType="1" res="-1.4147566398605704e-03" rms="4.8128640651702881e-01" purity="3.8124075531959534e-01" nType="-99"/>
        </Node>
      </Node>
    </BinaryTree>
    <BinaryTree type="DecisionTree" boostWeight="1.0000000000000000e+00" itree="26">
      <Node pos="s" depth="0" NCoef="0" IVar="0" Cut="2.3039717674255371e+00" cType="1" res="-2.5127114728093147e-02" rms="4.9066770076751709e-01" purity="4.8220440745353699e-01" nType="0">
        <Node pos="l" depth="1" NCoef="0" IVar="8" Cut="9.3820583820343018e-01" cType="1" res="5.6630410254001617e-02" rms="4.8900911211967468e-01" purity="5.7541340589523315e-01" nType="0">
          <Node pos="l" depth="2" NCoef="0" IVar="-1" Cut="0.0000000000000000e+00" cType="1" res="-1.1775959283113480e-03" rms="4.9026563763618469e-01" purity="4.1086876392364502e-01" nType="-99"/>
          <Node pos="r" depth="2" NCoef="0" IVar="-1" Cut="0.0000000000000000e+00" cType="1" res="2.5880832690745592e-03" rms="4.7626206278800964e-01" purity="6.4368897676467896e-01" nType="-99"/>
        </Node>
        <Node pos="r" depth="1" NCoef="0" IVar="1" Cut="6.2356114387512207e+00" cType="1" res="-1.9686016440391541e-01" rms="4.4792315363883972e-01" purity="2.8641730546951294e-01" nType="0">
          <Node pos="l" depth="2" NCoef="0" IVar="-1" Cut="0.0000000000000000e+00" cType="1" res="-3.4818865824490786e-03" rms="3.6848685145378113e-01" purity="1.6409255564212799e-01" nType="-99"/>
          <Node pos="r" depth="2" NCoef="0" IVar="-1" Cut="0.0000000000000000e+00" cType="1" res="-1.6781764570623636e-03" rms="4.8469597101211548e-01" purity="3.8324633240699768e-01" nType="-99"/>
        </Node>
      </Node>
    </BinaryTree>
    <BinaryTree type="DecisionTree" boostWeight="1.0000000000000000e+00" itree="27">
      <Node pos="s" depth="0" NCoef="0" IVar="2" Cut="1.2842904329299927e+00" cType="1" res="2.0344860386103392e-03" rms="4.9134021997451782e-01" purity="5.1089668273925781e-01" nType="0">
        <Node pos="l" depth="1" NCoef="0" IVar="8" Cut="9.3959593772888184e-01" cType="1" res="7.2601601481437683e-02" rms="4.8643678426742554e-01" purity="5.9216904640197754e-01" nType="0">
          <Node pos="l" depth="2" NCoef="0" IVar="-1" Cut="0.0000000000000000e+00" cType="1" res="-6.9379055639728904e-04" rms="4.9577155709266663e-01" purity="4.4798433780670166e-01" nType="-99"/>
          <Node pos="r" depth="2" NCoef="0" IVar="-1" Cut="0.0000000000000000e+00" cType="1" res="2.7519217692315578e-03" rms="4.7335934638977051e-01" purity="6.5278136730194092e-01" nType="-99"/>
        </Node>
        <Node pos="r" depth="1" NCoef="0" IVar="1" Cut="8.0023269653320312e+00" cType="1" res="-1.5402056276798248e-01" rms="4.6545931696891785e-01" purity="3.3116760849952698e-01" nType="0">
          <Node pos="l" depth="2" NCoef="0" IVar="-1" Cut="0.0000000000000000e+00" cType="1" res="-2.6470825541764498e-03" rms="4.4287458062171936e-01" purity="2.7510076761245728e-01" nType="-99"/>
          <Node pos="r" depth="2" NCoef="0" IVar="-1" Cut="0.0000000000000000e+00" cType="1" res="1.4189354842528701e-03" rms="4.9179831147193909e-01" purity="5.6941497325897217e-01" nType="-99"/>
        </Node>
      </Node>
    </BinaryTree>
    <BinaryTree type="DecisionTree" boostWeight="1.0000000000000000e+00" itree="28">
      <Node pos="s" depth="0" NCoef="0" IVar="2" Cut="9.6363604068756104e-01" cType="1" res="-1.2217496521770954e-02" rms="4.8986604809761047e-01" purity="4.9555832147598267e-01" nType="0">
        <Node pos="l" depth="1" NCoef="0" IVar="6" Cut="9.2370718717575073e-02" cType="1" res="1.6207826137542725e-01" rms="4.5907899737358093e-01" purity="6.9142603874206543e-01" nType="0">
          <Node pos="l" depth="2" NCoef="0" IVar="-1" Cut="0.0000000000000000e+00" cType="1" res="3.8987316656857729e-04" rms="4.9496826529502869e-01" purity="5.4885011911392212e-01" nType="-99"/>
          <Node pos="r" depth="2" NCoef="0" IVar="-1" Cut="0.0000000000000000e+00" cType="1" res="9.0076345950365067e-03" rms="3.8366875052452087e-01" purity="8.1824254989624023e-01" nType="-99"/>
        </Node>
        <Node pos="r" depth="1" NCoef="0" IVar="8" Cut="9.4596177339553833e-01" cType="1" res="-1.0527114570140839e-01" rms="4.8030036687850952e-01" purity="3.9098778367042542e-01" nType="0">
          <Node pos="l" depth="2" NCoef="0" IVar="-1" Cut="0.0000000000000000e+00" cType="1" res="-2.6734885759651661e-03" rms="4.3603783845901489e-01" purity="2.6370558142662048e-01" nType="-99"/>
          <Node pos="r" depth="2" NCoef="0" IVar="-1" Cut="0.0000000000000000e+00" cType="1" res="-2.3999986296985298e-05" rms="4.9584627151489258e-01" purity="5.0901949405670166e-01" nType="-99"/>
        </Node>
      </Node>
    </BinaryTree>
    <BinaryTree type="DecisionTree" boostWeight="1.0000000000000000e+00" itree="29">
      <Node pos="s" depth="0" NCoef="0" IVar="2" Cut="9.7376924753189087e-01" cType="1" res="-1.3118652626872063e-02" rms="4.9040141701698303e-01" purity="4.9557456374168396e-01" nType="0">
        <Node pos="l" depth="1" NCoef="0" IVar="3" Cut="1.6062525939941406e+02" cType="1" res="1.4487555623054504e-01" rms="4.6384933590888977e-01" purity="6.7647767066955566e-01" nType="0">
          <Node pos="l" depth="2" NCoef="0" IVar="-1" Cut="0.0000000000000000e+00" cType="1" res="5.6199016980826855e-03" rms="4.3320256471633911e-01" purity="7.4553340673446655e-01" nType="-99"/>
          <Node pos="r" depth="2" NCoef="0" IVar="-1" Cut="0.0000000000000000e+00" cType="1" res="3.7704760325141251e-04" rms="4.9237847328186035e-01" purity="5.4833918809890747e-01" nType="-99"/>
        </Node>
        <Node pos="r" depth="1" NCoef="0" IVar="8" Cut="9.4812023639678955e-01" cType="1" res="-9.7980044782161713e-02" rms="4.8321178555488586e-01" purity="3.9840847253799438e-01" nType="0">
          <Node pos="l" depth="2" NCoef="0" IVar="-1" Cut="0.0000000000000000e+00" cType="1" res="-2.3755941074341536e-03" rms="4.5051741600036621e-01" purity="2.9092854261398315e-01" nType="-99"/>
          <Node pos="r" depth="2" NCoef="0" IVar="-1" Cut="0.0000000000000000e+00" cType="1" res="-1.5567817899864167e-04" rms="4.9624282121658325e-01" purity="5.0093609094619751e-01" nType="-99"/>
        </Node>
      </Node>
    </BinaryTree>
    <BinaryTree type="DecisionTree" boostWeight="1.0000000000000000e+00" itree="30">
      <Node pos="s" depth="0" NCoef="0" IVar="2" Cut="1.0353937149047852e+00" cType="1" res="-1.1883701197803020e-02" rms="4.9050027132034302e-01" purity="4.9741721153259277e-01" nType="0">
        <Node pos="l" depth="1" NCoef="0" IVar="1" Cut="7.1984062194824219e+00" cType="1" res="1.1173388361930847e-01" rms="4.7475722432136536e-01" purity="6.4179277420043945e-01" nType="0">
          <Node pos="l" depth="2" NCoef="0" IVar="-1" Cut="0.0000000000000000e+00" cType="1" res="3.9927390753291547e-04" rms="4.9646806716918945e-01" purity="5.4123371839523315e-01" nType="-99"/>
          <Node pos="r" depth="2" NCoef="0" IVar="-1" Cut="0.0000000000000000e+00" cType="1" res="6.0791904106736183e-03" rms="4.2552256584167480e-01" purity="7.5854337215423584e-01" nType="-99"/>
        </Node>
        <Node pos="r" depth="1" NCoef="0" IVar="5" Cut="1.7992968559265137e+00" cType="1" res="-1.0201051831245422e-01" rms="4.8208457231521606e-01" purity="3.9215624332427979e-01" nType="0">
          <Node pos="l" depth="2" NCoef="0" IVar="-1" Cut="0.0000000000000000e+00" cType="1" res="-6.9421337684616446e-04" rms="4.9228826165199280e-01" purity="4.5374345779418945e-01" nType="-99"/>
          <Node pos="r" depth="2" NCoef="0" IVar="-1" Cut="0.0000000000000000e+00" cType="1" res="-3.0619704630225897e-03" rms="4.2523396015167236e-01" purity="2.4170826375484467e-01" nType="-99"/>
        </Node>
      </Node>
    </BinaryTree>
    <BinaryTree type="DecisionTree" boostWeight="1.0000000000000000e+00" itree="31">
      <Node pos="s" depth="0" NCoef="0" IVar="2" Cut="1.4698472023010254e+00" cType="1" res="-3.3836945891380310e-02" rms="4.8936307430267334e-01" purity="4.7608697414398193e-01" nType="0">
        <Node pos="l" depth="1" NCoef="0" IVar="8" Cut="9.3376451730728149e-01" cType="1" res="1.4545691199600697e-02" rms="4.9144950509071350e-01" purity="5.3178721666336060e-01" nType="0">
          <Node pos="l" depth="2" NCoef="0" IVar="-1" Cut="0.0000000000000000e+00" cType="1" res="-1.9169152947142720e-03" rms="4.6841463446617126e-01" purity="3.3131200075149536e-01" nType="-99"/>
          <Node pos="r" depth="2" NCoef="0" IVar="-1" Cut="0.0000000000000000e+00" cType="1" res="1.3052005087956786e-03" rms="4.8661503195762634e-01" purity="5.9185338020324707e-01" nType="-99"/>
        </Node>
        <Node pos="r" depth="1" NCoef="0" IVar="4" Cut="8.0002166748046875e+01" cType="1" res="-2.4960333108901978e-01" rms="4.1635996103286743e-01" purity="2.2768744826316833e-01" nType="0">
          <Node pos="l" depth="2" NCoef="0" IVar="-1" Cut="0.0000000000000000e+00" cType="1" res="-3.6428726743906736e-03" rms="3.7493380904197693e-01" purity="1.7205867171287537e-01" nType="-99"/>
          <Node pos="r" depth="2" NCoef="0" IVar="-1" Cut="0.0000000000000000e+00" cType="1" res="-2.4440067354589701e-03" rms="4.5333629846572876e-01" purity="2.9771474003791809e-01" nType="-99"/>
        </Node>
      </Node>
    </BinaryTree>
    <BinaryTree type="DecisionTree" boostWeight="1.0000000000000000e+00" itree="32">
      <Node pos="s" depth="0" NCoef="0" IVar="2" Cut="1.1261955499649048e+00" cType="1" res="-7.5465575791895390e-03" rms="4.8806065320968628e-01" purity="5.0097447633743286e-01" nType="0">
        <Node pos="l" depth="1" NCoef="0" IVar="1" Cut="6.7367868423461914e+00" cType="1" res="1.0780534893274307e-01" rms="4.7546207904815674e-01" purity="6.3592898845672607e-01" nType="0">
          <Node pos="l" depth="2" NCoef="0" IVar="-1" Cut="0.0000000000000000e+00" cType="1" res="-5.8317815273767337e-05" rms="4.9854341149330139e-01" purity="5.0543451309204102e-01" nType="-99"/>
          <Node pos="r" depth="2" NCoef="0" IVar="-1" Cut="0.0000000000000000e+00" cType="1" res="4.8020076937973499e-03" rms="4.4238752126693726e-01" purity="7.2690975666046143e-01" nType="-99"/>
        </Node>
        <Node pos="r" depth="1" NCoef="0" IVar="1" Cut="6.8222160339355469e+00" cType="1" res="-1.3680717349052429e-01" rms="4.6924099326133728e-01" purity="3.4974765777587891e-01" nType="0">
          <Node pos="l" depth="2" NCoef="0" IVar="-1" Cut="0.0000000000000000e+00" cType="1" res="-2.8655098285526037e-03" rms="4.2199718952178955e-01" purity="2.3748724162578583e-01" nType="-99"/>
          <Node pos="r" depth="2" NCoef="0" IVar="-1" Cut="0.0000000000000000e+00" cType="1" res="-6.3063763082027435e-04" rms="4.9240460991859436e-01" purity="4.6248635649681091e-01" nType="-99"/>
        </Node>
      </Node>
    </BinaryTree>
    <BinaryTree type="DecisionTree" boostWeight="1.0000000000000000e+00" itree="33">
      <Node pos="s" depth="0" NCoef="0" IVar="1" Cut="7.7995853424072266e+00" cType="1" res="-1.3616553507745266e-02" rms="4.8810544610023499e-01" purity="4.9729594588279724e-01" nType="0">
        <Node pos="l" depth="1" NCoef="0" IVar="2" Cut="1.3337917327880859e+00" cType="1" res="-7.9820506274700165e-02" rms="4.8393839597702026e-01" purity="4.2312991619110107e-01" nType="0">
          <Node pos="l" depth="2" NCoef="0" IVar="-1" Cut="0.0000000000000000e+00" cType="1" res="-3.4200877416878939e-04" rms="4.9300047755241394e-01" purity="4.9374508857727051e-01" nType="-99"/>
          <Node pos="r" depth="2" NCoef="0" IVar="-1" Cut="0.0000000000000000e+00" cType="1" res="-2.8434705454856157e-03" rms="4.2214563488960266e-01" purity="2.3828591406345367e-01" nType="-99"/>
        </Node>
        <Node pos="r" depth="1" NCoef="0" IVar="2" Cut="8.8689112663269043e-01" cType="1" res="1.6272923350334167e-01" rms="4.5416256785392761e-01" purity="6.9484990835189819e-01" nType="0">
          <Node pos="l" depth="2" NCoef="0" IVar="-1" Cut="0.0000000000000000e+00" cType="1" res="9.3974163755774498e-03" rms="3.6102882027626038e-01" purity="8.4384804964065552e-01" nType="-99"/>
          <Node pos="r" depth="2" NCoef="0" IVar="-1" Cut="0.0000000000000000e+00" cType="1" res="2.0017102360725403e-03" rms="4.8415720462799072e-01" purity="6.1283743381500244e-01" nType="-99"/>
        </Node>
      </Node>
    </BinaryTree>
    <BinaryTree type="DecisionTree" boostWeight="1.0000000000000000e+00" itree="34">
      <Node pos="s" depth="0" NCoef="0" IVar="2" Cut="1.3595986366271973e+00" cType="1" res="-1.2871048413217068e-02" rms="4.9007532000541687e-01" purity="4.9925875663757324e-01" nType="0">
        <Node pos="l" depth="1" NCoef="0" IVar="3" Cut="2.9119110107421875e+02" cType="1" res="4.2735163122415543e-02" rms="4.8953893780708313e-01" purity="5.6633061170578003e-01" nType="0">
          <Node pos="l" depth="2" NCoef="0" IVar="-1" Cut="0.0000000000000000e+00" cType="1" res="1.4655503910034895e-03" rms="4.8456576466560364e-01" purity="5.9934711456298828e-01" nType="-99"/>
          <Node pos="r" depth="2" NCoef="0" IVar="-1" Cut="0.0000000000000000e+00" cType="1" res="-1.8212378490716219e-03" rms="4.8336616158485413e-01" purity="3.8918662071228027e-01" nType="-99"/>
        </Node>
        <Node pos="r" depth="1" NCoef="0" IVar="7" Cut="3.8700270652770996e-01" cType="1" res="-1.8461060523986816e-01" rms="4.5028045773506165e-01" purity="2.9210776090621948e-01" nType="0">
          <Node pos="l" depth="2" NCoef="0" IVar="-1" Cut="0.0000000000000000e+00" cType="1" res="-3.4044589847326279e-03" rms="4.0322956442832947e-01" purity="2.1106027066707611e-01" nType="-99"/>
          <Node pos="r" depth="2" NCoef="0" IVar="-1" Cut="0.0000000000000000e+00" cType="1" res="-1.4700012980028987e-03" rms="4.8088809847831726e-01" purity="3.7815582752227783e-01" nType="-99"/>
        </Node>
      </Node>
    </BinaryTree>
    <BinaryTree type="DecisionTree" boostWeight="1.0000000000000000e+00" itree="35">
      <Node pos="s" depth="0" NCoef="0" IVar="2" Cut="9.4376343488693237e-01" cType="1" res="-2.0103282295167446e-03" rms="4.8789539933204651e-01" purity="5.0800603628158569e-01" nType="0">
        <Node pos="l" depth="1" NCoef="0" IVar="1" Cut="6.7737374305725098e+00" cType="1" res="1.4709419012069702e-01" rms="4.5886209607124329e-01" purity="6.8631148338317871e-01" nType="0">
          <Node pos="l" depth="2" NCoef="0" IVar="-1" Cut="0.0000000000000000e+00" cType="1" res="6.6901295213028789e-04" rms="4.9602046608924866e-01" purity="5.5342286825180054e-01" nType="-99"/>
          <Node pos="r" depth="2" NCoef="0" IVar="-1" Cut="0.0000000000000000e+00" cType="1" res="6.4211646094918251e-03" rms="4.1640874743461609e-01" purity="7.7475857734680176e-01" nType="-99"/>
        </Node>
        <Node pos="r" depth="1" NCoef="0" IVar="0" Cut="2.4860305786132812e+00" cType="1" res="-7.7385507524013519e-02" rms="4.8478570580482483e-01" purity="4.1786924004554749e-01" nType="0">
          <Node pos="l" depth="2" NCoef="0" IVar="-1" Cut="0.0000000000000000e+00" cType="1" res="-3.7906371289864182e-04" rms="4.9394640326499939e-01" purity="4.8159438371658325e-01" nType="-99"/>
          <Node pos="r" depth="2" NCoef="0" IVar="-1" Cut="0.0000000000000000e+00" cType="1" res="-2.9788168612867594e-03" rms="4.2545825242996216e-01" purity="2.4362111091613770e-01" nType="-99"/>
        </Node>
      </Node>
    </BinaryTree>
    <BinaryTree type="DecisionTree" boostWeight="1.0000000000000000e+00" itree="36">
      <Node pos="s" depth="0" NCoef="0" IVar="2" Cut="1.0021853446960449e+00" cType="1" res="-3.4179169684648514e-02" rms="4.8734632134437561e-01" purity="4.7686663269996643e-01" nType="0">
        <Node pos="l" depth="1" NCoef="0" IVar="6" Cut="1.3422781229019165e-01" cType="1" res="8.7124302983283997e-02" rms="4.7849875688552856e-01" purity="6.2639611959457397e-01" nType="0">
          <Node pos="l" depth="2" NCoef="0" IVar="-1" Cut="0.0000000000000000e+00" cType="1" res="4.8620323650538921e-04" rms="4.9082070589065552e-01" purity="5.6309050321578979e-01" nType="-99"/>
          <Node pos="r" depth="2" NCoef="0" IVar="-1" Cut="0.0000000000000000e+00" cType="1" res="5.5693681351840496e-03" rms="4.2577290534973145e-01" purity="7.5620937347412109e-01" nType="-99"/>
        </Node>
        <Node pos="r" depth="1" NCoef="0" IVar="1" Cut="7.2173647880554199e+00" cType="1" res="-1.1739454418420792e-01" rms="4.7576203942298889e-01" purity="3.7428787350654602e-01" nType="0">
          <Node pos="l" depth="2" NCoef="0" IVar="-1" Cut="0.0000000000000000e+00" cType="1" res="-2.4137194268405437e-03" rms="4.4796398282051086e-01" purity="2.9089003801345825e-01" nType="-99"/>
          <Node pos="r" depth="2" NCoef="0" IVar="-1" Cut="0.0000000000000000e+00" cType="1" res="-2.5254956563003361e-04" rms="4.9594062566757202e-01" purity="4.9623367190361023e-01" nType="-99"/>
        </Node>
      </Node>
    </BinaryTree>
    <BinaryTree type="DecisionTree" boostWeight="1.0000000000000000e+00" itree="37">
      <Node pos="s" depth="0" NCoef="0" IVar="2" Cut="1.0354509353637695e+00" cType="1" res="8.8254883885383606e-03" rms="4.8577153682708740e-01" purity="5.1980417966842651e-01" nType="0">
        <Node pos="l" depth="1" NCoef="0" IVar="1" Cut="6.0980167388916016e+00" cType="1" res="1.4874489605426788e-01" rms="4.5686852931976318e-01" purity="6.8850576877593994e-01" nType="0">
          <Node pos="l" depth="2" NCoef="0" IVar="-1" Cut="0.0000000000000000e+00" cType="1" res="-6.2742055160924792e-04" rms="4.9706748127937317e-01" purity="4.6306237578392029e-01" nType="-99"/>
          <Node pos="r" depth="2" NCoef="0" IVar="-1" Cut="0.0000000000000000e+00" cType="1" res="5.3597167134284973e-03" rms="4.3250659108161926e-01" purity="7.4725145101547241e-01" nType="-99"/>
        </Node>
        <Node pos="r" depth="1" NCoef="0" IVar="8" Cut="9.4780570268630981e-01" cType="1" res="-9.7991034388542175e-02" rms="4.8001858592033386e-01" purity="3.9101487398147583e-01" nType="0">
          <Node pos="l" depth="2" NCoef="0" IVar="-1" Cut="0.0000000000000000e+00" cType="1" res="-2.3597716353833675e-03" rms="4.4516190886497498e-01" purity="2.8064918518066406e-01" nType="-99"/>
          <Node pos="r" depth="2" NCoef="0" IVar="-1" Cut="0.0000000000000000e+00" cType="1" res="-2.8783100424334407e-04" rms="4.9425473809242249e-01" purity="4.8684954643249512e-01" nType="-99"/>
        </Node>
      </Node>
    </BinaryTree>
    <BinaryTree type="DecisionTree" boostWeight="1.0000000000000000e+00" itree="38">
      <Node pos="s" depth="0" NCoef="0" IVar="2" Cut="1.3961629867553711e+00" cType="1" res="1.2420768849551678e-02" rms="4.8721155524253845e-01" purity="5.2562248706817627e-01" nType="0">
        <Node pos="l" depth="1" NCoef="0" IVar="1" Cut="7.1688508987426758e+00" cType="1" res="6.3935063779354095e-02" rms="4.8395863175392151e-01" purity="5.8839362859725952e-01" nType="0">
          <Node pos="l" depth="2" NCoef="0" IVar="-1" Cut="0.0000000000000000e+00" cType="1" res="-2.7850636979565024e-04" rms="4.9308294057846069e-01" purity="4.8885545134544373e-01" nType="-99"/>
          <Node pos="r" depth="2" NCoef="0" IVar="-1" Cut="0.0000000000000000e+00" cType="1" res="3.7079821340739727e-03" rms="4.5735791325569153e-01" purity="6.9825541973114014e-01" nType="-99"/>
        </Node>
        <Node pos="r" depth="1" NCoef="0" IVar="1" Cut="7.7488455772399902e+00" cType="1" res="-1.7491900920867920e-01" rms="4.5179298520088196e-01" purity="2.9734522104263306e-01" nType="0">
          <Node pos="l" depth="2" NCoef="0" IVar="-1" Cut="0.0000000000000000e+00" cType="1" res="-2.8261272236704826e-03" rms="4.2156746983528137e-01" purity="2.3610953986644745e-01" nType="-99"/>
          <Node pos="r" depth="2" NCoef="0" IVar="-1" Cut="0.0000000000000000e+00" cType="1" res="-8.3010428352281451e-04" rms="4.9401202797889709e-01" purity="4.4255012273788452e-01" nType="-99"/>
        </Node>
      </Node>
    </BinaryTree>
    <BinaryTree type="DecisionTree" boostWeight="1.0000000000000000e+00" itree="39">
      <Node pos="s" depth="0" NCoef="0" IVar="1" Cut="7.2350335121154785e+00" cType="1" res="-3.7142809480428696e-02" rms="4.8912551999092102e-01" purity="4.7554719448089600e-01" nType="0">
        <Node pos="l" depth="1" NCoef="0" IVar="2" Cut="1.3602049350738525e+00" cType="1" res="-1.0797335207462311e-01" rms="4.7997516393661499e-01" purity="3.8821986317634583e-01" nType="0">
          <Node pos="l" depth="2" NCoef="0" IVar="-1" Cut="0.0000000000000000e+00" cType="1" res="-1.0520938085392118e-03" rms="4.9206608533859253e-01" purity="4.4041863083839417e-01" nType="-99"/>
          <Node pos="r" depth="2" NCoef="0" IVar="-1" Cut="0.0000000000000000e+00" cType="1" res="-2.7986427303403616e-03" rms="4.2086488008499146e-01" purity="2.3442476987838745e-01" nType="-99"/>
        </Node>
        <Node pos="r" depth="1" NCoef="0" IVar="0" Cut="2.2190499305725098e+00" cType="1" res="6.0081515461206436e-02" rms="4.8484715819358826e-01" purity="5.9541541337966919e-01" nType="0">
          <Node pos="l" depth="2" NCoef="0" IVar="-1" Cut="0.0000000000000000e+00" cType="1" res="2.7265774551779032e-03" rms="4.6778041124343872e-01" purity="6.6651737689971924e-01" nType="-99"/>
          <Node pos="r" depth="2" NCoef="0" IVar="-1" Cut="0.0000000000000000e+00" cType="1" res="-7.2816654574126005e-04" rms="4.9867594242095947e-01" purity="4.6535074710845947e-01" nType="-99"/>
        </Node>
      </Node>
    </BinaryTree>
    <BinaryTree type="DecisionTree" boostWeight="1.0000000000000000e+00" itree="40">
      <Node pos="s" depth="0" NCoef="0" IVar="0" Cut="2.3953969478607178e+00" cType="1" res="-3.4074984490871429e-02" rms="4.8594939708709717e-01" purity="4.7752457857131958e-01" nType="0">
        <Node pos="l" depth="1" NCoef="0" IVar="8" Cut="9.3960320949554443e-01" cType="1" res="2.3557649925351143e-02" rms="4.8811149597167969e-01" purity="5.4804325103759766e-01" nType="0">
          <Node pos="l" depth="2" NCoef="0" IVar="-1" Cut="0.0000000000000000e+00" cType="1" res="-1.8924354808405042e-03" rms="4.7301420569419861e-01" purity="3.5157081484794617e-01" nType="-99"/>
          <Node pos="r" depth="2" NCoef="0" IVar="-1" Cut="0.0000000000000000e+00" cType="1" res="2.0911660976707935e-03" rms="4.7673171758651733e-01" purity="6.3674885034561157e-01" nType="-99"/>
        </Node>
        <Node pos="r" depth="1" NCoef="0" IVar="5" Cut="1.4859026670455933e+00" cType="1" res="-2.2071787714958191e-01" rms="4.2864236235618591e-01" purity="2.4915021657943726e-01" nType="0">
          <Node pos="l" depth="2" NCoef="0" IVar="-1" Cut="0.0000000000000000e+00" cType="1" res="-1.9650869071483612e-03" rms="4.6911618113517761e-01" purity="3.3773255348205566e-01" nType="-99"/>
          <Node pos="r" depth="2" NCoef="0" IVar="-1" Cut="0.0000000000000000e+00" cType="1" res="-3.4751375205814838e-03" rms="3.8692444562911987e-01" purity="1.8684445321559906e-01" nType="-99"/>
        </Node>
      </Node>
    </BinaryTree>
    <BinaryTree type="DecisionTree" boostWeight="1.0000000000000000e+00" itree="41">
      <Node pos="s" depth="0" NCoef="0" IVar="0" Cut="2.5037553310394287e+00" cType="1" res="1.7380768433213234e-02" rms="4.8618048429489136e-01" purity="5.3040891885757446e-01" nType="0">
        <Node pos="l" depth="1" NCoef="0" IVar="1" Cut="5.9787526130676270e+00" cType="1" res="6.5139509737491608e-02" rms="4.8373666405677795e-01" purity="5.8808207511901855e-01" nType="0">
          <Node pos="l" depth="2" NCoef="0" IVar="-1" Cut="0.0000000000000000e+00" cType="1" res="-1.3964030658826232e-03" rms="4.8103693127632141e-01" purity="3.8438847661018372e-01" nType="-99"/>
          <Node pos="r" depth="2" NCoef="0" IVar="-1" Cut="0.0000000000000000e+00" cType="1" res="2.4063184391707182e-03" rms="4.7486722469329834e-01" purity="6.4329421520233154e-01" nType="-99"/>
        </Node>
        <Node pos="r" depth="1" NCoef="0" IVar="2" Cut="1.4558321237564087e+00" cType="1" res="-2.1990016102790833e-01" rms="4.2486870288848877e-01" purity="2.4386976659297943e-01" nType="0">
          <Node pos="l" depth="2" NCoef="0" IVar="-1" Cut="0.0000000000000000e+00" cType="1" res="-2.4841476697474718e-03" rms="4.5542162656784058e-01" purity="3.0205348134040833e-01" nType="-99"/>
          <Node pos="r" depth="2" NCoef="0" IVar="-1" Cut="0.0000000000000000e+00" cType="1" res="-3.3247785177081823e-03" rms="3.9119774103164673e-01" purity="1.9288356602191925e-01" nType="-99"/>
        </Node>
      </Node>
    </BinaryTree>
    <BinaryTree type="DecisionTree" boostWeight="1.0000000000000000e+00" itree="42">
      <Node pos="s" depth="0" NCoef="0" IVar="3" Cut="1.5965296936035156e+02" cType="1" res="3.6425544749363326e-06" rms="4.8792386054992676e-01" purity="5.1494824886322021e-01" nType="0">
        <Node pos="l" depth="1" NCoef="0" IVar="8" Cut="9.4575989246368408e-01" cType="1" res="7.3072127997875214e-02" rms="4.7791290283203125e-01" purity="5.9265452623367310e-01" nType="0">
          <Node pos="l" depth="2" NCoef="0" IVar="-1" Cut="0.0000000000000000e+00" cType="1" res="-1.1952758068218827e-03" rms="4.8645433783531189e-01" purity="4.1392040252685547e-01" nType="-99"/>
          <Node pos="r" depth="2" NCoef="0" IVar="-1" Cut="0.0000000000000000e+00" cType="1" res="4.3603964149951935e-03" rms="4.4510543346405029e-01" purity="7.0906424522399902e-01" nType="-99"/>
        </Node>
        <Node pos="r" depth="1" NCoef="0" IVar="1" Cut="8.3021345138549805e+00" cType="1" res="-9.5869570970535278e-02" rms="4.8431324958801270e-01" purity="4.1298985481262207e-01" nType="0">
          <Node pos="l" depth="2" NCoef="0" IVar="-1" Cut="0.0000000000000000e+00" cType="1" res="-1.8209971021860838e-03" rms="4.7651970386505127e-01" purity="3.6966025829315186e-01" nType="-99"/>
          <Node pos="r" depth="2" NCoef="0" IVar="-1" Cut="0.0000000000000000e+00" cType="1" res="4.9762352136895061e-04" rms="4.9061346054077148e-01" purity="5.5730646848678589e-01" nType="-99"/>
        </Node>
      </Node>
    </BinaryTree>
    <BinaryTree type="DecisionTree" boostWeight="1.0000000000000000e+00" itree="43">
      <Node pos="s" depth="0" NCoef="0" IVar="8" Cut="9.4939708709716797e-01" cType="1" res="-1.1969710700213909e-02" rms="4.8628857731819153e-01" purity="5.0147247314453125e-01" nType="0">
        <Node pos="l" depth="1" NCoef="0" IVar="2" Cut="1.0616703033447266e+00" cType="1" res="-1.2258783727884293e-01" rms="4.7397923469543457e-01" purity="3.6788243055343628e-01" nType="0">
          <Node pos="l" depth="2" NCoef="0" IVar="-1" Cut="0.0000000000000000e+00" cType="1" res="-4.4130836613476276e-05" rms="4.9771791696548462e-01" purity="5.1434862613677979e-01" nType="-99"/>
          <Node pos="r" depth="2" NCoef="0" IVar="-1" Cut="0.0000000000000000e+00" cType="1" res="-2.5977320037782192e-03" rms="4.3496215343475342e-01" purity="2.5978112220764160e-01" nType="-99"/>
        </Node>
        <Node pos="r" depth="1" NCoef="0" IVar="0" Cut="2.2193539142608643e+00" cType="1" res="8.1788130104541779e-02" rms="4.7679486870765686e-01" purity="6.1470091342926025e-01" nType="0">
          <Node pos="l" depth="2" NCoef="0" IVar="-1" Cut="0.0000000000000000e+00" cType="1" res="4.4704228639602661e-03" rms="4.4350659847259521e-01" purity="7.2436237335205078e-01" nType="-99"/>
          <Node pos="r" depth="2" NCoef="0" IVar="-1" Cut="0.0000000000000000e+00" cType="1" res="-9.6312735695391893e-04" rms="4.9213027954101562e-01" purity="4.4417205452919006e-01" nType="-99"/>
        </Node>
      </Node>
    </BinaryTree>
    <BinaryTree type="DecisionTree" boostWeight="1.0000000000000000e+00" itree="44">
      <Node pos="s" depth="0" NCoef="0" IVar="1" Cut="7.2008347511291504e+00" cType="1" res="2.3702137696091086e-05" rms="4.8519167304039001e-01" purity="5.1274198293685913e-01" nType="0">
        <Node pos="l" depth="1" NCoef="0" IVar="5" Cut="1.6326786279678345e+00" cType="1" res="-9.4722606241703033e-02" rms="4.7825515270233154e-01" purity="3.9556962251663208e-01" nType="0">
          <Node pos="l" depth="2" NCoef="0" IVar="-1" Cut="0.0000000000000000e+00" cType="1" res="-6.4207095419988036e-04" rms="4.8958477377891541e-01" purity="4.5706412196159363e-01" nType="-99"/>
          <Node pos="r" depth="2" NCoef="0" IVar="-1" Cut="0.0000000000000000e+00" cType="1" res="-3.0303047969937325e-03" rms="4.0999764204025269e-01" purity="2.2357425093650818e-01" nType="-99"/>
        </Node>
        <Node pos="r" depth="1" NCoef="0" IVar="2" Cut="8.3619230985641479e-01" cType="1" res="1.1126159876585007e-01" rms="4.6940803527832031e-01" purity="6.5030932426452637e-01" nType="0">
          <Node pos="l" depth="2" NCoef="0" IVar="-1" Cut="0.0000000000000000e+00" cType="1" res="7.7663892880082130e-03" rms="3.8554003834724426e-01" purity="8.1703352928161621e-01" nType="-99"/>
          <Node pos="r" depth="2" NCoef="0" IVar="-1" Cut="0.0000000000000000e+00" cType="1" res="1.2147900415584445e-03" rms="4.8839870095252991e-01" purity="5.8608621358871460e-01" nType="-99"/>
        </Node>
      </Node>
    </BinaryTree>
    <BinaryTree type="DecisionTree" boostWeight="1.0000000000000000e+00" itree="45">
      <Node pos="s" depth="0" NCoef="0" IVar="2" Cut="1.3750593662261963e+00" cType="1" res="-6.3681816682219505e-03" rms="4.8623383045196533e-01" purity="5.0823098421096802e-01" nType="0">
        <Node pos="l" depth="1" NCoef="0" IVar="8" Cut="9.3959730863571167e-01" cType="1" res="4.1254520416259766e-02" rms="4.8512694239616394e-01" purity="5.6942093372344971e-01" nType="0">
          <Node pos="l" depth="2" NCoef="0" IVar="-1" Cut="0.0000000000000000e+00" cType="1" res="-1.3761274749413133e-03" rms="4.8526740074157715e-01" purity="3.8995972275733948e-01" nType="-99"/>
          <Node pos="r" depth="2" NCoef="0" IVar="-1" Cut="0.0000000000000000e+00" cType="1" res="2.1224848460406065e-03" rms="4.7349989414215088e-01" purity="6.4087623357772827e-01" nType="-99"/>
        </Node>
        <Node pos="r" depth="1" NCoef="0" IVar="4" Cut="9.9135353088378906e+01" cType="1" res="-1.6324213147163391e-01" rms="4.5594406127929688e-01" purity="3.0666521191596985e-01" nType="0">
          <Node pos="l" depth="2" NCoef="0" IVar="-1" Cut="0.0000000000000000e+00" cType="1" res="-2.7778674848377705e-03" rms="4.3196618556976318e-01" purity="2.5743910670280457e-01" nType="-99"/>
          <Node pos="r" depth="2" NCoef="0" IVar="-1" Cut="0.0000000000000000e+00" cType="1" res="-9.6610491164028645e-04" rms="4.8362204432487488e-01" purity="4.0243196487426758e-01" nType="-99"/>
        </Node>
      </Node>
    </BinaryTree>
    <BinaryTree type="DecisionTree" boostWeight="1.0000000000000000e+00" itree="46">
      <Node pos="s" depth="0" NCoef="0" IVar="0" Cut="2.4092085361480713e+00" cType="1" res="2.7449952904134989e-03" rms="4.8591777682304382e-01" purity="5.1820617914199829e-01" nType="0">
        <Node pos="l" depth="1" NCoef="0" IVar="8" Cut="9.4783926010131836e-01" cType="1" res="5.6026291102170944e-02" rms="4.8430955410003662e-01" purity="5.8522427082061768e-01" nType="0">
          <Node pos="l" depth="2" NCoef="0" IVar="-1" Cut="0.0000000000000000e+00" cType="1" res="-4.6467856736853719e-04" rms="4.9301770329475403e-01" purity="4.6923124790191650e-01" nType="-99"/>
          <Node pos="r" depth="2" NCoef="0" IVar="-1" Cut="0.0000000000000000e+00" cType="1" res="2.6569557376205921e-03" rms="4.6953883767127991e-01" purity="6.6381567716598511e-01" nType="-99"/>
        </Node>
        <Node pos="r" depth="1" NCoef="0" IVar="2" Cut="1.4884310960769653e+00" cType="1" res="-1.8832169473171234e-01" rms="4.4161593914031982e-01" purity="2.7787941694259644e-01" nType="0">
          <Node pos="l" depth="2" NCoef="0" IVar="-1" Cut="0.0000000000000000e+00" cType="1" res="-1.6298613045364618e-03" rms="4.7858291864395142e-01" purity="3.7072515487670898e-01" nType="-99"/>
          <Node pos="r" depth="2" NCoef="0" IVar="-1" Cut="0.0000000000000000e+00" cType="1" res="-3.3642323687672615e-03" rms="3.8346254825592041e-01" purity="1.8235483765602112e-01" nType="-99"/>
        </Node>
      </Node>
    </BinaryTree>
    <BinaryTree type="DecisionTree" boostWeight="1.0000000000000000e+00" itree="47">
      <Node pos="s" depth="0" NCoef="0" IVar="2" Cut="9.1483777761459351e-01" cType="1" res="-1.1903887614607811e-02" rms="4.8502832651138306e-01" purity="5.0233387947082520e-01" nType="0">
        <Node pos="l" depth="1" NCoef="0" IVar="6" Cut="6.4257413148880005e-02" cType="1" res="1.3768398761749268e-01" rms="4.5648902654647827e-01" purity="6.9229215383529663e-01" nType="0">
          <Node pos="l" depth="2" NCoef="0" IVar="-1" Cut="0.0000000000000000e+00" cType="1" res="1.0708314221119508e-04" rms="4.9236476421356201e-01" purity="5.5298829078674316e-01" nType="-99"/>
          <Node pos="r" depth="2" NCoef="0" IVar="-1" Cut="0.0000000000000000e+00" cType="1" res="4.8386398702859879e-03" rms="4.3271222710609436e-01" purity="7.4319803714752197e-01" nType="-99"/>
        </Node>
        <Node pos="r" depth="1" NCoef="0" IVar="0" Cut="2.6879096031188965e+00" cType="1" res="-8.0251678824424744e-02" rms="4.8232176899909973e-01" purity="4.1554057598114014e-01" nType="0">
          <Node pos="l" depth="2" NCoef="0" IVar="-1" Cut="0.0000000000000000e+00" cType="1" res="-7.4415915878489614e-04" rms="4.9005395174026489e-01" purity="4.5573657751083374e-01" nType="-99"/>
          <Node pos="r" depth="2" NCoef="0" IVar="-1" Cut="0.0000000000000000e+00" cType="1" res="-3.6342255771160126e-03" rms="3.5157531499862671e-01" purity="1.4709809422492981e-01" nType="-99"/>
        </Node>
      </Node>
    </BinaryTree>
    <BinaryTree type="DecisionTree" boostWeight="1.0000000000000000e+00" itree="48">
      <Node pos="s" depth="0" NCoef="0" IVar="0" Cut="2.1367099285125732e+00" cType="1" res="-2.2413298487663269e-02" rms="4.8579302430152893e-01" purity="4.9298194050788879e-01" nType="0">
        <Node pos="l" depth="1" NCoef="0" IVar="8" Cut="9.4818556308746338e-01" cType="1" res="7.6481759548187256e-02" rms="4.7703593969345093e-01" purity="6.1473095417022705e-01" nType="0">
          <Node pos="l" depth="2" NCoef="0" IVar="-1" Cut="0.0000000000000000e+00" cType="1" res="-6.5296300454065204e-04" rms="4.9253717064857483e-01" purity="4.6179944276809692e-01" nType="-99"/>
          <Node pos="r" depth="2" NCoef="0" IVar="-1" Cut="0.0000000000000000e+00" cType="1" res="4.3859495781362057e-03" rms="4.4570305943489075e-01" purity="7.2550565004348755e-01" nType="-99"/>
        </Node>
        <Node pos="r" depth="1" NCoef="0" IVar="4" Cut="8.5040779113769531e+01" cType="1" res="-1.1842558532953262e-01" rms="4.7483381628990173e-01" purity="3.7478187680244446e-01" nType="0">
          <Node pos="l" depth="2" NCoef="0" IVar="-1" Cut="0.0000000000000000e+00" cType="1" res="-2.5247007142752409e-03" rms="4.4834354519844055e-01" purity="2.9741442203521729e-01" nType="-99"/>
          <Node pos="r" depth="2" NCoef="0" IVar="-1" Cut="0.0000000000000000e+00" cType="1" res="-5.6656141532585025e-04" rms="4.8822355270385742e-01" purity="4.5878967642784119e-01" nType="-99"/>
        </Node>
      </Node>
    </BinaryTree>
    <BinaryTree type="DecisionTree" boostWeight="1.0000000000000000e+00" itree="49">
      <Node pos="s" depth="0" NCoef="0" IVar="0" Cut="2.4056677818298340e+00" cType="1" res="-2.8035402297973633e-02" rms="4.8527455329895020e-01" purity="4.8626571893692017e-01" nType="0">
        <Node pos="l" depth="1" NCoef="0" IVar="8" Cut="9.4521647691726685e-01" cType="1" res="2.4728158488869667e-02" rms="4.8762264847755432e-01" purity="5.5451709032058716e-01" nType="0">
          <Node pos="l" depth="2" NCoef="0" IVar="-1" Cut="0.0000000000000000e+00" cType="1" res="-1.1595736723393202e-03" rms="4.8792994022369385e-01" purity="4.1820731759071350e-01" nType="-99"/>
          <Node pos="r" depth="2" NCoef="0" IVar="-1" Cut="0.0000000000000000e+00" cType="1" res="1.9144827965646982e-03" rms="4.7638380527496338e-01" purity="6.4148443937301636e-01" nType="-99"/>
        </Node>
        <Node pos="r" depth="1" NCoef="0" IVar="2" Cut="1.2834064960479736e+00" cType="1" res="-2.0032981038093567e-01" rms="4.3503499031066895e-01" purity="2.6339730620384216e-01" nType="0">
          <Node pos="l" depth="2" NCoef="0" IVar="-1" Cut="0.0000000000000000e+00" cType="1" res="-1.2604409130290151e-03" rms="4.8504528403282166e-01" purity="4.0178245306015015e-01" nType="-99"/>
          <Node pos="r" depth="2" NCoef="0" IVar="-1" Cut="0.0000000000000000e+00" cType="1" res="-3.2020111102610826e-03" rms="4.0060904622077942e-01" purity="2.0310120284557343e-01" nType="-99"/>
        </Node>
      </Node>
    </BinaryTree>
    <BinaryTree type="DecisionTree" boostWeight="1.0000000000000000e+00" itree="50">
      <Node pos="s" depth="0" NCoef="0" IVar="1" Cut="7.3649868965148926e+00" cType="1" res="-3.0993122607469559e-02" rms="4.8437494039535522e-01" purity="4.8095104098320007e-01" nType="0">
        <Node pos="l" depth="1" NCoef="0" IVar="5" Cut="1.6450320482254028e+00" cType="1" res="-9.8131410777568817e-02" rms="4.7829157114028931e-01" purity="3.9489841461181641e-01" nType="0">
          <Node pos="l" depth="2" NCoef="0" IVar="-1" Cut="0.0000000000000000e+00" cType="1" res="-7.6666288077831268e-04" rms="4.8879390954971313e-01" purity="4.5037367939949036e-01" nType="-99"/>
          <Node pos="r" depth="2" NCoef="0" IVar="-1" Cut="0.0000000000000000e+00" cType="1" res="-2.8714865911751986e-03" rms="4.0934467315673828e-01" purity="2.2028145194053650e-01" nType="-99"/>
        </Node>
        <Node pos="r" depth="1" NCoef="0" IVar="2" Cut="1.0141407251358032e+00" cType="1" res="8.2056328654289246e-02" rms="4.7340244054794312e-01" purity="6.2584900856018066e-01" nType="0">
          <Node pos="l" depth="2" NCoef="0" IVar="-1" Cut="0.0000000000000000e+00" cType="1" res="4.9879234284162521e-03" rms="4.3082302808761597e-01" purity="7.5351101160049438e-01" nType="-99"/>
          <Node pos="r" depth="2" NCoef="0" IVar="-1" Cut="0.0000000000000000e+00" cType="1" res="-3.7214056646917015e-05" rms="4.9333870410919189e-01" purity="5.1212716102600098e-01" nType="-99"/>
        </Node>
      </Node>
    </BinaryTree>
    <BinaryTree type="DecisionTree" boostWeight="1.0000000000000000e+00" itree="51">
      <Node pos="s" depth="0" NCoef="0" IVar="0" Cut="2.4803905487060547e+00" cType="1" res="1.6446456313133240e-02" rms="4.8250290751457214e-01" purity="5.3308933973312378e-01" nType="0">
        <Node pos="l" depth="1" NCoef="0" IVar="4" Cut="6.5177932739257812e+01" cType="1" res="6.0059700161218643e-02" rms="4.8036873340606689e-01" purity="5.8837109804153442e-01" nType="0">
          <Node pos="l" depth="2" NCoef="0" IVar="-1" Cut="0.0000000000000000e+00" cType="1" res="-3.9302851655520499e-04" rms="4.8791545629501343e-01" purity="5.0517940521240234e-01" nType="-99"/>
          <Node pos="r" depth="2" NCoef="0" IVar="-1" Cut="0.0000000000000000e+00" cType="1" res="2.9681322630494833e-03" rms="4.6232619881629944e-01" purity="6.5925407409667969e-01" nType="-99"/>
        </Node>
        <Node pos="r" depth="1" NCoef="0" IVar="1" Cut="6.9115481376647949e+00" cType="1" res="-2.0286126434803009e-01" rms="4.3067571520805359e-01" purity="2.5510665774345398e-01" nType="0">
          <Node pos="l" depth="2" NCoef="0" IVar="-1" Cut="0.0000000000000000e+00" cType="1" res="-3.0428140889853239e-03" rms="3.8687503337860107e-01" purity="1.8588429689407349e-01" nType="-99"/>
          <Node pos="r" depth="2" NCoef="0" IVar="-1" Cut="0.0000000000000000e+00" cType="1" res="-1.9581697415560484e-03" rms="4.6927553415298462e-01" purity="3.3712533116340637e-01" nType="-99"/>
        </Node>
      </Node>
    </BinaryTree>
    <BinaryTree type="DecisionTree" boostWeight="1.0000000000000000e+00" itree="52">
      <Node pos="s" depth="0" NCoef="0" IVar="2" Cut="1.0909297466278076e+00" cType="1" res="-1.1039824225008488e-02" rms="4.8213842511177063e-01" purity="5.0084716081619263e-01" nType="0">
        <Node pos="l" depth="1" NCoef="0" IVar="1" Cut="6.0121393203735352e+00" cType="1" res="9.2818200588226318e-02" rms="4.7129824757575989e-01" purity="6.3756650686264038e-01" nType="0">
          <Node pos="l" depth="2" NCoef="0" IVar="-1" Cut="0.0000000000000000e+00" cType="1" res="-1.0258554248139262e-03" rms="4.8767048120498657e-01" purity="4.2079719901084900e-01" nType="-99"/>
          <Node pos="r" depth="2" NCoef="0" IVar="-1" Cut="0.0000000000000000e+00" cType="1" res="3.4164676908403635e-03" rms="4.5547050237655640e-01" purity="7.0131397247314453e-01" nType="-99"/>
        </Node>
        <Node pos="r" depth="1" NCoef="0" IVar="8" Cut="9.3896669149398804e-01" cType="1" res="-1.0581053793430328e-01" rms="4.7229692339897156e-01" purity="3.7609052658081055e-01" nType="0">
          <Node pos="l" depth="2" NCoef="0" IVar="-1" Cut="0.0000000000000000e+00" cType="1" res="-2.7816826477646828e-03" rms="4.0716207027435303e-01" purity="2.1617770195007324e-01" nType="-99"/>
          <Node pos="r" depth="2" NCoef="0" IVar="-1" Cut="0.0000000000000000e+00" cType="1" res="-5.9756514383479953e-04" rms="4.8973032832145691e-01" purity="4.6205869317054749e-01" nType="-99"/>
        </Node>
      </Node>
    </BinaryTree>
    <BinaryTree type="DecisionTree" boostWeight="1.0000000000000000e+00" itree="53">
      <Node pos="s" depth="0" NCoef="0" IVar="0" Cut="2.3413200378417969e+00" cType="1" res="-1.3780857436358929e-02" rms="4.8311221599578857e-01" purity="5.0062340497970581e-01" nType="0">
        <Node pos="l" depth="1" NCoef="0" IVar="8" Cut="9.5322805643081665e-01" cType="1" res="6.0253217816352844e-02" rms="4.8060420155525208e-01" purity="5.9400510787963867e-01" nType="0">
          <Node pos="l" depth="2" NCoef="0" IVar="-1" Cut="0.0000000000000000e+00" cType="1" res="-2.2371341765392572e-04" rms="4.9289152026176453e-01" purity="4.9458864331245422e-01" nType="-99"/>
          <Node pos="r" depth="2" NCoef="0" IVar="-1" Cut="0.0000000000000000e+00" cType="1" res="3.2769201789051294e-03" rms="4.5629066228866577e-01" purity="6.9290262460708618e-01" nType="-99"/>
        </Node>
        <Node pos="r" depth="1" NCoef="0" IVar="2" Cut="1.2152944803237915e+00" cType="1" res="-1.9632707536220551e-01" rms="4.3877023458480835e-01" purity="2.7037161588668823e-01" nType="0">
          <Node pos="l" depth="2" NCoef="0" IVar="-1" Cut="0.0000000000000000e+00" cType="1" res="-6.9646426709368825e-04" rms="4.9365890026092529e-01" purity="4.5017585158348083e-01" nType="-99"/>
          <Node pos="r" depth="2" NCoef="0" IVar="-1" Cut="0.0000000000000000e+00" cType="1" res="-3.1035037245601416e-03" rms="4.0900552272796631e-01" purity="2.1388518810272217e-01" nType="-99"/>
        </Node>
      </Node>
    </BinaryTree>
    <BinaryTree type="DecisionTree" boostWeight="1.0000000000000000e+00" itree="54">
      <Node pos="s" depth="0" NCoef="0" IVar="0" Cut="2.3949801921844482e+00" cType="1" res="-3.6671862006187439e-02" rms="4.8280405998229980e-01" purity="4.7770830988883972e-01" nType="0">
        <Node pos="l" depth="1" NCoef="0" IVar="8" Cut="9.5410162210464478e-01" cType="1" res="1.7462052404880524e-02" rms="4.8662015795707703e-01" purity="5.4945683479309082e-01" nType="0">
          <Node pos="l" depth="2" NCoef="0" IVar="-1" Cut="0.0000000000000000e+00" cType="1" res="-9.2633249005302787e-04" rms="4.8995280265808105e-01" purity="4.4504630565643311e-01" nType="-99"/>
          <Node pos="r" depth="2" NCoef="0" IVar="-1" Cut="0.0000000000000000e+00" cType="1" res="2.3543671704828739e-03" rms="4.6920877695083618e-01" purity="6.6045081615447998e-01" nType="-99"/>
        </Node>
        <Node pos="r" depth="1" NCoef="0" IVar="1" Cut="7.4033346176147461e+00" cType="1" res="-2.0506972074508667e-01" rms="4.2908954620361328e-01" purity="2.5451564788818359e-01" nType="0">
          <Node pos="l" depth="2" NCoef="0" IVar="-1" Cut="0.0000000000000000e+00" cType="1" res="-3.1181597150862217e-03" rms="3.9537352323532104e-01" purity="1.9908399879932404e-01" nType="-99"/>
          <Node pos="r" depth="2" NCoef="0" IVar="-1" Cut="0.0000000000000000e+00" cType="1" res="-1.5832700300961733e-03" rms="4.8170191049575806e-01" purity="3.7946259975433350e-01" nType="-99"/>
        </Node>
      </Node>
    </BinaryTree>
    <BinaryTree type="DecisionTree" boostWeight="1.0000000000000000e+00" itree="55">
      <Node pos="s" depth="0" NCoef="0" IVar="0" Cut="2.1697409152984619e+00" cType="1" res="-2.3808732628822327e-02" rms="4.8160368204116821e-01" purity="4.9136209487915039e-01" nType="0">
        <Node pos="l" depth="1" NCoef="0" IVar="1" Cut="5.8043041229248047e+00" cType="1" res="7.6087854802608490e-02" rms="4.7641521692276001e-01" purity="6.1762648820877075e-01" nType="0">
          <Node pos="l" depth="2" NCoef="0" IVar="-1" Cut="0.0000000000000000e+00" cType="1" res="-1.4445623382925987e-03" rms="4.8147046566009521e-01" purity="3.7898331880569458e-01" nType="-99"/>
          <Node pos="r" depth="2" NCoef="0" IVar="-1" Cut="0.0000000000000000e+00" cType="1" res="2.5881167966872454e-03" rms="4.6599662303924561e-01" purity="6.6971892118453979e-01" nType="-99"/>
        </Node>
        <Node pos="r" depth="1" NCoef="0" IVar="2" Cut="1.3864952325820923e+00" cType="1" res="-1.4170207083225250e-01" rms="4.6057817339897156e-01" purity="3.4235066175460815e-01" nType="0">
          <Node pos="l" depth="2" NCoef="0" IVar="-1" Cut="0.0000000000000000e+00" cType="1" res="-1.0618747910484672e-03" rms="4.8564791679382324e-01" purity="4.3734756112098694e-01" nType="-99"/>
          <Node pos="r" depth="2" NCoef="0" IVar="-1" Cut="0.0000000000000000e+00" cType="1" res="-3.1854384578764439e-03" rms="3.9528679847717285e-01" purity="2.0050561428070068e-01" nType="-99"/>
        </Node>
      </Node>
    </BinaryTree>
    <BinaryTree type="DecisionTree" boostWeight="1.0000000000000000e+00" itree="56">
      <Node pos="s" depth="0" NCoef="0" IVar="2" Cut="1.1573593616485596e+00" cType="1" res="2.1494415123015642e-03" rms="4.8085206747055054e-01" purity="5.1679116487503052e-01" nType="0">
        <Node pos="l" depth="1" NCoef="0" IVar="1" Cut="7.4682884216308594e+00" cType="1" res="1.0162482410669327e-01" rms="4.6958696842193604e-01" purity="6.4856898784637451e-01" nType="0">
          <Node pos="l" depth="2" NCoef="0" IVar="-1" Cut="0.0000000000000000e+00" cType="1" res="6.4932205714285374e-04" rms="4.9180743098258972e-01" purity="5.6035596132278442e-01" nType="-99"/>
          <Node pos="r" depth="2" NCoef="0" IVar="-1" Cut="0.0000000000000000e+00" cType="1" res="5.5690552107989788e-03" rms="4.2093813419342041e-01" purity="7.6878386735916138e-01" nType="-99"/>
        </Node>
        <Node pos="r" depth="1" NCoef="0" IVar="1" Cut="7.2208361625671387e+00" cType="1" res="-1.1533682793378830e-01" rms="4.6730509400367737e-01" purity="3.6115381121635437e-01" nType="0">
          <Node pos="l" depth="2" NCoef="0" IVar="-1" Cut="0.0000000000000000e+00" cType="1" res="-2.4942732416093349e-03" rms="4.2848816514015198e-01" purity="2.5549724698066711e-01" nType="-99"/>
          <Node pos="r" depth="2" NCoef="0" IVar="-1" Cut="0.0000000000000000e+00" cType="1" res="4.3356162495911121e-04" rms="4.9199041724205017e-01" purity="5.2766418457031250e-01" nType="-99"/>
        </Node>
      </Node>
    </BinaryTree>
    <BinaryTree type="DecisionTree" boostWeight="1.0000000000000000e+00" itree="57">
      <Node pos="s" depth="0" NCoef="0" IVar="5" Cut="1.3177958726882935e+00" cType="1" res="-2.0423704758286476e-02" rms="4.8500013351440430e-01" purity="4.9655970931053162e-01" nType="0">
        <Node pos="l" depth="1" NCoef="0" IVar="2" Cut="8.2344472408294678e-01" cType="1" res="4.8624210059642792e-02" rms="4.8259368538856506e-01" purity="5.8131921291351318e-01" nType="0">
          <Node pos="l" depth="2" NCoef="0" IVar="-1" Cut="0.0000000000000000e+00" cType="1" res="3.8843699730932713e-03" rms="4.4625937938690186e-01" purity="7.1989411115646362e-01" nType="-99"/>
          <Node pos="r" depth="2" NCoef="0" IVar="-1" Cut="0.0000000000000000e+00" cType="1" res="4.6274311898741871e-05" rms="4.9046775698661804e-01" purity="5.2118009328842163e-01" nType="-99"/>
        </Node>
        <Node pos="r" depth="1" NCoef="0" IVar="1" Cut="7.9480271339416504e+00" cType="1" res="-1.4857958257198334e-01" rms="4.6289741992950439e-01" purity="3.3924254775047302e-01" nType="0">
          <Node pos="l" depth="2" NCoef="0" IVar="-1" Cut="0.0000000000000000e+00" cType="1" res="-2.5964698288589716e-03" rms="4.4428578019142151e-01" purity="2.8420382738113403e-01" nType="-99"/>
          <Node pos="r" depth="2" NCoef="0" IVar="-1" Cut="0.0000000000000000e+00" cType="1" res="4.4393283315002918e-04" rms="4.8901635408401489e-01" purity="5.4076093435287476e-01" nType="-99"/>
        </Node>
      </Node>
    </BinaryTree>
    <BinaryTree type="DecisionTree" boostWeight="1.0000000000000000e+00" itree="58">
      <Node pos="s" depth="0" NCoef="0" IVar="2" Cut="9.9144661426544189e-01" cType="1" res="-1.7872231081128120e-02" rms="4.8284208774566650e-01" purity="4.9972593784332275e-01" nType="0">
        <Node pos="l" depth="1" NCoef="0" IVar="6" Cut="1.2530019879341125e-01" cType="1" res="9.3634806573390961e-02" rms="4.6965223550796509e-01" purity="6.5318000316619873e-01" nType="0">
          <Node pos="l" depth="2" NCoef="0" IVar="-1" Cut="0.0000000000000000e+00" cType="1" res="3.3736680052243173e-04" rms="4.8823946714401245e-01" purity="5.7181829214096069e-01" nType="-99"/>
          <Node pos="r" depth="2" NCoef="0" IVar="-1" Cut="0.0000000000000000e+00" cType="1" res="5.8247460983693600e-03" rms="4.1566562652587891e-01" purity="7.7437841892242432e-01" nType="-99"/>
        </Node>
        <Node pos="r" depth="1" NCoef="0" IVar="1" Cut="7.8525156974792480e+00" cType="1" res="-9.4346717000007629e-02" rms="4.7684052586555481e-01" purity="3.9448311924934387e-01" nType="0">
          <Node pos="l" depth="2" NCoef="0" IVar="-1" Cut="0.0000000000000000e+00" cType="1" res="-2.0637945272028446e-03" rms="4.6044808626174927e-01" purity="3.2321521639823914e-01" nType="-99"/>
          <Node pos="r" depth="2" NCoef="0" IVar="-1" Cut="0.0000000000000000e+00" cType="1" res="1.4108185423538089e-03" rms="4.8278725147247314e-01" purity="5.9505665302276611e-01" nType="-99"/>
        </Node>
      </Node>
    </BinaryTree>
    <BinaryTree type="DecisionTree" boostWeight="1.0000000000000000e+00" itree="59">
      <Node pos="s" depth="0" NCoef="0" IVar="2" Cut="9.1342818737030029e-01" cType="1" res="-1.5108586288988590e-02" rms="4.8169302940368652e-01" purity="5.0133216381072998e-01" nType="0">
        <Node pos="l" depth="1" NCoef="0" IVar="4" Cut="7.7770874023437500e+01" cType="1" res="1.2931936979293823e-01" rms="4.5183101296424866e-01" purity="6.9205373525619507e-01" nType="0">
          <Node pos="l" depth="2" NCoef="0" IVar="-1" Cut="0.0000000000000000e+00" cType="1" res="1.0323447640985250e-03" rms="4.7819867730140686e-01" purity="6.1133056879043579e-01" nType="-99"/>
          <Node pos="r" depth="2" NCoef="0" IVar="-1" Cut="0.0000000000000000e+00" cType="1" res="7.3728263378143311e-03" rms="3.7805551290512085e-01" purity="8.1437391042709351e-01" nType="-99"/>
        </Node>
        <Node pos="r" depth="1" NCoef="0" IVar="8" Cut="9.3848472833633423e-01" cType="1" res="-7.7743485569953918e-02" rms="4.8077890276908875e-01" purity="4.1862085461616516e-01" nType="0">
          <Node pos="l" depth="2" NCoef="0" IVar="-1" Cut="0.0000000000000000e+00" cType="1" res="-2.4927749764174223e-03" rms="4.2941263318061829e-01" purity="2.5183504819869995e-01" nType="-99"/>
          <Node pos="r" depth="2" NCoef="0" IVar="-1" Cut="0.0000000000000000e+00" cType="1" res="-2.2305914899334311e-04" rms="4.9250108003616333e-01" purity="5.0340199470520020e-01" nType="-99"/>
        </Node>
      </Node>
    </BinaryTree>
    <BinaryTree type="DecisionTree" boostWeight="1.0000000000000000e+00" itree="60">
      <Node pos="s" depth="0" NCoef="0" IVar="0" Cut="2.2749474048614502e+00" cType="1" res="-2.7129108086228371e-02" rms="4.8253801465034485e-01" purity="4.9001097679138184e-01" nType="0">
        <Node pos="l" depth="1" NCoef="0" IVar="4" Cut="8.7937034606933594e+01" cType="1" res="5.0370000302791595e-02" rms="4.8132523894309998e-01" purity="5.9322565793991089e-01" nType="0">
          <Node pos="l" depth="2" NCoef="0" IVar="-1" Cut="0.0000000000000000e+00" cType="1" res="1.1335804629197810e-05" rms="4.8876580595970154e-01" purity="5.4218631982803345e-01" nType="-99"/>
          <Node pos="r" depth="2" NCoef="0" IVar="-1" Cut="0.0000000000000000e+00" cType="1" res="4.0277894586324692e-03" rms="4.4319939613342285e-01" purity="7.1034282445907593e-01" nType="-99"/>
        </Node>
        <Node pos="r" depth="1" NCoef="0" IVar="4" Cut="8.8216430664062500e+01" cType="1" res="-1.6755641996860504e-01" rms="4.5206004381179810e-01" purity="3.0298742651939392e-01" nType="0">
          <Node pos="l" depth="2" NCoef="0" IVar="-1" Cut="0.0000000000000000e+00" cType="1" res="-3.0554337427020073e-03" rms="4.0552487969398499e-01" purity="2.1823531389236450e-01" nType="-99"/>
          <Node pos="r" depth="2" NCoef="0" IVar="-1" Cut="0.0000000000000000e+00" cType="1" res="-1.1680070310831070e-03" rms="4.8299348354339600e-01" purity="3.9983817934989929e-01" nType="-99"/>
        </Node>
      </Node>
    </BinaryTree>
    <BinaryTree type="DecisionTree" boostWeight="1.0000000000000000e+00" itree="61">
      <Node pos="s" depth="0" NCoef="0" IVar="2" Cut="9.6088594198226929e-01" cType="1" res="-2.4885207414627075e-02" rms="4.8295819759368896e-01" purity="4.9347585439682007e-01" nType="0">
        <Node pos="l" depth="1" NCoef="0" IVar="4" Cut="4.3401618957519531e+01" cType="1" res="1.2525290250778198e-01" rms="4.5598334074020386e-01" purity="6.9088816642761230e-01" nType="0">
          <Node pos="l" depth="2" NCoef="0" IVar="-1" Cut="0.0000000000000000e+00" cType="1" res="-5.9760530712082982e-04" rms="4.9287050962448120e-01" purity="5.3384882211685181e-01" nType="-99"/>
          <Node pos="r" depth="2" NCoef="0" IVar="-1" Cut="0.0000000000000000e+00" cType="1" res="4.0187016129493713e-03" rms="4.4058758020401001e-01" purity="7.2435379028320312e-01" nType="-99"/>
        </Node>
        <Node pos="r" depth="1" NCoef="0" IVar="8" Cut="9.7968238592147827e-01" cType="1" res="-1.0570411384105682e-01" rms="4.7772043943405151e-01" purity="3.8720941543579102e-01" nType="0">
          <Node pos="l" depth="2" NCoef="0" IVar="-1" Cut="0.0000000000000000e+00" cType="1" res="-1.8047570483759046e-03" rms="4.7345972061157227e-01" purity="3.6507719755172729e-01" nType="-99"/>
          <Node pos="r" depth="2" NCoef="0" IVar="-1" Cut="0.0000000000000000e+00" cType="1" res="2.9283922631293535e-03" rms="4.7142788767814636e-01" purity="6.5329843759536743e-01" nType="-99"/>
        </Node>
      </Node>
    </BinaryTree>
    <BinaryTree type="DecisionTree" boostWeight="1.0000000000000000e+00" itree="62">
